//#define BANSHEE

#define HWC

#define IFMAP_SIZE 768
#define WEIGHTS_SIZE 4608
#define OFMAP_SIZE 384

#define CONV2D_CO 16
#define CONV2D_CI 32
#define CONV2D_IH 3
#define CONV2D_IW 8
#define CONV2D_OH 3
#define CONV2D_OW 8
#define CONV2D_FH 3
#define CONV2D_FW 3
#define SIZE_IFMAP 768
#define SIZE_WEIGHTS 4608

static double result[3][8][16] __attribute__((section(".data")));

static double checksum[3][8] = {-22.589784622192383, -63.33053970336914, -76.97206115722656, 61.08258819580078, 1.5769596099853516, -19.590490341186523, -59.756160736083984, 56.070167541503906, -21.100950241088867, -6.889125823974609, -53.67962646484375, 74.52650451660156, 51.80765151977539, 16.217437744140625, 64.06095123291016, 22.92629623413086, -58.312278747558594, -146.31332397460938, -110.63480377197266, -38.56831359863281, -57.117218017578125, 71.50042724609375, 24.074542999267578, 13.641364097595215};


static double ifmap_dram[3][8][32] = {1.9269152879714966, 1.27912437915802, -0.9138230085372925, -0.1721901297569275, -2.5095443725585938, -0.012685478664934635, -0.9726738929748535, -1.6021603345870972, 1.7743884325027466, -0.39799532294273376, -0.9291303157806396, -1.598767638206482, 0.9732939004898071, 0.17988650500774384, 0.8853808045387268, 1.900311827659607, 0.6663737893104553, 0.9446058869361877, -0.4939993619918823, 1.591395616531372, 1.621694564819336, -0.9638485312461853, 1.3438509702682495, 2.0070879459381104, -0.8032152652740479, 0.4981626570224762, -0.4137862026691437, 0.455719918012619, 2.129624843597412, -0.108744777739048, 0.9594927430152893, 0.45901596546173096, 1.4872840642929077, 1.2964228391647339, -0.6581372618675232, 0.5237884521484375, 0.4880010485649109, 0.24083632230758667, 0.9584577679634094, 1.3528969287872314, -0.921550989151001, 1.0804862976074219, 0.2761908769607544, -0.10912995040416718, -1.0150787830352783, -2.126762628555298, 0.1824439913034439, 1.6950805187225342, -0.07426456362009048, -1.5824053287506104, 1.1366126537322998, -0.1208132952451706, 0.8512656688690186, -2.5667941570281982, -1.2922308444976807, -1.2531019449234009, -1.1209005117416382, -1.1999552249908447, 0.5184088349342346, 0.2503303289413452, -1.5181471109390259, -0.4189043343067169, 0.10350999981164932, 0.5309328436851501, 0.9007171988487244, 0.610466480255127, 0.07802387326955795, 0.056621819734573364, 0.7845868468284607, 0.13253536820411682, 1.6192004680633545, 1.288827657699585, 0.9624499082565308, -1.7808643579483032, -0.5388752818107605, 0.7151994705200195, -0.5419175624847412, -0.13408313691616058, 0.7863810062408447, 0.028089528903365135, -0.20960482954978943, 0.9871290922164917, -0.46184006333351135, -0.48302069306373596, -0.40046969056129456, 0.7096128463745117, 0.766244113445282, 1.118869423866272, 0.1956406533718109, 0.12711313366889954, -0.7015367746353149, -1.3610970973968506, 0.1387282907962799, 1.4384385347366333, 0.8290349841117859, -1.3614802360534668, -2.1055209636688232, 1.334737777709961, 0.5258087515830994, 0.4262961447238922, 0.02864718623459339, 0.7642406225204468, 1.450609803199768, 0.05229547247290611, -0.33701515197753906, 1.5080454349517822, 0.4625823199748993, 0.03913922235369682, -0.44102486968040466, -1.0407685041427612, -0.057920295745134354, -0.17536965012550354, 0.16632132232189178, 1.1456739902496338, 1.419979453086853, 0.11329790204763412, -0.6088271737098694, 0.8198426961898804, 0.64540034532547, 1.7732776403427124, -0.7815181016921997, 0.4403660297393799, -0.4323408901691437, 1.8018341064453125, -1.1797568798065186, -0.7068426609039307, 2.0921294689178467, 1.9562491178512573, 0.6784184575080872, -0.2316243201494217, -0.48799172043800354, 0.575005054473877, 0.640755295753479, 1.095009684562683, 0.2694815397262573, -1.5468504428863525, -1.1753336191177368, 0.30942854285240173, -0.8718891143798828, 1.305860161781311, -0.3136177957057953, -0.7647228837013245, 0.5666652917861938, -1.7734959125518799, 1.4703037738800049, -0.14181147515773773, 0.848518967628479, 0.0771508663892746, -0.508095383644104, 0.6214459538459778, 0.353316068649292, -2.071660280227661, -1.7898789644241333, 0.6377718448638916, 0.1414770483970642, -0.07434194535017014, -0.5297411680221558, -1.2519514560699463, 0.7953095436096191, 1.7684898376464844, -1.2345448732376099, 0.041759490966796875, 1.1913690567016602, -0.6417241096496582, 0.5832474231719971, 0.3398909568786621, -0.21037597954273224, 0.7567060589790344, 0.35805708169937134, -0.5003090500831604, -0.027118360623717308, 0.24659274518489838, -0.12925422191619873, -0.05528254434466362, -0.7097623348236084, -0.7046414017677307, -0.9390866756439209, -0.2763414680957794, -0.047891248017549515, -0.9228128790855408, -0.6184902191162109, 0.42318588495254517, -2.6474881172180176, -0.4125255346298218, -0.26157355308532715, 0.15978877246379852, 0.07110362499952316, -0.15664155781269073, 0.9625157713890076, 3.0250484943389893, 0.2792847752571106, -0.9857985377311707, -0.04306747764348984, -0.2515752911567688, -0.8140076398849487, -2.2063984870910645, 1.0669267177581787, 0.7199674844741821, -0.7328027486801147, 0.7755194902420044, 0.47876790165901184, 1.0350031852722168, -0.3532457649707794, -1.9775909185409546, -0.7149624228477478, 1.204850673675537, -0.4875054359436035, -0.39465200901031494, -0.6013189554214478, -0.19321373105049133, 0.6685602068901062, -1.2619991302490234, -1.647040605545044, -0.33889833092689514, -1.4575366973876953, -0.9769555926322937, -0.44025033712387085, 1.7697970867156982, 0.5633530616760254, -0.8708454966545105, 0.2794382870197296, 1.3462589979171753, 0.1864478439092636, -1.2370758056640625, -1.6046669483184814, 0.859858512878418, -0.7359927892684937, -0.7508030533790588, -0.4501533806324005, 0.41140761971473694, 0.10429783165454865, 2.0265355110168457, 1.353700041770935, 1.6896470785140991, 1.4638569355010986, 0.01789604313671589, -0.047562163323163986, -0.982473611831665, 0.050095997750759125, 1.8868111371994019, -0.09964022785425186, 0.7767809629440308, 1.0429801940917969, 1.0860532522201538, -1.0362098217010498, 0.5179733633995056, -0.9712379574775696, -0.03363388776779175, 2.1848294734954834, 0.6268176436424255, -0.5786357522010803, -0.6410972476005554, -0.5718191266059875, 0.8556069731712341, 0.3547132909297943, -2.301875114440918, -0.7521352767944336, -1.3846737146377563, -1.4032478332519531, 0.01086814422160387, -0.18526747822761536, 1.931160569190979, 0.3487516939640045, 0.03581761196255684, 0.5260620713233948, -0.004505051765590906, 1.255434274673462, -1.3793021440505981, 2.0207436084747314, 0.4334380030632019, 0.6084084510803223, -0.21844321489334106, -0.9851518273353577, 0.6838752627372742, 0.6899017095565796, 1.096641182899475, -0.4503057301044464, -1.363769769668579, 0.25403109192848206, 1.8594977855682373, -0.48009708523750305, -1.8736529350280762, -1.083811640739441, -0.414562851190567, -2.7936289310455322, 0.3220294117927551, 0.09063850343227386, -0.0010087001137435436, 1.6487230062484741, -0.8712361454963684, 0.03600366786122322, -0.33874234557151794, 0.7527588605880737, 1.0118638277053833, 0.9675941467285156, 0.12058872729539871, 2.1120378971099854, 1.666792392730713, -0.7149558067321777, 0.625802755355835, 0.25391900539398193, -0.7171905636787415, 1.6308681964874268, 0.16629981994628906, -2.488459348678589, -1.3245893716812134, -1.3129348754882812, -0.6836934685707092, -0.0729660615324974, 0.1929578185081482, -0.1790592074394226, 2.6221468448638916, -1.2871733903884888, 2.3259060382843018, -0.3889259994029999, -0.6902380585670471, -0.7111545205116272, 0.44605663418769836, 1.7422553300857544, -0.8494256734848022, -0.3924786448478699, -0.223365917801857, -0.06347727030515671, -1.3406795263290405, 0.4047577977180481, -1.4364064931869507, -0.46568843722343445, -0.8056637048721313, -0.5207571387290955, 0.15392017364501953, 0.8539193272590637, -2.5849502086639404, 0.9364385008811951, 1.055369257926941, -0.08472306281328201, 2.1441681385040283, -0.33131900429725647, -0.5160817503929138, 0.03780364990234375, 0.06604336202144623, -0.5479549169540405, -0.6103342771530151, 1.1992844343185425, 0.36905255913734436, 0.7388824224472046, -0.9203909635543823, 0.8126105666160583, -0.22995619475841522, 0.5235219597816467, 1.5229592323303223, -1.2660012245178223, -1.6593921184539795, -1.4036071300506592, 1.7173614501953125, 0.6756148934364319, -0.5853705406188965, 0.17846599221229553, -1.1298598051071167, 1.6047972440719604, -0.20757682621479034, -0.9320061206817627, -1.0602530241012573, 0.512991189956665, -0.02399955503642559, 0.7122363448143005, -1.4533969163894653, 1.0844124555587769, 1.7045671939849854, 0.8435799479484558, 0.6001842617988586, -1.1702114343643188, -0.0007737990817986429, -1.1425532102584839, 0.16323445737361908, -0.4292171895503998, 0.3802972435951233, 0.03389474004507065, 0.6661149263381958, 1.4981187582015991, -2.172283887863159, -1.71055006980896, 1.2804899215698242, 0.38916081190109253, 0.3062905967235565, -0.7278813123703003, 0.3188803195953369, -0.0978068932890892, 0.5361881256103516, 0.2649095058441162, -0.1360345333814621, -2.4801201820373535, -0.9319478273391724, 0.18516133725643158, -0.572657585144043, 0.5397310256958008, -0.1221928745508194, -0.031765542924404144, 0.46515071392059326, 0.9477656483650208, 0.3459012508392334, 0.9874473810195923, -0.4702208340167999, -0.10318559408187866, 0.1620604395866394, -0.44875210523605347, 1.51017165184021, 1.010284185409546, 0.19898031651973724, -0.31229403614997864, -0.44026491045951843, 0.043896086513996124, 0.08768323808908463, 0.8384853601455688, -0.11616043001413345, 0.34287506341934204, 1.182044506072998, -0.5594301819801331, -0.42451897263526917, 1.8445940017700195, 0.5246226191520691, 1.2731683254241943, 1.6354095935821533, -0.4175437390804291, -1.5909662246704102, 1.0686918497085571, 0.0835680365562439, 0.5655050277709961, -0.7469954490661621, 0.10164086520671844, 0.37139150500297546, -0.676629364490509, 0.6424751281738281, -0.33197471499443054, -0.6086435317993164, 1.1894739866256714, 1.195958137512207, -0.03045438416302204, 0.21230429410934448, 0.6110401153564453, -0.23609064519405365, -0.2541753351688385, -2.3179564476013184, 1.4443233013153076, 1.0937845706939697, -0.2698453664779663, 1.3705363273620605, -1.4590637683868408, 0.32602694630622864, -0.7688388824462891, 0.3057209253311157, -1.184537410736084, 1.1412016153335571, -0.0013108636485412717, 0.6547407507896423, -1.1954537630081177, -1.13597571849823, 1.3065344095230103, 0.39990535378456116, 0.5057917237281799, 1.7093087434768677, 1.3433040380477905, -0.004656785633414984, -0.5730168223381042, -0.20395424962043762, -0.8076189756393433, -0.046192023903131485, 0.7606944441795349, -1.3061535358428955, 0.3830311596393585, -0.7252011299133301, 1.2208385467529297, 0.30340856313705444, -1.205536127090454, 1.294582724571228, 0.23202891647815704, -0.1177205815911293, 0.12306158244609833, -0.4809381365776062, -1.4936561584472656, -0.3894469738006592, 0.7624453902244568, -0.7745925188064575, 1.3835493326187134, 0.05164359509944916, -0.30360376834869385, 0.5760045647621155, 0.8123369216918945, -0.52259761095047, 0.4598345160484314, 1.989207148551941, 0.22245365381240845, 0.05792269483208656, 0.7132695913314819, 0.07954943925142288, -0.3303174376487732, 0.6853673458099365, 0.824364185333252, -1.6457397937774658, -0.7463049292564392, -1.4039719104766846, -0.04476971551775932, -0.9527732729911804, -0.6076440215110779, -0.45007675886154175, -0.9542103409767151, 0.22267311811447144, 0.5064983367919922, -0.29864323139190674, 0.8757511377334595, -0.9903622269630432, -0.22138521075248718, 2.8543806076049805, 1.6423169374465942, -1.5575724840164185, 1.4451338052749634, 0.7439519762992859, -1.457029104232788, 1.1415079832077026, -1.9005532264709473, -0.5187733173370361, -0.8146268725395203, -0.07198750972747803, -0.685481607913971, 1.1929805278778076, 0.4038029611110687, 0.3781784772872925, -0.7939430475234985, -0.13968797028064728, 0.024699924513697624, -0.4833274185657501, -1.3838845491409302, -1.0597201585769653, 1.179942011833191, 0.5216943025588989, -1.7376028299331665, 0.47390419244766235, 0.061276569962501526, -0.8483412265777588, -1.2786966562271118, -0.9536206126213074, 0.15132997930049896, -1.3641812801361084, 0.22523505985736847, 0.8243650794029236, -0.1595974713563919, 0.9956361055374146, 0.8564125299453735, -0.4815843999385834, -0.10233523696660995, 0.018564576283097267, 0.22857652604579926, -1.5012763738632202, -1.0212392807006836, -0.906094491481781, 0.5635589957237244, 1.9372931718826294, -0.7139783501625061, 0.7051141262054443, 0.3752319812774658, -1.1807502508163452, -1.0641486644744873, -0.740294337272644, 0.4868715703487396, 0.3057299852371216, -0.33142781257629395, -0.46386733651161194, -0.12535162270069122, 0.6503364443778992, 0.08526104688644409, 1.6489421129226685, -0.03842746838927269, -0.09247277677059174, 0.739393413066864, 0.008205652236938477, -0.07724537700414658, 0.7983470559120178, -0.4973975419998169, -0.8797858357429504, 2.218075752258301, -1.0494661331176758, -0.5991530418395996, -1.8058050870895386, 0.02485940419137478, -1.9266542196273804, -0.49492356181144714, -2.0487122535705566, -1.507175087928772, 0.7287133932113647, 0.8337291479110718, -1.7236974239349365, 0.08790969103574753, -1.282929539680481, -0.7601934671401978, 0.31428107619285583, -1.0020296573638916, 0.4150581359863281, 0.6495042443275452, 0.18237744271755219, -1.3658148050308228, 1.1662380695343018, 0.7481252551078796, 1.6005686521530151, 1.9138009548187256, -1.01665461063385, 0.27310314774513245, -0.40586018562316895, 0.9856945276260376, 1.8890222311019897, 0.439589262008667, -0.6011420488357544, 0.5231655240058899, 0.603898823261261, 0.4770564138889313, 0.9254348874092102, -0.34595024585723877, 0.1278512328863144, -0.5922516584396362, -1.0810555219650269, -1.610666036605835, 0.9808937907218933, -0.9585452079772949, -0.8434810638427734, -1.241483449935913, 0.448485791683197, -0.4075061082839966, 0.1415553092956543, 0.0329488180577755, -0.7174144983291626, 0.09495851397514343, -0.38666075468063354, 1.111746072769165, 0.01693599671125412, -0.16356196999549866, -0.07858924567699432, 0.3378446102142334, -0.007675689645111561, 2.7312309741973877, -0.7110859751701355, 1.2783364057540894, 0.5934628248214722, -0.7581311464309692, -1.2741512060165405, 0.34664666652679443, -1.7222950458526611, 0.7261772155761719, -0.3753443658351898, 0.2868328094482422, 1.0229133367538452, 0.15431594848632812, 0.01762307994067669, -1.4790465831756592, 0.41459226608276367, 0.45363426208496094, 0.4351435601711273, -0.32025346159935, -0.590737521648407, 0.9623646140098572, 1.0348176956176758, -0.42919591069221497, 2.833967924118042, -0.7525874376296997, -1.7906768321990967, -0.6227966547012329, 0.5325868129730225, -0.9085567593574524, 0.43104586005210876, 0.12505611777305603, -0.518220841884613, 0.43200522661209106, -0.3495793640613556, 0.28815189003944397, 0.0696544423699379, 1.078317642211914, 2.1227850914001465, -0.19733144342899323, -0.827768862247467, 0.09115186333656311, 1.0330873727798462, -0.7308424115180969, -0.5557951331138611, 0.4407670795917511, 0.0782259851694107, 0.4322742819786072, 1.15656316280365, 1.2460919618606567, 0.26588720083236694, -0.844377875328064, 0.8540631532669067, -0.14264194667339325, -0.626437783241272, -0.9817978739738464, 1.9534740447998047, -0.647229790687561, 0.09329313784837723, -0.7891808748245239, -0.6035352349281311, 0.3129958212375641, 0.3683530390262604, -0.7621514797210693, 0.83954256772995, -0.30918216705322266, 0.3797488212585449, 0.869049608707428, -1.6034338474273682, 0.8008005619049072, -1.234653115272522, -1.0545889139175415, 1.334702968597412, -0.3890652060508728, -0.6866509318351746, 0.17482025921344757, 0.7042727470397949, -0.14829230308532715, 0.19315829873085022, -0.1250254064798355, 0.2690545618534088, -2.3065085411071777, -0.5870985388755798, -0.5513465404510498, -0.4900680184364319, 0.15271379053592682, -0.5150922536849976, -0.6420586109161377, 2.0486814975738525, -1.2822614908218384, -1.9152568578720093, -0.167823925614357, -0.1742597371339798, 0.8050477504730225, 0.7637977004051208, -1.190559983253479, 0.05852266773581505, -0.09658124297857285, 0.9993040561676025, -0.8097057938575745, -0.42982181906700134, 1.680620551109314, -0.4879138767719269, 1.2779955863952637, 0.48353928327560425, 0.5279164910316467, 0.6368136405944824, -1.0939292907714844, 0.7098760008811951, -2.3184432983398438, 0.40967342257499695, 0.7821183800697327, -0.036629438400268555, -1.2868918180465698, 0.0826888456940651, 1.9889612197875977, -0.35945725440979004, -0.0388023778796196, 0.6902899742126465, 0.8265887498855591, -1.0880382061004639, 1.96529221534729, -0.6421752572059631, 1.6433145999908447, 0.6092063784599304, -1.1133604049682617, 1.1792222261428833, 0.7756073474884033, -1.6682480573654175, 1.541925072669983, 1.2751853466033936, -1.4298604726791382, 0.5761587619781494};


static double weights_dram[16][3][3][32] = {0.34436315298080444, -0.8211768269538879, 0.7448412775993347, 0.3478375971317291, -0.605182409286499, -0.47199076414108276, 0.22404761612415314, 0.11352583765983582, -0.28154700994491577, -0.886031985282898, -0.2904934287071228, -0.6637441515922546, -1.1755682229995728, -2.5446670055389404, -1.5597758293151855, 1.1042989492416382, 1.861944556236267, -1.2123126983642578, -2.247206211090088, 0.7060741186141968, 0.2761341631412506, 1.4557304382324219, 1.3061575889587402, 0.45214036107063293, 0.051366694271564484, -0.058557309210300446, 2.1425962448120117, 0.07734657824039459, 0.1417587399482727, 0.06978437304496765, -0.07032525539398193, -1.5196866989135742, -3.1016058921813965, -0.47086891531944275, 1.345484972000122, 0.7401772737503052, -0.17924511432647705, -1.2894343137741089, -0.7554785013198853, -0.22056575119495392, 0.05281926319003105, 1.4801039695739746, -0.13345853984355927, 0.3657907545566559, -0.0783226415514946, 1.3719074726104736, -0.8009540438652039, -0.5223758816719055, -1.077892780303955, 2.602391004562378, -0.4478967487812042, 0.35730111598968506, -0.5895728468894958, -0.3461014926433563, -0.9275763630867004, 0.8520749807357788, 0.6950237154960632, 0.12574470043182373, -0.5153723955154419, 0.6477669477462769, 1.1084681749343872, -1.6634936332702637, 0.27448296546936035, -0.29335519671440125, -1.4587225914001465, 0.6016423106193542, 0.12682189047336578, 1.4161995649337769, 0.19955870509147644, 1.0762810707092285, 1.3675810098648071, 0.7118127346038818, 0.42497751116752625, 0.8391514420509338, -0.15693345665931702, -0.39920157194137573, -0.9705761075019836, -0.5379461050033569, -0.7111086845397949, -0.7401803731918335, 0.8848565220832825, -0.09572362899780273, 0.4234687089920044, 0.5892837643623352, 0.569182813167572, -0.2633814215660095, -0.26273947954177856, -1.6946725845336914, 1.835181474685669, -0.5525766611099243, 1.0827196836471558, -0.4324244260787964, 0.5544233322143555, -0.7650561332702637, -0.3450125455856323, 2.106604814529419, -1.4318257570266724, -0.28251126408576965, -2.4520716667175293, 0.6833979487419128, -1.2461947202682495, -1.0667427778244019, -0.3197358250617981, 0.3415871560573578, 0.4825834333896637, -0.20004984736442566, 1.138344645500183, 0.49674081802368164, 1.4723693132400513, 0.7378400564193726, -0.3866667151451111, 0.16235657036304474, -0.8342104554176331, -0.08114803582429886, -0.3874586224555969, 0.9187757968902588, -0.7911050319671631, -0.447700172662735, 0.9314952492713928, 1.1805996894836426, -1.9180361032485962, 0.07448001205921173, 1.2498642206192017, 1.1740480661392212, 1.5817502737045288, 1.2306435108184814, -0.11961783468723297, -0.10875027626752853, -0.6071268916130066, 0.7692679762840271, 0.4159761369228363, -0.13825182616710663, -0.41459938883781433, -1.9893426895141602, -0.9130924344062805, 1.5885895490646362, 0.48813387751579285, 0.9949536919593811, -0.2505214214324951, -2.369169235229492, 1.4108561277389526, -0.8505349159240723, 0.9578314423561096, -0.2369976043701172, 1.0300744771957397, 1.2586976289749146, -0.22963792085647583, 0.6662830114364624, -0.19896702468395233, -0.7288169264793396, -0.4593467116355896, -2.8929238319396973, -1.3923954963684082, -0.1492866724729538, 0.9821351766586304, 0.7011352777481079, -1.2247875928878784, 0.4252126216888428, 1.1861584186553955, 0.608341634273529, -0.25973787903785706, -0.7668924331665039, 1.9025356769561768, 0.9212995171546936, 1.4558700323104858, 0.29731303453445435, 1.919209361076355, -0.3488781750202179, 1.0082393884658813, 0.7201864719390869, 1.6704555749893188, -0.5614708065986633, -1.3143675327301025, 0.03610055148601532, -0.8225308656692505, 0.5099347233772278, -0.8680985569953918, 0.8691263794898987, -0.40709349513053894, 0.24650610983371735, -1.3615714311599731, -0.16066236793994904, -0.9419456720352173, -0.3875778615474701, 0.540465772151947, -0.5522539615631104, 0.22690092027187347, 0.6674330234527588, 0.962885856628418, -0.016383398324251175, -1.2203160524368286, 0.7894347310066223, -0.7190185785293579, -0.9494866728782654, -0.7346699833869934, 0.5282443761825562, 0.3316534161567688, 0.4344584047794342, -1.6514869928359985, -0.45791950821876526, -0.595004141330719, -0.13413065671920776, -0.545271098613739, -0.5949130654335022, -1.31621515750885, 1.3406710624694824, -2.3908050060272217, 1.670624852180481, -0.5701602697372437, -0.9609367251396179, 0.8702965974807739, 0.1328691989183426, -0.5193602442741394, -0.32063713669776917, -0.7089186310768127, -0.7124031782150269, 0.4350730776786804, -0.09342008084058762, 0.4927920699119568, -0.8035953640937805, -1.5785412788391113, -0.10749480873346329, 0.2909986078739166, 0.7824702858924866, -0.38583096861839294, 0.01691739819943905, 0.044657133519649506, -0.008228386752307415, -1.00010085105896, 0.0033933203667402267, 2.1477253437042236, -1.2322070598602295, 0.3926331400871277, -1.4067999124526978, -2.15816330909729, 1.2687278985977173, -1.2524477243423462, 0.9199973940849304, 0.322247713804245, 1.5921050310134888, 0.32332202792167664, 0.05182264745235443, -1.0552809238433838, 0.12191462516784668, 0.07648162543773651, -0.6307737827301025, 2.1860759258270264, -1.6171332597732544, -2.2717032432556152, -1.0284309387207031, -0.5128253102302551, -1.3776048421859741, 0.6715953946113586, -1.3085604906082153, -0.07964225858449936, -0.06465863436460495, 0.5233525037765503, 0.08027740567922592, -1.5211198329925537, -1.4493319988250732, -0.6919524669647217, -1.0240145921707153, -0.6604134440422058, -0.598077118396759, 0.8229668736457825, -2.3609628677368164, -1.6607975959777832, 1.2904434204101562, -1.5844100713729858, -0.3787555396556854, 1.875388741493225, -0.41619211435317993, 1.1284750699996948, -0.3284812867641449, -1.3284013271331787, 0.47808775305747986, 0.34005025029182434, -0.788766622543335, -0.6493158936500549, -0.35899198055267334, -0.13386189937591553, 0.40444278717041016, 0.3006223440170288, -0.4410470724105835, -0.060151856392621994, 0.659813642501831, 1.3200364112854004, -0.0002302070497535169, 0.6830949187278748, -0.8240620493888855, 0.37119555473327637, 0.49413225054740906, 0.2014705091714859, -1.458429217338562, 0.2528532147407532, -0.21609316766262054, -0.7486876249313354, -0.4341987073421478, 0.5769069790840149, 1.170888900756836, 1.8071491718292236, -0.9939178228378296, 1.2354754209518433, -1.5509816408157349, 0.5585124492645264, -0.8441710472106934, 1.4888246059417725, -0.08793152123689651, 0.535078763961792, -0.47921040654182434, 0.43399056792259216, 2.268347978591919, 2.4400694370269775, -0.2798626720905304, -0.17175325751304626, 0.9851812124252319, -0.02316661737859249, 1.2206652164459229, -0.4999869465827942, -1.2260730266571045, 0.1063748151063919, 0.8932762742042542, 1.5117958784103394, -0.18495284020900726, 0.3839779198169708, 1.8989076614379883, -0.10754015296697617, 0.0019485306693241, -0.3844030499458313, -0.015211731195449829, 0.14730526506900787, 2.1779797077178955, -0.7326241135597229, 2.9082677364349365, 1.0141247510910034, -0.7881835699081421, 0.3491472005844116, -0.22143854200839996, 0.8825610876083374, -0.27431318163871765, -1.3392163515090942, 0.2998451292514801, 1.1234275102615356, -1.7732727527618408, -1.912861704826355, 1.0837124586105347, -0.6866653561592102, -0.7609738707542419, -0.011093219742178917, -0.06297583878040314, -0.5500510334968567, -0.33963847160339355, 0.3503226041793823, -0.386881560087204, -0.8914596438407898, -1.0380902290344238, 1.2309634685516357, -0.04056643322110176, 0.7705280780792236, -0.20979070663452148, 0.14350247383117676, 0.5427215099334717, -1.3136197328567505, 1.7791979312896729, 0.4093967378139496, 1.4483332633972168, 1.01323664188385, 0.5684375166893005, 0.8483667373657227, 2.274590015411377, -0.23840203881263733, 1.2922906875610352, 1.2357676029205322, 0.721377432346344, 0.5057575702667236, -0.9907275438308716, 0.31076598167419434, 0.17298388481140137, -0.1326882690191269, -1.2726119756698608, -0.9952824711799622, 1.1463638544082642, 0.023851748555898666, 0.007326157763600349, 0.12109924107789993, -0.35717684030532837, 0.5247467160224915, -0.10130416601896286, 1.2286686897277832, -0.2933650016784668, -1.1304327249526978, 1.2010222673416138, -0.0812682956457138, 0.12508316338062286, -0.6061143279075623, 0.25832492113113403, -0.5840954780578613, -0.5614521503448486, 0.6346396803855896, 0.7622402906417847, 2.0354838371276855, -0.783242404460907, 0.5468734502792358, -1.4458993673324585, -2.0370566844940186, -0.6184468865394592, -1.137097716331482, 0.634861409664154, -1.4762635231018066, 0.5123522281646729, 1.6295740604400635, -0.6267421841621399, -0.29935362935066223, 1.2215378284454346, -1.5203826427459717, -0.052180398255586624, 0.2984321117401123, -1.1568186283111572, 0.3517809212207794, -0.9271824359893799, 0.7042104005813599, 1.397810459136963, 0.996456503868103, 0.675596296787262, 1.1261653900146484, -0.8761705756187439, 0.6449755430221558, -2.4340736865997314, 0.10613418370485306, -0.9464563131332397, 0.8768793344497681, 0.5568539500236511, 0.3772087097167969, -0.26778313517570496, -0.06058019772171974, -0.31466683745384216, 1.4171453714370728, 0.545662522315979, -0.758182168006897, 1.0238486528396606, -0.47829392552375793, -0.9818529486656189, -1.5456795692443848, 1.3712586164474487, 0.7670295834541321, -0.31372663378715515, 0.5293999314308167, 1.167490005493164, 1.3447729349136353, -1.7659958600997925, 0.2491273283958435, 0.23484112322330475, -0.05628490820527077, -0.9166569709777832, -1.1809622049331665, -1.8900177478790283, 0.04061844199895859, 1.2222594022750854, -0.24771355092525482, -0.3497500419616699, -0.3067088723182678, -0.7419731020927429, 0.8142848610877991, 1.2983627319335938, 0.48434850573539734, 1.5684525966644287, -0.5304896831512451, 0.11260014772415161, 0.1686755269765854, -0.7691330313682556, 0.04228341206908226, 0.9574744701385498, -0.11727923899888992, 1.1258721351623535, -0.16959930956363678, 0.23598231375217438, -0.937210738658905, -0.7234253287315369, -0.39082857966423035, 1.730208158493042, 1.4614392518997192, -2.5379507541656494, 1.1900452375411987, 0.08861476927995682, -1.4897207021713257, -0.7793720364570618, 0.9626035690307617, 0.19431965053081512, -0.06464217603206635, 0.32681646943092346, -1.407819390296936, -1.338055968284607, 0.8642276525497437, 0.15562251210212708, 0.19737061858177185, 1.7561308145523071, -0.030398759990930557, -0.283514142036438, -2.0363707542419434, -1.4679176807403564, -1.1421011686325073, 0.0793362557888031, -0.6900910139083862, 0.019129564985632896, -0.630508303642273, 0.25538599491119385, 0.02781728096306324, -0.446566104888916, -2.330476999282837, -0.3627345860004425, -1.9291036128997803, 2.056168794631958, 1.0566132068634033, 0.09694309532642365, 1.410936951637268, -0.3476867079734802, -1.5194628238677979, -0.41753849387168884, -1.1049346923828125, 1.6020095348358154, 3.445625066757202, -0.10487240552902222, -0.0801108106970787, -0.4389103353023529, -1.0658658742904663, -0.25843867659568787, -0.6367602348327637, 0.21129246056079865, 1.0925219058990479, -0.09603477269411087, 0.5246880650520325, -1.716816782951355, 0.6069639921188354, -0.7584667801856995, -0.5621538162231445, -1.0700304508209229, -1.265464186668396, -0.4588965177536011, 0.0910743772983551, -1.1778020858764648, -0.7808834314346313, 0.4424906373023987, 0.03497670218348503, -0.23472319543361664, 0.8155362606048584, -0.7912065982818604, 0.7980097532272339, 0.8490674495697021, 0.32580918073654175, 1.1059718132019043, -0.7909473180770874, -1.0371782779693604, -1.1129159927368164, 2.476804733276367, 0.5194124579429626, -0.5850174427032471, -1.0129939317703247, -0.7501540780067444, -0.8768263459205627, 1.4860185384750366, -0.5064011812210083, 1.0644340515136719, -0.6970252990722656, -0.5502451658248901, -0.8331825137138367, 0.941990315914154, 0.825295627117157, -0.7518913149833679, -0.294853538274765, -0.9283785820007324, 0.6718529462814331, 1.4125137329101562, 0.8250064849853516, 0.19418247044086456, -0.4833625555038452, -1.345624327659607, -0.5165784358978271, -0.14128278195858002, -0.21214154362678528, -0.27004849910736084, -1.5966553688049316, 0.027558235451579094, -0.5188538432121277, 0.14869070053100586, 0.6588250994682312, 0.5837976336479187, 0.30849045515060425, 0.3780289888381958, -0.21165163815021515, 1.505028486251831, -0.47698524594306946, 0.44965043663978577, 1.0188977718353271, -1.962886095046997, -1.4932167530059814, -1.2317392826080322, 0.5120382905006409, 0.2199985533952713, -1.1108732223510742, -0.1468161642551422, -1.2398927211761475, -0.3027929663658142, -0.036672789603471756, 0.3840969204902649, 1.1880545616149902, 1.1304746866226196, -0.29416555166244507, 0.35395190119743347, -0.6881742477416992, -0.6456266641616821, 1.387345790863037, 1.4387904405593872, 0.08320564776659012, 2.0010547637939453, -0.3927396237850189, 0.2704370319843292, -0.2966694235801697, 1.0166347026824951, -0.4410642385482788, 0.04276036471128464, -0.1787608563899994, -1.1346086263656616, -0.5625298023223877, 0.3726101517677307, -1.8317182064056396, -0.7805798053741455, 0.5237964987754822, -1.2463988065719604, -0.8405776023864746, 0.3249095380306244, -3.106328010559082, -0.8913255929946899, -1.523536205291748, -1.2868070602416992, 0.6718097925186157, -0.7815778851509094, 2.055619716644287, 0.8258382678031921, 1.0819309949874878, -0.5345798134803772, 0.4755038022994995, 0.4101375937461853, -0.8248465657234192, 0.03258634731173515, -0.9222075343132019, -0.12460697442293167, 1.7511601448059082, -1.1818499565124512, 0.23320063948631287, -0.794191300868988, -0.77969890832901, 0.5858650803565979, -0.8498311638832092, -0.7111839056015015, -1.0562596321105957, -1.9104946851730347, 0.2806217670440674, -0.1343953162431717, 0.7530690431594849, -1.4996418952941895, -1.0445209741592407, 1.319007396697998, -0.9897713661193848, 0.1937909871339798, -0.8158796429634094, -1.3662828207015991, 0.9242297410964966, -0.15094131231307983, 0.6602651476860046, 0.9458276629447937, 0.8866236805915833, 0.645367443561554, -1.4316335916519165, 0.32671934366226196, 0.3544987440109253, -0.5479734539985657, -0.3711417317390442, -1.156516194343567, 0.19589348137378693, -1.0340323448181152, -1.3473118543624878, 0.36742645502090454, -0.756567120552063, -1.3687634468078613, 1.166976809501648, 1.3401062488555908, 0.24130821228027344, 0.26085028052330017, 0.6909231543540955, -0.3609391152858734, -0.2219216674566269, -0.5403968691825867, 0.5547724366188049, -0.8496796488761902, -0.6022037863731384, 1.9681813716888428, 1.1372771263122559, -0.04625223949551582, 0.26971569657325745, 0.4199317395687103, -1.1078379154205322, -0.15447334945201874, -0.8611426949501038, -2.9890658855438232, 0.1427735835313797, -0.8344282507896423, -0.28073710203170776, -0.49368005990982056, -0.9714295268058777, 0.9009959697723389, 1.7757917642593384, -0.4947497546672821, -0.8231000304222107, 0.42930465936660767, 1.514818549156189, 1.1168509721755981, -0.34847185015678406, 1.5108956098556519, 0.18275369703769684, 1.4177610874176025, 0.7183824777603149, 0.104627326130867, 0.5819101333618164, 1.2409895658493042, -0.9492565989494324, -0.6987038254737854, -0.7153372168540955, -0.7403607368469238, 0.21925963461399078, -0.6149584650993347, 0.628537118434906, 1.4059346914291382, -0.2919580638408661, -1.6013476848602295, -0.27264782786369324, 0.18370741605758667, 0.6328914165496826, -0.4921732246875763, -0.243259459733963, 2.8818862438201904, 0.15282166004180908, -0.18842656910419464, -0.18522614240646362, -0.8951197266578674, -0.539470374584198, 2.0288591384887695, -1.5796416997909546, 0.27692535519599915, 0.07418181002140045, -1.198473572731018, 0.6246524453163147, 0.6738032102584839, -0.5719326138496399, -0.325872004032135, -1.9369032382965088, -1.6212294101715088, 1.0457415580749512, -0.20516234636306763, -0.467404842376709, -0.8665743470191956, 0.4133651852607727, 1.2366944551467896, -0.7066188454627991, -0.8270853161811829, 0.45643651485443115, -0.059470854699611664, 0.9804211258888245, -0.4726978540420532, -1.048923373222351, 0.658042311668396, -0.29366371035575867, -1.1672022342681885, 0.7250988483428955, -1.2726235389709473, 1.0595130920410156, 0.5340191125869751, 0.09215065091848373, -0.7683921456336975, 0.6386357545852661, 1.0580254793167114, 1.757521390914917, 0.37665531039237976, -0.7939775586128235, 1.4665507078170776, -0.46663370728492737, 0.3189202845096588, -1.5334482192993164, -0.9035959839820862, -1.1297553777694702, -0.7811664342880249, 0.551419734954834, -0.30639445781707764, 0.0061524491757154465, -0.8143561482429504, -0.8558416366577148, 1.560778021812439, -0.3147018849849701, -0.9928666353225708, -0.17533333599567413, -0.958824634552002, -0.5224623084068298, 0.5361921191215515, -0.6286743879318237, 1.9413354396820068, -1.3895257711410522, 0.5764585137367249, 1.2978315353393555, -0.88661128282547, 0.8539144992828369, -1.2262547016143799, -0.4361383616924286, -0.05147926136851311, -0.6254484057426453, -0.251127690076828, -0.674835205078125, -1.1077474355697632, 0.1017654687166214, -0.10977188497781754, -0.17965702712535858, 1.3967915773391724, -2.800556182861328, 0.6872723698616028, 2.654942035675049, -0.5359372496604919, -0.5672794580459595, 1.146209955215454, 0.9040606021881104, -1.0952261686325073, -0.41328999400138855, 1.1634254455566406, -0.12276917695999146, -1.5123530626296997, -1.1338030099868774, 1.2350000143051147, -0.04226749762892723, -1.163609266281128, 1.1874427795410156, -0.35594069957733154, 0.3285580277442932, 0.7963698506355286, -1.0331605672836304, -0.11334973573684692, -1.0022987127304077, 0.17128385603427887, 0.20935998857021332, -0.527733564376831, -0.3876877427101135, -0.7443782091140747, 0.38033702969551086, 0.0964970588684082, -0.6577823162078857, 0.9178156852722168, 1.2796905040740967, 0.7835897207260132, 1.0582451820373535, -0.35750812292099, -0.17038141191005707, -1.178733229637146, -0.5659265518188477, 1.1855055093765259, 0.3946205973625183, 1.609459400177002, 0.7414069175720215, 1.5067633390426636, -0.938051164150238, -1.2379671335220337, 0.1281542032957077, 0.7821402549743652, -0.9005926847457886, 0.367727130651474, 0.08158037811517715, 1.161847710609436, -1.2797164916992188, 0.4702746272087097, 0.5066304802894592, 1.1277714967727661, -0.6739510893821716, 0.07731132954359055, -2.4219810962677, -1.9291707277297974, -1.0765177011489868, 0.22397132217884064, 0.2920781075954437, 0.32121846079826355, 0.5876799821853638, -2.3571479320526123, 0.982934296131134, 1.0654057264328003, -0.7054344415664673, 0.2142704576253891, -0.09136287868022919, -0.05469474941492081, -0.5561836957931519, 1.0600273609161377, 1.0186315774917603, 0.29434895515441895, -0.638506293296814, 0.514220118522644, -0.19802889227867126, 0.010817415080964565, 0.8906894326210022, -0.5785751342773438, 0.20281589031219482, -0.11422315984964371, -1.5433486700057983, 1.8777929544448853, 0.2779245674610138, -1.5005147457122803, -0.9192121624946594, 1.2316521406173706, -0.08308011293411255, -0.5713837146759033, -0.5477657318115234, -0.6875526905059814, -0.6925867199897766, 0.2892301678657532, 0.183979332447052, -0.8351162672042847, 0.034095875918865204, 0.5447612404823303, 1.1544770002365112, -0.17470814287662506, -0.5283262729644775, 0.04771281033754349, 1.173104166984558, 0.003909424878656864, -0.15129554271697998, -1.7715047597885132, 0.21946865320205688, -0.15104348957538605, -1.478035569190979, 0.3816293179988861, 0.47655177116394043, 1.2373405694961548, 0.33024173974990845, -0.05629456788301468, -0.6020243763923645, 0.5223742127418518, 1.351500153541565, -0.2404831200838089, 1.212047815322876, 2.9194436073303223, 0.1034913882613182, -0.6671661734580994, -0.3289257884025574, -0.489844411611557, -0.8442767858505249, 0.35196706652641296, -0.8425887823104858, -2.262038469314575, 1.1689343452453613, 1.522364616394043, -1.7462857961654663, -1.7561272382736206, -0.46433013677597046, -0.8637551665306091, 0.6859942674636841, -0.6951659917831421, 1.1705763339996338, 0.4349344074726105, -0.439242959022522, 0.13773603737354279, -0.5910253524780273, -1.652677059173584, -0.8396266102790833, 0.8713390231132507, -0.9533721804618835, 0.8497498631477356, 0.3213997781276703, 0.051756951957941055, -0.8949641585350037, -0.4854878783226013, -1.3463493585586548, 1.9377914667129517, 0.11661393195390701, -0.09203547239303589, 0.05841278284788132, 0.399687796831131, -0.32920387387275696, 2.0987792015075684, -1.6971954107284546, -1.2966164350509644, 0.9025653600692749, 0.02351505309343338, 0.7103408575057983, 1.4259073734283447, -0.15669254958629608, -1.141897201538086, 0.8626111745834351, -1.8829604387283325, 1.6411151885986328, 0.06312361359596252, -0.1391070932149887, 1.2250828742980957, 0.8357481956481934, -0.38139888644218445, 0.33320167660713196, -0.522757887840271, 1.5734566450119019, -0.8599120378494263, -0.060615699738264084, 0.4260155260562897, -1.596110463142395, -0.06616523861885071, -0.4831593930721283, -0.5536230206489563, -0.02522038109600544, 0.9548746347427368, 2.1100034713745117, 0.6981958150863647, -0.1140289157629013, -0.5285679697990417, 1.0871516466140747, 0.3269132375717163, -1.7167327404022217, 0.28558799624443054, -0.10175959765911102, 0.5127183794975281, -1.5964131355285645, -0.8292406797409058, -0.41023650765419006, 0.304572194814682, 0.428303986787796, -0.6894504427909851, -0.018692156299948692, -0.7642602920532227, -0.22924941778182983, 0.10698884725570679, -1.2525506019592285, 1.2400078773498535, 1.8697383403778076, -0.6105663776397705, -1.170371651649475, 0.9475129246711731, 0.673722505569458, -0.9029294848442078, 1.7186238765716553, -1.3029974699020386, 0.3788713812828064, 0.18482893705368042, 0.7726138234138489, 0.05211031809449196, -0.8452204465866089, -1.7715193033218384, 0.6801379919052124, 0.6064606308937073, 0.04617787152528763, 0.020343216136097908, -0.9663392901420593, -0.4026731848716736, -1.5322294235229492, 1.3149042129516602, -0.7588294148445129, -0.7002271413803101, -1.0703928470611572, -0.2829807698726654, 1.6560721397399902, 0.9183834791183472, -1.2403943538665771, -0.10149910300970078, -0.5745509266853333, -0.905766487121582, -1.0638948678970337, 1.0629346370697021, -2.773613929748535, 0.4364280700683594, -0.9970720410346985, 0.6440190076828003, -0.5684311389923096, 1.0696011781692505, 0.24455690383911133, -0.11677189916372299, -0.34265488386154175, 0.2882064878940582, 0.3004419207572937, 0.0968942642211914, 1.1616994142532349, -0.46068817377090454, 0.09389957040548325, 0.9289091229438782, -1.4231536388397217, 1.9770677089691162, 0.8562206029891968, 1.2470786571502686, 1.6981608867645264, 1.7811017036437988, -0.6159464716911316, 0.6600029468536377, 1.0661178827285767, 0.40576910972595215, 0.24919238686561584, 0.08301469683647156, -1.9059150218963623, 0.768028736114502, -0.2272576242685318, 1.2221823930740356, -0.02982438914477825, -0.2053070068359375, -0.34807199239730835, 0.7591805458068848, -2.9151322841644287, -0.4561823606491089, -0.8915789723396301, -0.22911065816879272, 1.2370060682296753, 0.05950453504920006, 1.6395184993743896, 0.36735019087791443, -0.17657233774662018, -0.8800807595252991, -1.35635244846344, -0.9238923788070679, -0.7846477627754211, 0.0267170500010252, 0.4322175085544586, -0.25818052887916565, 0.7436892986297607, -0.2936820983886719, -1.0194525718688965, -0.16193436086177826, -0.18189188838005066, 0.25104597210884094, -1.1415528059005737, 0.712009072303772, -0.9665390253067017, 1.62221360206604, 0.25006136298179626, 0.771891176700592, -0.91661536693573, -1.4739270210266113, 0.2176828533411026, -2.0202691555023193, 1.0834310054779053, 1.3634916543960571, 1.4343817234039307, -0.3448553681373596, -0.2497664988040924, 1.7285562753677368, -1.0744175910949707, 0.47318676114082336, 0.5214431285858154, -1.4766337871551514, -1.0603324174880981, 1.1473842859268188, 0.6107109189033508, -0.25020739436149597, 0.24113479256629944, -1.340453863143921, -0.03276701644062996, 0.5242968797683716, 0.3848164975643158, 0.886084258556366, 0.5484238862991333, -0.24597389996051788, 1.9915446043014526, 0.717379093170166, -0.09261447191238403, 1.0622302293777466, 0.4773769974708557, -1.4957531690597534, -1.2930028438568115, -0.2557562291622162, -1.2942535877227783, -0.4358613193035126, -1.0105520486831665, -0.4351550042629242, -0.8276495337486267, -0.7832543253898621, 2.065865993499756, -0.6988955140113831, -0.5583686828613281, 0.43931636214256287, -2.230900526046753, 0.4989188015460968, 1.3572540283203125, 0.9602430462837219, -1.9663856029510498, -0.1285407692193985, -0.08464081585407257, -0.9001671671867371, 0.4465799629688263, 1.1419644355773926, 0.802577018737793, 2.787760019302368, 0.45765289664268494, 0.3293827772140503, 1.0238094329833984, -0.2302778661251068, 0.6533640027046204, 1.763922929763794, -0.1789979487657547, 0.7350953221321106, 0.8795658946037292, -0.9585699439048767, 0.6038413643836975, -0.9824548959732056, -0.620258629322052, -1.2878144979476929, -0.3524166941642761, -1.508280873298645, 1.0178154706954956, -0.5013832449913025, -0.880412757396698, -1.030982494354248, -1.0310343503952026, -1.0028913021087646, 1.1483440399169922, 0.4171837866306305, 0.3475550413131714, 1.3067461252212524, -0.2434539496898651, 2.1022186279296875, 1.1301037073135376, 0.3109254240989685, 0.20192822813987732, -1.013744592666626, 0.9676891565322876, 0.6973733305931091, 2.1327197551727295, 0.7147674560546875, 0.16369947791099548, -0.048379626125097275, 0.4937354028224945, -0.269319087266922, 0.07306429743766785, -0.5702749490737915, 1.117246150970459, -0.9062879085540771, -1.4548780918121338, 1.9290111064910889, -0.6002296209335327, -1.3664311170578003, -1.9378867149353027, -0.1714278757572174, -0.8791263699531555, -1.4263975620269775, 0.20588766038417816, 0.06786083430051804, -0.8582409024238586, 1.6657739877700806, -0.3839770257472992, 0.1913401335477829, -1.4118940830230713, 0.13313262164592743, -0.3333589434623718, -0.10642467439174652, 0.3846955895423889, 1.001903772354126, -0.6673583388328552, 0.8342204093933105, 0.23347528278827667, 1.443666696548462, 1.3456140756607056, 0.9127081632614136, 0.5612083077430725, 0.45085909962654114, 0.9967362284660339, 0.19281719624996185, 0.4163925051689148, 1.25956130027771, -0.5897568464279175, -0.17678959667682648, -0.05797451362013817, 0.9639950394630432, -0.5477144718170166, -1.5410068035125732, 1.5490630865097046, 0.7195857763290405, -0.8329556584358215, -0.5345580577850342, -0.47482022643089294, -1.8149548768997192, 0.9996393918991089, 1.3767470121383667, -1.0503880977630615, 0.022425031289458275, 0.8935588598251343, -0.7953895330429077, 0.17066167294979095, 0.8672234416007996, 1.6183183193206787, -1.098692774772644, 1.2004878520965576, 0.196146160364151, -0.369537353515625, -1.3906173706054688, -1.7986558675765991, 0.04091703146696091, 1.0237910747528076, 0.3847457766532898, 0.6747081875801086, 0.34626761078834534, -0.6960206627845764, 0.6398148536682129, 0.2974875271320343, 0.04045804589986801, -0.18265697360038757, -0.3302071988582611, 0.015372429974377155, 0.5959717631340027, 0.960921049118042, -1.4051520824432373, -0.9581076502799988, -0.48883718252182007, -0.411981463432312, 0.6892044544219971, 1.110618233680725, -0.2799490988254547, -1.4335700273513794, -1.1213213205337524, 1.3613444566726685, 0.2449631243944168, -0.26440465450286865, 0.5674765110015869, -1.2668757438659668, -0.8332573175430298, -0.47141557931900024, -0.7096118927001953, -0.6078459620475769, -0.06933283060789108, -1.2132517099380493, -0.8595814108848572, 0.2249874323606491, -2.0042972564697266, 0.5155009627342224, 0.6912683248519897, 1.6327744722366333, 0.24693161249160767, -1.2373387813568115, -0.7394251227378845, -0.027610722929239273, -1.3461240530014038, -1.2231221199035645, 1.8911962509155273, -0.3348093032836914, 0.3190588653087616, 1.7920981645584106, 0.43921586871147156, 0.21369199454784393, -0.6847841143608093, -0.8756160736083984, 0.8579769134521484, -0.2574329078197479, 1.3056882619857788, 1.354137897491455, 0.8283826112747192, -0.9444983005523682, -0.952683687210083, 0.4779217541217804, 0.9307976365089417, -0.5876336097717285, 0.2585761547088623, 0.9744538068771362, 1.2814747095108032, -0.9556332230567932, 0.005512263625860214, 0.723761260509491, 0.5198960900306702, -1.4954025745391846, 0.11251302808523178, -0.16857317090034485, -1.5103271007537842, -0.4480331838130951, -0.05369861051440239, 0.0782814472913742, 1.3595441579818726, -1.7462626695632935, 0.8207234740257263, -0.7672699093818665, -0.04813985526561737, 0.5067698955535889, -0.7950332760810852, 0.009384111501276493, -1.6933249235153198, 0.006673657335340977, -1.0610337257385254, -0.07092823088169098, -3.832531690597534, -0.1793764978647232, -0.36366915702819824, 0.8509474396705627, -0.4243218004703522, -0.3451770842075348, 0.4775455594062805, 0.45322731137275696, 0.1276102066040039, -0.7779799103736877, 0.46033239364624023, -0.18846826255321503, -0.7546091079711914, -0.29969948530197144, -0.534939169883728, 0.688886284828186, 0.17837846279144287, 1.8764188289642334, -1.0822854042053223, -0.15562321245670319, -0.8487699627876282, 0.2912493050098419, 0.26855215430259705, -1.307977557182312, 1.1221709251403809, 0.2828640341758728, -1.7333787679672241, 0.6304294466972351, 0.28935855627059937, -0.5435441136360168, -0.040719106793403625, -0.3697128891944885, 0.11584769189357758, 0.31204938888549805, -1.2479252815246582, 0.36884430050849915, -0.4821736812591553, -0.7287773489952087, -1.4889180660247803, -0.9927570819854736, 0.6101059317588806, 0.6935068964958191, 1.179113507270813, -0.5821011662483215, -0.033411234617233276, -0.4144572615623474, 0.9171100854873657, 0.10380307585000992, -0.1793491244316101, -0.8918796181678772, 0.3181943893432617, 0.40913498401641846, -1.841177225112915, -0.4571112394332886, 0.5349103808403015, -1.3159326314926147, 2.794304609298706, -1.1814165115356445, 1.1858826875686646, 0.8632985949516296, 0.12979160249233246, -1.4135205745697021, -1.9681334495544434, 0.646186888217926, 0.38867735862731934, -0.7662639021873474, 1.7509973049163818, -0.18222470581531525, 0.08444352447986603, -2.3971786499023438, -0.8398545384407043, 1.4818451404571533, -0.3764995038509369, 0.3931215703487396, 0.36382463574409485, 0.8895691633224487, -0.38771313428878784, -0.4783642590045929, -0.7646363377571106, -1.411285400390625, 0.8947616219520569, -0.6031076312065125, 0.8249357342720032, 1.3330131769180298, -0.6900646686553955, 1.1227099895477295, -0.5997704267501831, -0.2043316662311554, -1.632828712463379, -0.599851667881012, 1.7188366651535034, -1.1213253736495972, 0.02161409705877304, 0.03146770969033241, -1.5530608892440796, 0.9474418759346008, 0.7254555821418762, 1.4585676193237305, -0.07119281589984894, 0.3660371005535126, -0.28734639286994934, 0.38038408756256104, 1.6116095781326294, 1.6592570543289185, 2.26790452003479, 0.4133126139640808, 0.3396982252597809, 2.015190601348877, 0.7723278403282166, 1.3870203495025635, -1.4184188842773438, 1.8677223920822144, -0.11953603476285934, -0.7942026853561401, 0.4553866684436798, 0.12649448215961456, 0.4646506905555725, -0.24534782767295837, 0.23984402418136597, -1.1885942220687866, -0.32575365900993347, 0.17797666788101196, 1.3450311422348022, 0.3918372392654419, -0.9156265258789062, 0.2910449504852295, -0.8605437278747559, -0.9643430113792419, -1.389511227607727, 1.7723872661590576, -0.3190559148788452, -0.6753576993942261, -0.6621134877204895, -1.0242971181869507, -0.07980115711688995, 0.40998774766921997, 0.9991294741630554, 0.4638987183570862, 1.273138165473938, 0.12288182973861694, 0.22671592235565186, -0.05114508792757988, -0.8973153829574585, -0.9821573495864868, 0.7854304909706116, 0.023615580052137375, 0.5599141120910645, -0.15770527720451355, 0.9826740026473999, 0.2722645699977875, 2.1043002605438232, 0.14065788686275482, 2.110002040863037, -1.143309235572815, -1.2653104066848755, -0.49036842584609985, 0.21846671402454376, 0.4191838204860687, -0.400406152009964, -0.05544678866863251, -0.8552696704864502, 0.32965973019599915, 0.9801297783851624, -0.32092228531837463, -0.01396828331053257, 0.7994512319564819, 1.6326349973678589, -0.0009331775945611298, -0.29818224906921387, -0.02982708252966404, -1.5371414422988892, 0.283156156539917, 0.8466978073120117, -0.6013848185539246, -0.0699654296040535, -0.958099365234375, -0.5617773532867432, -0.7165514230728149, 0.21209175884723663, 0.5783246755599976, 0.41359904408454895, -0.428587943315506, -0.7700114250183105, 0.64668208360672, -0.5582384467124939, 1.3394620418548584, 0.45117413997650146, -0.2890629470348358, 1.2556324005126953, -0.8154667019844055, 1.6809849739074707, 0.6487414836883545, -1.5335310697555542, 0.6587340831756592, 0.11956664174795151, -1.2091906070709229, -0.2777872681617737, 0.8700053095817566, -0.2204407900571823, -0.1083751767873764, -0.7564722895622253, 1.2715272903442383, 1.0402002334594727, 0.5790372490882874, 0.8503185510635376, -1.144444465637207, 0.4944293797016144, 1.774613618850708, -0.4788385033607483, 0.9313072562217712, 1.1861251592636108, 1.2233283519744873, -0.5239112377166748, 0.8239985108375549, -1.5130436420440674, -0.23070071637630463, 0.3878994286060333, -0.996752142906189, 0.6597211360931396, -0.20463405549526215, -0.8077448010444641, -0.6950612664222717, -0.11213088780641556, -1.5244767665863037, 0.1288852095603943, 0.6428387761116028, -0.06124546006321907, 0.07767737656831741, -0.7856798768043518, 0.07007400691509247, -0.22251465916633606, 0.4794066250324249, -0.20476730167865753, 1.0848652124404907, -0.7641999125480652, -0.19989891350269318, 1.8044092655181885, -1.1233654022216797, 2.1871159076690674, 1.5161906480789185, -0.7523331046104431, 0.11275313794612885, 0.2881997525691986, 0.791765034198761, 0.13422854244709015, -1.3989880084991455, -0.403571754693985, 0.3957928717136383, -2.2768142223358154, -0.6021904945373535, -0.6524525284767151, -0.1949448138475418, 2.0619850158691406, 0.8987486362457275, -0.5451535582542419, -0.4629494845867157, 0.2891088128089905, 0.40178006887435913, -0.9422666430473328, 0.17619068920612335, 0.46062397956848145, -0.338508278131485, 0.1314752995967865, -1.2922874689102173, 1.405016303062439, -1.0124340057373047, -0.44291654229164124, -2.4690840244293213, 1.4646685123443604, -0.7945832014083862, 1.1617707014083862, -1.0465848445892334, -0.47686854004859924, 0.2154434323310852, 1.6998308897018433, 0.5074418187141418, -1.1245696544647217, -0.6815629601478577, -0.442477822303772, -0.13584411144256592, 0.37306782603263855, 0.8778835535049438, -0.8879274725914001, 1.668276309967041, 0.3048802316188812, -0.763476550579071, 0.5253366231918335, -1.6245776414871216, -0.7377328872680664, 0.6623095273971558, 1.4318883419036865, 0.578863799571991, 0.566218376159668, -0.09547755867242813, 0.683012068271637, 0.3474847674369812, -0.9434769749641418, -0.14667245745658875, -0.009090420790016651, -1.6101100444793701, 0.2913444936275482, -0.5694751739501953, 0.6346917748451233, 1.3759163618087769, 0.7134581804275513, -1.2841796875, 2.432499408721924, 0.4391697347164154, 1.3094075918197632, 0.8538435697555542, -1.2654074430465698, 0.2491820603609085, 0.2061154842376709, 0.7318398952484131, -1.0803741216659546, 0.674127995967865, -1.4610782861709595, -0.19663105905056, 0.6945744156837463, 1.4023377895355225, 0.8807763457298279, -0.8157885074615479, 0.13153165578842163, 1.5511679649353027, 1.1541569232940674, 0.15840405225753784, -0.1380276381969452, -0.006388451438397169, 2.028413772583008, -0.49658793210983276, 0.253021240234375, 1.7436981201171875, -1.1624996662139893, 0.0549420528113842, -0.43252453207969666, -0.23219886422157288, -1.9506268501281738, 2.2291040420532227, 0.2585121691226959, -0.8357943892478943, -0.07285541296005249, 1.5678290128707886, 1.4840714931488037, -0.3809734880924225, -1.0159707069396973, 0.27381452918052673, 1.424518346786499, 1.1708104610443115, -0.20266015827655792, -0.3633078634738922, 0.730522096157074, 1.6037938594818115, 1.3361929655075073, 0.8801257610321045, -0.32468941807746887, 0.9832903742790222, -0.725740909576416, -0.4297706186771393, 0.09865526109933853, -0.3388381898403168, -0.3473694622516632, -0.009462441317737103, 0.7975156307220459, 2.1495704650878906, 0.19425715506076813, 0.3301672339439392, 0.7735506892204285, 0.33585336804389954, 0.8436497449874878, 1.151316523551941, -0.7029951810836792, -0.1992855966091156, -0.12078773975372314, 1.848445177078247, -0.3309515118598938, -0.39359593391418457, -1.5560880899429321, -2.0921216011047363, 0.9378061294555664, 1.4536970853805542, 0.7881364822387695, 0.8793008327484131, 0.6840168237686157, 0.7152358293533325, 0.5864706635475159, 0.5200220942497253, 0.3143851161003113, 0.27252840995788574, 1.8645329475402832, -0.9330264925956726, -0.6744462847709656, -0.46696820855140686, -0.49671268463134766, 0.35460788011550903, -0.7685240507125854, -0.9262224435806274, 0.6679531335830688, -0.5309102535247803, -0.6360014081001282, -0.7603669166564941, 1.9249420166015625, 0.698857843875885, -0.179605171084404, 0.468250036239624, 1.6046744585037231, -1.1966158151626587, -0.7194162011146545, -0.02484050951898098, -0.9632699489593506, -0.651735246181488, -0.38452786207199097, -0.2962888479232788, 1.5493229627609253, -0.7796709537506104, 0.5099198222160339, 1.9036880731582642, 0.21032211184501648, -1.0255969762802124, -0.0669134333729744, 0.7202309370040894, -0.8439115881919861, -0.3255579173564911, -1.8892930746078491, -0.40187644958496094, -1.301006555557251, -0.42382940649986267, 1.5375657081604004, -0.8617974519729614, -1.1588698625564575, 0.03632983937859535, -0.2509534955024719, 0.056602153927087784, -0.3405316174030304, -0.5897563099861145, 0.8973854184150696, 1.0863715410232544, 0.08605138957500458, -0.45390239357948303, 1.2199066877365112, -0.3632628321647644, -0.4366423487663269, 1.1426492929458618, 0.658501386642456, -0.4702155888080597, -0.6088662147521973, -0.07809803634881973, -0.7801733613014221, -1.1197839975357056, -0.06552600860595703, 1.7627143859863281, -0.6546841263771057, 0.8769089579582214, 1.395574688911438, 0.9303890466690063, -1.842443585395813, -1.3109723329544067, 1.3098556995391846, 1.0711755752563477, -1.7771120071411133, -0.013285640627145767, -0.7162472605705261, 2.4672696590423584, 0.7005379796028137, -1.5038570165634155, -0.43293496966362, -0.16460900008678436, 0.051693860441446304, -0.48916497826576233, 0.2812545895576477, 1.4244478940963745, 1.435631513595581, -0.6941221952438354, -0.008548072539269924, -0.7538284063339233, 0.7616772055625916, -1.499106526374817, -2.7026309967041016, -0.3723330795764923, 0.6629142165184021, -2.211786985397339, 0.6110420823097229, -2.815762519836426, 1.0335131883621216, -1.6670103073120117, -0.4016047418117523, -0.2840443551540375, 0.13227719068527222, 0.03079218976199627, -0.2666304111480713, 2.7124791145324707, -1.0646121501922607, 0.976121723651886, -1.0271012783050537, -0.16547387838363647, 1.4387873411178589, -0.4485261142253876, 1.3083903789520264, -0.49309614300727844, -0.5315346121788025, -0.08609210699796677, 0.08700139075517654, 2.269195318222046, -0.31398269534111023, -0.9816297292709351, 0.04459971562027931, -1.4663174152374268, -0.6450856328010559, 2.2968475818634033, -0.6108700037002563, 0.36377331614494324, 0.6556671857833862, -0.5754631757736206, 0.6648997068405151, -0.28375279903411865, -2.1418421268463135, -2.2226719856262207, -0.47602152824401855, 0.8463886380195618, -0.792870283126831, -0.5921895503997803, 0.19697873294353485, -0.19352838397026062, 1.050782322883606, -0.07730520516633987, -1.4785282611846924, -0.3069077730178833, -1.0684497356414795, 0.5257315635681152, 0.4293099343776703, 0.50408536195755, 0.40693262219429016, 0.60735023021698, -0.25706610083580017, 1.3104835748672485, 0.8979019522666931, -0.05556102097034454, -0.3537367880344391, 0.08023621141910553, -3.6307897567749023, 1.649484395980835, 1.1897660493850708, 1.2563191652297974, 0.058465536683797836, 0.4319401681423187, -0.2499617040157318, -0.6867133378982544, 0.7724379897117615, -1.0847980976104736, 0.6024074554443359, 0.018565375357866287, 1.2297093868255615, -1.1771180629730225, -0.6992143392562866, 1.7502615451812744, 1.3841030597686768, -2.168846368789673, 0.045808374881744385, 1.4188532829284668, -0.16634242236614227, 0.2619018256664276, 0.07122802734375, 0.13771948218345642, 0.4082213044166565, 0.227834552526474, 2.2180261611938477, -0.3178943395614624, 0.6358874440193176, -1.0469098091125488, 0.15752233564853668, -0.6316997408866882, -2.186370372772217, 1.3179066181182861, -0.4802001118659973, -0.1220834031701088, 0.7882350087165833, 0.8337973356246948, 0.5851041674613953, 1.02428138256073, -0.6358500719070435, 0.612401008605957, -0.13895398378372192, -1.6755516529083252, 0.07773400843143463, 1.7409440279006958, 1.1395643949508667, -0.11171314865350723, -1.5027097463607788, 1.213675856590271, -0.10694064944982529, -0.4566229581832886, 0.517611563205719, 0.7167068123817444, -1.4018466472625732, 0.27507975697517395, -0.4960733652114868, -0.6186387538909912, 1.240154504776001, -0.3773656487464905, -0.8475749492645264, -0.16152557730674744, -1.1567072868347168, -0.7410086393356323, 0.26440107822418213, 0.7556464672088623, 2.2536263465881348, 0.10120877623558044, -1.0857888460159302, 0.3153077960014343, 1.2774115800857544, 1.7308460474014282, 0.2520127594470978, -0.5785004496574402, -0.5199072957038879, -1.9437434673309326, 1.8036106824874878, -0.29608187079429626, 0.1911749392747879, -0.8220173120498657, -1.0865437984466553, -1.8085858821868896, 0.35308536887168884, -1.5976078510284424, -0.7325262427330017, -0.696540355682373, 0.5611289739608765, 0.4682971239089966, -0.9290968179702759, 1.1308897733688354, -0.6573424935340881, 2.260444164276123, -0.09313177317380905, -0.5717736482620239, 1.8155642747879028, 1.8063979148864746, -0.5598823428153992, 1.2471561431884766, 1.1717573404312134, 0.47121289372444153, 1.0519514083862305, -0.38931718468666077, 0.5318379998207092, -2.195838451385498, 0.3789231479167938, 1.5289140939712524, 0.6101416945457458, 0.3821605145931244, -1.4766151905059814, -0.8660301566123962, -0.031602293252944946, 0.9481480121612549, -0.27732527256011963, 0.5933657884597778, 1.1357200145721436, 0.5456286668777466, 0.25705486536026, 1.6630321741104126, -1.391968846321106, 0.6803566813468933, -2.0921499729156494, -0.870776891708374, 0.5956750512123108, 1.1716068983078003, 0.005962289869785309, -0.8829219937324524, 0.5336771607398987, -0.42359691858291626, -0.9649611115455627, 0.43918681144714355, -1.742975115776062, -2.2269856929779053, 0.05122251436114311, 1.4754453897476196, -0.31479185819625854, 0.32025381922721863, 0.6201399564743042, 0.3378683924674988, -1.4391361474990845, -0.19578158855438232, -0.9860185384750366, 1.278135895729065, -1.2756946086883545, -0.4264816343784332, -0.24465647339820862, 1.917343020439148, -0.2688539922237396, -1.2671267986297607, -1.0625808238983154, -1.454459547996521, 0.8856539726257324, -0.12983323633670807, 1.5937228202819824, 0.036105670034885406, 0.2792662978172302, -1.7179490327835083, 1.0006709098815918, -0.7062578201293945, 0.1680675745010376, -1.4881683588027954, -0.24674776196479797, -0.5032515525817871, -1.2938947677612305, -0.17264695465564728, 1.1272135972976685, -0.17086558043956757, 0.02101830020546913, 0.772721529006958, -0.08987566083669662, 0.1915358453989029, 1.6620672941207886, -0.15132363140583038, 1.4865750074386597, 0.35259687900543213, -0.6372569799423218, -1.4827039241790771, -1.988023042678833, -0.47865501046180725, -0.9126741886138916, 0.5779818296432495, -0.632580041885376, -0.23146040737628937, 0.9161636829376221, 0.09731336683034897, 2.563725471496582, 1.0989755392074585, 0.2393292933702469, 1.0239890813827515, 0.7048721313476562, -1.2799997329711914, -1.0805774927139282, 0.8582064509391785, -0.6797627210617065, 2.1168277263641357, 1.3074569702148438, -0.6625555157661438, 0.5445007681846619, -2.0883853435516357, -0.054547298699617386, -0.16666415333747864, 1.209662675857544, 0.16352267563343048, 0.35557520389556885, 0.625577986240387, 0.14713206887245178, -0.07500791549682617, -0.761553168296814, -0.45044565200805664, -1.266395926475525, -0.0578240342438221, 0.6866339445114136, -0.02104124240577221, -0.6293240189552307, 0.5549997091293335, 0.4850791096687317, 0.7956935167312622, -0.12678508460521698, -0.2800213098526001, 0.4738202393054962, -1.036582350730896, -0.6978404521942139, 0.13592901825904846, 0.8652670383453369, 3.035121202468872, -1.0098387002944946, 1.2190254926681519, 0.7085686922073364, -0.5495360493659973, -0.2185828685760498, 0.7963455319404602, -0.8116031885147095, -0.011849306523799896, 0.8767158389091492, 0.6710167527198792, -1.8119957447052002, -0.6219039559364319, -1.366032361984253, 0.40587425231933594, -0.4670298099517822, 0.8889638781547546, -0.3072216808795929, -1.7239394187927246, 1.5644149780273438, -0.13801060616970062, -1.676796793937683, 0.32450324296951294, -1.0356383323669434, -2.1607372760772705, 0.2314254492521286, 0.5310931205749512, 0.031055578961968422, -1.997800350189209, 0.4728609323501587, -0.28107115626335144, 0.9823195338249207, -1.1487538814544678, -0.3882693350315094, -0.7853313088417053, 0.294900506734848, 0.05868193879723549, 0.4121098220348358, 0.4962165355682373, -0.26106584072113037, -0.11284743994474411, 1.8312735557556152, -0.4096096158027649, 0.46456536650657654, -1.087321400642395, -0.6708536148071289, 0.5351168513298035, -1.2028323411941528, -1.1525547504425049, 0.8398252725601196, -0.9909027814865112, 1.013214111328125, 0.09937097132205963, 0.6724022030830383, 1.4936802387237549, 0.1620996594429016, -0.5694004893302917, 0.7924410104751587, 0.5320438146591187, -0.1489359736442566, 1.5087897777557373, -0.6566532254219055, 1.7253460884094238, 0.7240417003631592, 0.22709836065769196, -1.3795819282531738, 1.0900859832763672, -0.6937687397003174, 1.5382329225540161, -1.132474660873413, 0.6029451489448547, -0.6925831437110901, -0.6838181614875793, -0.6159215569496155, -0.530225396156311, -0.5480050444602966, -1.3252078294754028, 0.9521092176437378, -0.06878392398357391, -2.4587764739990234, 0.0294801015406847, -0.4688802659511566, 1.9551998376846313, -1.1486494541168213, -0.16284485161304474, 1.988852858543396, 0.5853366255760193, -0.34564009308815, -2.002260208129883, -0.3076462149620056, -1.5853021144866943, -0.3652037978172302, 0.19652637839317322, -0.8678151965141296, 0.12699493765830994, 0.13301636278629303, 0.030582552775740623, 1.0700255632400513, -0.06645472347736359, -0.8013211488723755, 1.0444575548171997, -2.3891191482543945, -0.5226418375968933, 1.5522570610046387, -1.2513858079910278, -0.6072822213172913, 0.2532861530780792, -1.0596239566802979, 0.37722504138946533, 1.4749457836151123, -0.6154842972755432, -0.489888072013855, -0.5199353098869324, 0.22658583521842957, -0.06532658636569977, -0.7915613055229187, 0.18977606296539307, 0.8156912922859192, 0.7599589824676514, 0.7718657851219177, -1.2304245233535767, 0.6760215759277344, 2.4220407009124756, -1.8156386613845825, 1.0685486793518066, -0.10431576520204544, -0.8810292482376099, -0.6277503967285156, 0.01513738464564085, -0.9035424590110779, 1.2572640180587769, -0.07756809890270233, -0.26301294565200806, 0.7177993655204773, 1.0360978841781616, -2.3087081909179688, -0.0759536400437355, -2.05973744392395, -0.19900000095367432, 0.17400647699832916, -0.05841507390141487, -1.4756296873092651, 0.2695809602737427, -1.5937029123306274, -0.16537998616695404, 0.34186819195747375, 0.14630116522312164, -0.3213580846786499, -1.2571945190429688, -1.4682725667953491, -1.0136138200759888, 0.01673818565905094, 0.8770406246185303, 2.6805763244628906, 0.47723037004470825, 1.1129406690597534, 0.4850883483886719, 0.9755558371543884, -0.6380594372749329, -0.14591790735721588, 1.1773208379745483, 0.7684311866760254, 0.1582425981760025, -0.5014570951461792, 0.2191448211669922, -1.5831094980239868, -0.9634820222854614, -0.6806969046592712, 1.5053801536560059, -0.8139405250549316, 0.9912806153297424, -0.36298084259033203, -0.8951465487480164, 0.9761032462120056, -1.206941843032837, 0.1834784746170044, 0.4015538990497589, -1.9063634872436523, 2.49943208694458, 0.30748531222343445, -0.19394119083881378, 2.5384137630462646, -1.738688588142395, 1.134980320930481, -0.8447388410568237, -1.3191593885421753, -0.9492759704589844, 1.3103235960006714, -0.1434730738401413, -1.4978502988815308, -0.6603827476501465, -1.7112841606140137, 1.010899543762207, -0.6789452433586121, 1.0576668977737427, -0.6032977104187012, -0.7253870964050293, 0.03980718180537224, -1.054305911064148, 0.7339244484901428, -0.0004540873342193663, -0.32805025577545166, 0.5573175549507141, 0.45504313707351685, -0.08590231090784073, -1.0025994777679443, -0.1684180051088333, 0.8270988464355469, -2.294616460800171, -0.21498170495033264, 0.05457804724574089, 0.31810882687568665, -0.14037710428237915, -0.49620160460472107, 1.7332375049591064, 0.1372641772031784, -1.7777600288391113, -0.5693896412849426, -0.5826377272605896, -0.08344011753797531, 0.10889503359794617, 0.28999093174934387, -0.9291712641716003, 0.3645228147506714, -0.04691770300269127, -0.9247362613677979, 1.3254046440124512, 0.052168138325214386, 1.380509853363037, -0.6927292346954346, -0.6109879612922668, 0.0939386859536171, -0.8399935364723206, -1.6033560037612915, -0.6779595613479614, 0.7594925165176392, -0.6046251654624939, -0.8691359758377075, -1.0213230848312378, 0.6817458271980286, 0.9543997049331665, 0.1672649085521698, -1.1838287115097046, -1.8297702074050903, 0.07062987983226776, 1.5591261386871338, 0.7335371971130371, -0.28324073553085327, 1.6797508001327515, -1.8995989561080933, 0.6084815859794617, 0.21578916907310486, 0.6914839744567871, -0.2832452356815338, 1.041069507598877, -0.5803453326225281, 0.2992815375328064, -0.31068262457847595, 1.1331552267074585, -0.5992977023124695, -0.1533069908618927, -0.62174391746521, 0.11032737791538239, 1.0834808349609375, -0.9963456988334656, 0.15657921135425568, 0.968483567237854, -0.9625334739685059, -0.6875012516975403, 1.034902811050415, 0.45474377274513245, 0.40630635619163513, -0.3883368968963623, 0.08594394475221634, 0.8204308748245239, 1.8508250713348389, -0.06806328892707825, -1.202392816543579, 0.9938647150993347, 0.8449776768684387, -0.30756810307502747, 0.2520817816257477, 1.8586663007736206, 0.11008060723543167, 0.43387478590011597, -0.7486765384674072, 1.7303272485733032, -0.7104259729385376, -0.4206298589706421, 0.19665859639644623, 0.42492198944091797, -3.028942346572876, -1.384834885597229, 0.7456277012825012, 0.12355764210224152, 0.8089823126792908, 1.9695827960968018, 1.240025281906128, 0.8363486528396606, 0.9539335370063782, 0.20559696853160858, 1.141363263130188, 0.05628223717212677, 1.706158995628357, 2.195984125137329, -0.3800842761993408, 0.7991358637809753, -1.2886475324630737, 1.2692794799804688, -0.6351379156112671, 0.00801965780556202, -1.6651710271835327, 0.17818263173103333, 0.7248584032058716, -2.0493991374969482, -0.4993351697921753, 0.16470061242580414, -1.4253593683242798, -0.8963518738746643, -0.27301856875419617, -1.0377240180969238, 0.6306189298629761, 0.7735913395881653, 0.26209768652915955, 0.45417457818984985, -0.46407395601272583, -1.4388847351074219, -0.9773237109184265, -0.6241140961647034, -1.338854193687439, -2.076538562774658, -1.4123497009277344, -0.7192203998565674, -0.6113547086715698, 0.1908469796180725, 1.165942907333374, 0.8412518501281738, -1.3825470209121704, 0.34314191341400146, 1.2673413753509521, 2.2910208702087402, 0.20571336150169373, -0.28345587849617004, 0.9013379216194153, 0.3059806525707245, -0.010661646723747253, 1.2204482555389404, 1.4105430841445923, 0.9299246072769165, -0.3249308466911316, -1.7486891746520996, 0.8717845678329468, 0.6390634179115295, -1.7228929996490479, 0.1407848447561264, 2.572078227996826, 0.3879549503326416, 0.354059636592865, -0.45935776829719543, -0.26083904504776, 0.7812330722808838, -0.10444001853466034, 0.9263569712638855, 0.812851071357727, -1.1452873945236206, 0.5669911503791809, -0.002813637489452958, -0.24008060991764069, -1.4890133142471313, 0.5667335987091064, -0.7108830809593201, -0.9688137173652649, -0.07968119531869888, 1.2084790468215942, -1.0710505247116089, 0.29200538992881775, 0.6469754576683044, 0.32635602355003357, 1.375124216079712, 0.9097362756729126, 0.43112990260124207, 0.24911366403102875, 0.23789522051811218, 0.21581949293613434, 0.023252639919519424, -0.5210925936698914, -0.2778305411338806, -0.4753718972206116, -0.6664285659790039, 0.5733898282051086, 0.719353199005127, 0.9019067287445068, -1.473711609840393, 0.15694653987884521, 1.882336139678955, 1.4345933198928833, 0.888896107673645, -0.15298272669315338, -0.6423792839050293, 0.22484587132930756, 0.5850116610527039, -2.2063262462615967, 0.4065439999103546, -0.4609397351741791, -2.142704963684082, -1.2975432872772217, -0.39534568786621094, 0.9830695986747742, 1.3000932931900024, -0.39913156628608704, 0.4969656765460968, 0.8360456228256226, -2.24063777923584, -1.4054443836212158, -1.805619716644287, 0.5219618082046509, -1.0357731580734253, 0.060717396438121796, 0.015577469952404499, 0.3616485893726349, -0.5420844554901123, -1.9253568649291992, -0.09622633457183838, 0.3177003860473633, 0.9128003120422363, -1.5131834745407104, 0.02799459546804428, 0.05774686485528946, 0.24766799807548523, -0.291658490896225, -0.2348310351371765, -2.3762154579162598, -0.6405912041664124, 0.28583550453186035, 0.956223726272583, 0.8407386541366577, 1.5941132307052612, -1.7842353582382202, 0.7241055965423584, -1.6503483057022095, 0.6430982351303101, -0.545810341835022, -0.5050092339515686, -0.45466870069503784, 0.3479395806789398, 0.007234930992126465, -0.41451194882392883, 0.34126174449920654, 0.6917201280593872, 0.42114102840423584, -0.9061261415481567, -0.5793269276618958, 2.9302103519439697, 1.3460670709609985, 1.213753581047058, -0.384304404258728, -1.742424488067627, -0.3883015811443329, 0.5791953802108765, -1.1207023859024048, -0.23575513064861298, 0.02373058721423149, -1.969196081161499, 0.4444722533226013, -0.1293685883283615, -1.0888819694519043, 0.2402925342321396, -0.08859143406152725, -0.16658450663089752, 0.09949837625026703, -0.2700897455215454, -0.6784350275993347, 0.4310223162174225, 0.40374335646629333, -1.3125312328338623, -0.7774103879928589, 0.5574866533279419, -0.5097048878669739, 0.685245931148529, -0.2619936764240265, 0.15686734020709991, 0.07715956121683121, 0.987306535243988, 0.020374706014990807, -1.4937485456466675, -0.25139299035072327, -0.08656994998455048, -1.5004045963287354, -0.7672881484031677, 0.8928799033164978, -0.13450507819652557, -0.6621626615524292, -1.2252846956253052, 0.5297332406044006, -0.2445336878299713, 0.37175261974334717, 0.9459248185157776, -0.9833644032478333, -1.1295276880264282, 0.08357129991054535, -0.6370474696159363, -0.9246644377708435, 1.132546067237854, -1.0525683164596558, -0.22314855456352234, -0.47906389832496643, -0.7755544781684875, -2.5792624950408936, 0.30463987588882446, 1.6419692039489746, 1.6848376989364624, -0.5226048827171326, 0.6184999346733093, -0.3971971273422241, -0.662408173084259, 0.20942160487174988, 0.9061921834945679, -1.1771284341812134, -0.7561046481132507, 1.424126148223877, 1.4304224252700806, 0.7249560952186584, -1.3556065559387207, 1.877629041671753, -0.7928091883659363, -0.3778044879436493, -0.6776713728904724, 0.17289385199546814, 0.7486283779144287, 0.18595486879348755, -0.2912011444568634, -0.5507245063781738, -0.8235613107681274, 0.6715037226676941, 1.2827181816101074, 0.22322431206703186, 0.04046724736690521, -0.5763978362083435, -0.09462077915668488, 1.3327691555023193, -0.508442759513855, -1.3696054220199585, -0.5546149015426636, -0.42274436354637146, 1.4835309982299805, -0.3989383280277252, 1.1836506128311157, 0.9820282459259033, -0.7898518443107605, -0.762600839138031, -0.6087163090705872, 0.4264316260814667, 0.39234694838523865, 0.4335167407989502, -0.394126832485199, -0.9047854542732239, 0.47012677788734436, 1.417391061782837, 0.47822806239128113, -1.2141680717468262, 1.3489890098571777, 1.5627477169036865, -1.4456785917282104, -0.4532349705696106, -0.3667309880256653, 0.4190317988395691, 0.40247759222984314, 1.0225255489349365, 0.3553427457809448, -2.3239030838012695, -1.171595811843872, 0.3100223243236542, -0.3841925263404846, -0.1333233267068863, -0.3906600773334503, 0.0772174745798111, -0.26363199949264526, -1.8668535947799683, -1.63896906375885, -1.044813632965088, -0.42242521047592163, 1.0222612619400024, 0.06523545831441879, 1.725341796875, -1.3970006704330444, 0.9744104146957397, 1.3682804107666016, -0.010661765933036804, 0.0962943509221077, 0.4910713732242584, -1.8905819654464722, 1.9441745281219482, 1.659290075302124, -1.3852146863937378, 0.3279983699321747, 1.0591752529144287, 0.5760944485664368, -0.22128069400787354, 1.5573612451553345, 0.7757742404937744, 1.9382938146591187, -0.28545263409614563, 0.5121238231658936, 0.08071848005056381, -0.1862286925315857, 0.6123214364051819, 1.0325298309326172, 1.6049801111221313, 0.918861985206604, 1.0313161611557007, 0.7781904339790344, -0.8124385476112366, 2.0086865425109863, 0.5856817960739136, 0.2073671668767929, -1.1767886877059937, -2.0020906925201416, -0.0040825954638421535, 1.2855982780456543, -0.3060213625431061, 1.7161751985549927, 0.9159647822380066, 0.2990115284919739, 1.1369043588638306, -0.6820825934410095, -0.4541301131248474, -0.22356857359409332, -1.7508755922317505, -0.54014652967453, 0.5416959524154663, 2.0378758907318115, 0.645967423915863, -1.254912257194519, -0.5037038922309875, 0.3450745940208435, 0.13722558319568634, -0.16418692469596863, -2.772749185562134, 0.16486017405986786, 1.2685400247573853, 0.15021729469299316, -0.3005983531475067, -0.865123450756073, 0.49416670203208923, -0.6715307831764221, 0.772061824798584, -0.4843977093696594, -0.5571966767311096, 0.23755493760108948, 0.07298417389392853, -1.3335460424423218, -2.0311243534088135, -0.15964199602603912, 0.1735081523656845, 1.5097410678863525, -0.9767837524414062, 0.8591998815536499, 0.6979333758354187, 0.6338478326797485, 0.8312178254127502, 2.1436846256256104, 0.2708130478858948, -0.11328133195638657, 0.7403110861778259, 0.45961233973503113, 0.5824847221374512, -1.171151041984558, 1.2756917476654053, 0.5037822723388672, 0.4360438287258148, -0.5915296077728271, 0.1908181607723236, -1.9761329889297485, -0.04975222051143646, -0.41890090703964233, 1.2590702772140503, -2.07552170753479, -1.9583953619003296, -0.4931473731994629, 0.6258861422538757, 2.4901089668273926, -0.2591007351875305, 0.9432480931282043, 0.28344160318374634, -0.17000924050807953, 0.1896892935037613, -0.40140989422798157, 0.9717959761619568, 1.068840742111206, 0.546902596950531, 1.2712687253952026, -0.20036070048809052, -0.8468038439750671, 0.6526481509208679, -1.0065470933914185, -0.7495615482330322, 1.5001028776168823, -2.674952745437622, 0.2559703290462494, 0.4262869358062744, 1.202155351638794, 0.12461294233798981, -0.014602077193558216, 0.36240431666374207, -0.6592251062393188, 1.6682186126708984, 0.9132878184318542, 0.06191536784172058, -0.09107904881238937, 1.6242163181304932, -0.6058419346809387, -0.021849583834409714, 0.31265851855278015, 0.7960927486419678, -1.1379897594451904, 0.38604170083999634, -0.8211831450462341, -0.15840917825698853, 0.3616181015968323, 0.15757296979427338, 1.035352349281311, 0.5524624586105347, 0.5257611274719238, -1.2242252826690674, 1.0048247575759888, -0.22562873363494873, -0.3798253536224365, -1.1345824003219604, 0.38991880416870117, 0.185286283493042, 0.4515315592288971, 0.1224641352891922, 0.5476107001304626, 1.5179888010025024, -0.38007304072380066, -1.1095906496047974, -0.6763451099395752, 0.7086811661720276, 0.2694464921951294, -1.3849509954452515, -0.5991875529289246, -1.9035120010375977, -1.8807623386383057, 0.581849217414856, -0.9770270586013794, 0.6478610038757324, 0.9167301654815674, 0.37148424983024597, -1.8511996269226074, -0.459785133600235, -0.821986973285675, -2.2453958988189697, -2.147958517074585, -0.8013262152671814, 1.1914323568344116, 0.45299890637397766, 1.5664156675338745, -0.34968942403793335, 1.1322118043899536, 0.9791541695594788, 1.421317458152771, -0.5713672637939453, 0.2347842901945114, -1.5510687828063965, 0.07689109444618225, -0.5466802716255188, -0.19362880289554596, 1.995280146598816, -0.27466103434562683, -0.4801141619682312, -1.3935517072677612, 1.797692060470581, 1.4640601873397827, 0.2634923756122589, 1.4751683473587036, -0.39347609877586365, -0.584597110748291, -0.9755827188491821, 1.1085376739501953, -0.714340090751648, 0.2684777081012726, 0.10670913010835648, 1.3310784101486206, 1.5783367156982422, -0.06174112856388092, 0.6317405700683594, 1.2834670543670654, 1.1412599086761475, -0.22833675146102905, -2.4602458477020264, 0.42556077241897583, 0.4557051658630371, -1.9939244985580444, 0.7841975092887878, -0.10979556292295456, -1.430296540260315, -0.8847613334655762, -1.0514512062072754, -0.0728548914194107, -0.6346070170402527, -0.29712751507759094, -0.6375554203987122, 0.6880179643630981, 1.4310468435287476, -1.0836117267608643, 0.49349725246429443, 1.6362823247909546, 0.4535541534423828, -1.5499167442321777, 1.8391462564468384, -2.0887160301208496, -0.15940190851688385, -0.02216072380542755, 0.1493469625711441, -0.30205461382865906, -0.5161778330802917, 0.2618931531906128, 1.3970056772232056, -1.4507311582565308, 0.2379687875509262, 1.1232846975326538, 1.2475563287734985, -0.2843257188796997, 0.2679769694805145, 0.07572164386510849, 0.40953299403190613, -1.323111653327942, 0.2052573710680008, 0.37095823884010315, -0.6481807231903076, 0.061060722917318344, 1.0690128803253174, -0.5143458247184753, 1.179660439491272, 0.24254998564720154, -0.984367311000824, -0.672996997833252, 1.3175126314163208, -0.9645407795906067, -1.1785883903503418, 0.3021530210971832, -0.0034865080378949642, 2.1544744968414307, -0.32855224609375, 0.4223840832710266, 2.1157736778259277, -1.0948821306228638, -0.19803878664970398, 0.4153856635093689, -1.1161184310913086, -0.4242385923862457, -0.1269814372062683, -0.7424628138542175, 2.149627923965454, 0.3677023947238922, -2.5518243312835693, -0.5763441920280457, 0.3059408664703369, -1.7342220544815063, -0.15919449925422668, 1.4747735261917114, -1.3570187091827393, -0.6163668632507324, 1.160980463027954, 1.5861903429031372, -1.642134666442871, 0.060564182698726654, 0.0116643775254488, -0.25188785791397095, 0.4539925456047058, 1.1407610177993774, 0.789819061756134, -0.34727850556373596, 0.4103865623474121, 0.353022038936615, 0.6405972242355347, -0.8595789074897766, 0.26433172821998596, 0.5978415012359619, 0.8383589386940002, -0.5498691201210022, 0.14304663240909576, 0.9272356629371643, 0.05342012271285057, 0.22881479561328888, -0.320241779088974, 1.0783737897872925, 0.07132068276405334, -0.5786607265472412, -0.23000852763652802, -0.26579511165618896, 0.0515340156853199, -1.751050591468811, -1.3314623832702637, 1.015307068824768, -1.7790907621383667, 1.3935821056365967, 0.890319287776947, -0.561027467250824, 0.3026885390281677, -2.2979846000671387, -0.4823808968067169, 0.41566601395606995, 1.1420683860778809, -0.20263050496578217, -0.7196370363235474, 0.4127030372619629, -0.2341606765985489, 0.2909909188747406, -1.1166253089904785, -0.4906677007675171, -0.35426023602485657, 0.25587576627731323, 0.8511560559272766, 0.026323553174734116, 1.0922929048538208, -0.4537980556488037, 0.5928131341934204, 0.36416593194007874, 0.3581060767173767, -1.460897445678711, 0.23767738044261932, -1.407547950744629, 0.6379362940788269, -0.028895698487758636, 0.5109858512878418, 0.595319926738739, 0.8086466789245605, -0.5473349094390869, 0.22640825808048248, -0.4829641580581665, -0.7567965984344482, 1.5407487154006958, 2.9806666374206543, 2.026231527328491, 0.5569579005241394, -0.44323164224624634, 0.6451484560966492, -0.9246350526809692, 0.18855510652065277, 0.6529440879821777, 1.1401103734970093, -0.1961705982685089, 1.3937491178512573, 0.8093208074569702, 1.1925286054611206, 0.7056452035903931, -1.3024108409881592, 0.797391414642334, 0.371157705783844, 1.4054851531982422, 1.880447506904602, -2.0522587299346924, -1.8021960258483887, -0.7460381984710693, 1.0802478790283203, -0.6638352870941162, -1.461991786956787, 0.7652292251586914, -0.1060129776597023, 2.069274663925171, 0.7069153189659119, 0.4769587814807892, 0.7330871224403381, 0.45442286133766174, -0.8092124462127686, -1.0126259326934814, 0.12128926813602448, 1.2706385850906372, -1.0182898044586182, -1.5019725561141968, 0.019730882719159126, 2.0979738235473633, -1.1499669551849365, -1.6427204608917236, -0.3902406692504883, -0.5293470621109009, 0.5439687371253967, 1.0615094900131226, 1.3521305322647095, 1.4051463603973389, -1.5105466842651367, 1.0930505990982056, -0.7462528347969055, -1.131065011024475, 0.3473411798477173, 1.4306825399398804, -1.2114757299423218, -1.484498143196106, 1.4522364139556885, 1.9977002143859863, -0.02700735814869404, -0.17883431911468506, 0.660965621471405, 0.17047974467277527, -1.003272533416748, 0.15854018926620483, -0.7733491659164429, 0.34856998920440674, 0.44558772444725037, -0.6773730516433716, -1.101527452468872, 0.7051315307617188, -0.24155908823013306, -0.9242795705795288, 0.722631573677063, -0.06794015318155289, 0.950104296207428, 0.448284387588501, -1.2077754735946655, -1.6115124225616455, -1.1749324798583984, -0.8773688077926636, -0.6389901041984558, -1.0369137525558472, -1.4819915294647217, 1.2584720849990845, -0.2978079319000244, 1.9143685102462769, 0.6006536483764648, 0.0809166356921196, 1.4651625156402588, 0.3914867341518402, 0.3341250419616699, 0.809699535369873, 0.4534458816051483, 0.845003604888916, 0.2109839767217636, -0.08649589866399765, -1.038170576095581, 1.1797000169754028, -0.5277276635169983, -3.0800278186798096, 0.9106372594833374, 0.917169451713562, -0.8684839606285095, 0.04004557058215141, 1.879461407661438, -2.2979352474212646, 0.17955924570560455, -1.4719254970550537, 0.6420630812644958, -1.1786675453186035, 1.251044750213623, -0.6815900802612305, -0.08468178659677505, 0.562792956829071, 0.14213266968727112, 1.8365377187728882, 0.424176424741745, -1.3435431718826294, 1.3361884355545044, 0.6624157428741455, -0.43905171751976013, 0.8051766753196716, 1.0677173137664795, 0.5652397871017456, 1.9773973226547241, -0.05862395092844963, -1.044531226158142, 0.7762312889099121, -1.44584059715271, -0.6921202540397644, -1.1287552118301392, -1.3616151809692383, 0.9990993142127991, -0.5229107737541199, -0.4027494490146637, -0.4779359698295593, -2.474013328552246, 0.24021567404270172, -1.1150798797607422, -0.341061532497406, 0.6150916218757629, -1.171597957611084, -0.10994749516248703, -0.9597489833831787, 1.6485515832901, -0.2522568106651306, 0.376058965921402, 2.074131727218628, -0.4922901690006256, 1.2677130699157715, -0.5637743473052979, -0.654021143913269, 0.7388755679130554, 0.7449150681495667, -1.4276772737503052, 0.3271985352039337, -1.2740811109542847, 2.073120594024658, 0.5626670122146606, -0.5106104016304016, -0.2561878263950348, -1.0847539901733398, -0.08878864347934723, -0.2960043251514435, -0.27131080627441406, -0.18800176680088043, -1.5072098970413208, -0.43515950441360474, 1.3029942512512207, 0.3993513286113739, -0.9356100559234619, 1.297232985496521, -0.20334042608737946, 1.6002179384231567, -1.4054735898971558, 0.43964120745658875, -0.18079474568367004, 1.4471967220306396, -0.7916259765625, -0.7373097538948059, 1.6562608480453491, -1.2937111854553223, 0.663472592830658, 0.7278003692626953, -0.46826601028442383, -0.1739114224910736, -0.33180344104766846, 0.01357425469905138, -0.7873809337615967, -0.3976811170578003, 0.17291614413261414, 0.3001462519168854, 1.1728384494781494, 0.7788016200065613, 0.10756650567054749, 1.1283513307571411, -0.9536606073379517, -0.9932076334953308, 0.549104630947113, 0.5881410837173462, -0.5952850580215454, -1.2249038219451904, -0.41874298453330994, -2.00603985786438, -1.6620466709136963, -0.3856680691242218, -0.6069482564926147, -0.1476615071296692, -1.8577489852905273, 0.978323757648468, 2.667762517929077, -0.7686780691146851, 0.4111401438713074, -0.7414584755897522, 0.43149101734161377, 0.09257330745458603, -1.59627366065979, 1.1078135967254639, 1.7054011821746826, 2.691838502883911, 2.1380560398101807, -0.20158079266548157, 1.9904685020446777, 0.17312221229076385, -0.428275465965271, -0.6461572051048279, 2.2006518840789795, -0.7886322736740112, -0.6736571192741394, -0.5293033719062805, -1.27206289768219, -1.1904879808425903, 0.35621726512908936, 0.03601418063044548, -0.8159404993057251, 0.2823708951473236, 0.8806517720222473, -0.32529518008232117, 0.9367974996566772, -0.36421963572502136, 0.9701720476150513, -1.3194098472595215, -0.14031292498111725, -0.05119974538683891, -0.2428770512342453, -0.3299030065536499, -0.7728766202926636, -0.1797974407672882, -1.6671663522720337, 0.5147720575332642, 0.6059234738349915, 1.2729166746139526, 0.3426303565502167, -0.16366083920001984, -1.181625247001648, 0.08587908744812012, -0.2985764443874359, -1.4155789613723755, -2.0411956310272217, -0.038704462349414825, 0.30757027864456177, -1.3104248046875, -0.8282976150512695, 0.3113662600517273, 0.03240058198571205, 1.1788570880889893, 0.016923261806368828, -0.811122477054596, -1.6280213594436646, 1.1171956062316895, 0.2646864056587219, -0.47195300459861755, -1.586909532546997, -0.07127540558576584, 0.9416194558143616, 1.5985578298568726, 0.8634518384933472, 0.3301123380661011, -0.8030177354812622, 0.7003864645957947, 0.3388274610042572, 0.8934884667396545, 1.1122153997421265, -0.6343013048171997, 0.9504527449607849, -1.2389750480651855, 0.30392396450042725, 0.10766935348510742, 0.14890146255493164, 0.8664202690124512, 0.3962896168231964, -0.760986864566803, -0.12765848636627197, -1.4173346757888794, -0.3439099192619324, -0.5756134390830994, -0.11962825059890747, -1.7664213180541992, -1.1842435598373413, -1.5486440658569336, -0.5138301253318787, -1.328344464302063, -1.5075656175613403, -0.7329845428466797, 0.04892049357295036, 0.26853591203689575, -0.011842876672744751, 0.2122737318277359, -1.4491990804672241, 0.9814369082450867, 0.46446937322616577, -1.250577688217163, 0.3750116229057312, -1.5113967657089233, -0.5635794997215271, 0.5684458613395691, -1.5345426797866821, -1.0557494163513184, 2.225896120071411, 1.0629868507385254, 1.661197304725647, -0.37611088156700134, -0.6138983368873596, 0.5444626212120056, 0.036591242998838425, -1.6074398756027222, -0.7324386835098267, 0.3273322880268097, 1.088623046875, -1.0022584199905396, 0.4831203520298004, 0.048511698842048645, 0.5380285382270813, -1.2492866516113281, -0.42303135991096497, 1.434804081916809, 1.1327776908874512, -0.6990516185760498, -0.5196930766105652, 1.1059595346450806, 0.3142701983451843, -1.4912174940109253, -0.17089581489562988, 0.9090378284454346, -1.3291982412338257, -0.8514725565910339, -1.364527702331543, 0.5110347270965576, -0.17094235122203827, 1.2461082935333252, 0.30583375692367554, 1.841042399406433, -2.622263193130493, -0.7895724773406982, 0.6420789957046509, 0.454408198595047, 0.5164321660995483, -0.1671929657459259, -0.5639234185218811, 0.6297365427017212, -0.7917583584785461, 1.5534266233444214, -0.19080407917499542, -0.7712311148643494, -1.227219581604004, -0.1001700609922409, -0.4520135819911957, 0.01803939789533615, -1.9527696371078491, 1.5869791507720947, 1.8524175882339478, 1.311963438987732, -1.005286455154419, 0.5385298132896423, 2.706796407699585, -0.15779435634613037, 0.5636889338493347, 2.081841230392456, 0.17917323112487793, 0.9753285646438599, 0.9801839590072632, -0.7245869040489197, -0.6297805309295654, -0.5686787366867065, -0.43193310499191284, -0.10098669677972794, 0.17411360144615173, 0.8970864415168762, -1.5173195600509644, 0.6954406499862671, -0.6579540371894836, -1.5164529085159302, -0.7318422794342041, -0.16011619567871094, 0.3065869212150574, 0.4844568967819214, 1.7191014289855957, 0.5756992697715759, 2.0752015113830566, 1.837660551071167, -0.6129935383796692, 0.3767105042934418, 0.6898083090782166, -0.5343928933143616, -0.7661278247833252, -0.2280527949333191, -0.9870969653129578, 0.3381371796131134, -1.8955014944076538, 0.6958364844322205, 0.6223585605621338, -0.09440521895885468, -0.41513174772262573, 2.4610743522644043, -1.065432071685791, -1.6458345651626587, -0.8660640120506287, -0.43878018856048584, -0.2031504362821579, -1.1392240524291992, 0.20034420490264893, -0.32303762435913086, -0.3999125063419342, 2.0242106914520264, -1.3799183368682861, -1.608611822128296, 0.9810793399810791, 0.6883501410484314, -0.3673190176486969, -0.5177616477012634, -0.38090255856513977, -0.7219073176383972, 0.9846591353416443, 0.6639789342880249, 0.6767069697380066, -0.2886335253715515, -0.3684079647064209, -0.948022723197937, -1.6782877445220947, 1.025931715965271, 0.5495442748069763, -0.9322998523712158, 0.017574317753314972, -0.514839768409729, 0.5321887731552124, 0.14153295755386353, 0.926749587059021, 0.15697401762008667, 0.8337363600730896, -1.9775099754333496, -1.271364688873291, -1.309956669807434, -0.24687924981117249, 0.5969774723052979, -1.7973577976226807, -0.8075132966041565, -0.21034009754657745, 0.1806594282388687, -0.5398741960525513, 1.6444298028945923, 2.3575830459594727, 0.9197074770927429, -0.9460003972053528, 0.6289454698562622, 1.6213051080703735, 0.05910481512546539, 0.5416850447654724, 0.9647671580314636, -0.16042770445346832, -0.15365807712078094, 1.8284801244735718, -1.1549469232559204, 0.1979023516178131, 0.18523266911506653, 1.3758805990219116, 0.5137941241264343, 1.317676305770874, 1.837676763534546, -0.16234397888183594, -0.36244451999664307, 0.1786288470029831, -0.03591495007276535, 0.8729038834571838, -0.0961947962641716, 0.23627454042434692, -0.6247759461402893, -0.3783835768699646, 0.09412498027086258, 0.8919094204902649, 1.864193320274353, -0.42057791352272034, -0.09725860506296158, -0.459722101688385, 0.9861821532249451, -0.4590383470058441, -0.0685209259390831, 0.5066256523132324, 0.6989551782608032, -0.17832504212856293, 1.7285969257354736, 0.731488823890686, 1.032126545906067, -1.401864767074585, 0.21058911085128784, -0.33105704188346863, 0.039212681353092194, -0.024098770692944527, 0.3945278227329254, -0.7898051142692566, -0.2276618480682373, 0.36853712797164917, -0.12838764488697052, 1.002273440361023, -0.787344753742218, 0.14136412739753723, -2.4108095169067383, 0.7618011236190796, 1.647339940071106, 0.23239530622959137, 0.27298247814178467, 0.18319325149059296, -1.201043963432312, 0.4069875180721283, -0.972576379776001, -0.058640673756599426, 0.05695872753858566, -0.6942368745803833, -1.2115036249160767, -0.126494362950325, -0.16035781800746918, -0.7599223852157593, -0.8043005466461182, -0.4989534318447113, 0.17955327033996582, -0.134507417678833, 0.0752936601638794, -1.3217003345489502, -1.0234346389770508, -0.11441737413406372, 0.5612776279449463, -0.5088178515434265, 0.9624823927879333, -0.2603956162929535, -0.30779823660850525, -0.676571249961853, -0.11653880029916763, -1.4058030843734741, -0.009612545371055603, -0.5062925219535828, -1.7078118324279785, -0.7321792840957642, 0.5441054701805115, 0.5042280554771423, -0.07190026342868805, -0.3191024363040924, 0.9053502678871155, -1.2418878078460693, 0.15881912410259247, 0.30009862780570984, -0.5285655856132507, 0.03450252488255501, -1.092200756072998, 0.4881221354007721, -0.28731220960617065, -0.3056040108203888, -0.2721782922744751, -0.5799044966697693, 0.4396262466907501, -0.24350062012672424, 0.31960463523864746, -0.2840602993965149, -0.006535662803798914, 0.23661386966705322, 0.04533285275101662, 0.12695534527301788, -1.713757038116455, 0.02751591056585312, 1.899356484413147, 0.4083256125450134, -0.6612817049026489, 0.7492969632148743, 0.09625459462404251, -0.40373992919921875, -2.4758286476135254, -1.007485270500183, 0.14386875927448273, 0.8826714158058167, -0.9080927968025208, -0.023634955286979675, 0.6510986685752869, -1.389849305152893, -1.5568547248840332, 1.3147404193878174, 0.02478332258760929, -1.4561625719070435, -1.2584627866744995, 0.9780712127685547, 0.15856090188026428, 1.0302584171295166, 0.029413584619760513, -0.4956028163433075, -0.8433935046195984, -0.10638472437858582, -0.4982566237449646, 1.2172428369522095, -2.03769850730896, -1.7026076316833496, 0.23439815640449524, -1.0370279550552368, 0.45238569378852844, 1.4582887887954712, 0.8028563857078552, 1.0681610107421875, -0.28645211458206177, 1.2062691450119019, 0.21060240268707275, -1.3393090963363647, -0.1494988203048706, 0.6646241545677185, 1.1592087745666504, -2.0428922176361084, 0.020065616816282272, 1.2990328073501587, -1.2001843452453613, -0.6877241134643555, 0.4938628077507019, 0.9352383017539978, 0.08387812972068787, 0.9052547812461853, 1.1139295101165771, 0.16683164238929749, 0.18214739859104156, 1.6506794691085815, -2.1094107627868652, 0.3422453701496124, 0.47082117199897766, 0.2148703932762146, -1.0922635793685913, 0.6422180533409119, -0.40255531668663025, 1.4250038862228394, -0.5850009918212891, -0.5315611362457275, -0.0704915001988411, -2.636631488800049, 1.0167992115020752, -0.6938396096229553, 0.2536042630672455, -0.4502287805080414, -0.4506336748600006, -2.1909663677215576, -1.467360258102417, 0.19053655862808228, 0.8478670120239258, -1.8040062189102173, 0.2736855447292328, -0.10271778702735901, -0.5733305811882019, 0.30303436517715454, 0.9973886609077454, -0.901805579662323, -0.5713488459587097, 0.13005995750427246, 0.03471093624830246, 0.7990935444831848, 0.5183284878730774, -0.21973253786563873, -0.591300904750824, 1.2481820583343506, -0.17383840680122375, -0.6823133230209351, -1.402301549911499, 0.3661484718322754, 0.8489260077476501, 1.6726516485214233, 0.7021245956420898, -2.7800850868225098, -0.4390734136104584, 1.1138908863067627, 0.6896741390228271, 0.4011816382408142, -0.06308790296316147, -0.08886078000068665, 0.3460270166397095, 0.012393372133374214, -0.5029784440994263, 0.5206778049468994, 1.4476147890090942, 2.0465071201324463, -2.017490863800049, 0.9013839960098267, 0.4983586370944977, 0.12853768467903137, 0.88399738073349, -0.36659157276153564, -1.5127924680709839, -0.7110929489135742, -3.3865373134613037, 0.9877837896347046, 0.5673654675483704, -0.12834908068180084, -0.6854686141014099, 1.6231015920639038, -1.9935065507888794, -0.1831716001033783, 0.4735972583293915, 0.35546284914016724, -0.6485925316810608, -1.0310310125350952, 0.4836112856864929, 1.4326399564743042, 0.7225849628448486, 1.0129450559616089, 0.9503589868545532, -0.9508647918701172, -0.11394428461790085, 0.6695152521133423, 1.5228251218795776, 0.26302585005760193, -1.8094489574432373, -0.5884720087051392, 0.856982946395874, -0.43347686529159546, -1.3945032358169556, -0.46378275752067566, -1.1032230854034424, -1.3767681121826172, 1.3581115007400513, 0.2808963656425476, 2.0950191020965576, 1.3732529878616333, 0.2462792843580246, -0.4433963894844055, 1.4168455600738525, -0.429679274559021, 0.11608057469129562, -0.18045181035995483, 0.5418957471847534, 0.30347952246665955, -0.47295162081718445, -0.702293336391449, 0.9263717532157898, 0.34999290108680725, -0.4239010512828827, -0.07218152284622192, 0.6692175269126892, 0.28014296293258667, 1.4566701650619507, 1.2033629417419434, -2.502131938934326, 1.462548851966858, 0.7144214510917664, -0.8352398872375488, 0.04652906581759453, -1.508413314819336, -2.804393768310547, 1.3842717409133911, 0.4613407552242279, -0.6575090289115906, 0.32402706146240234, 0.1529616415500641, 0.2728019058704376, -0.32952919602394104, 2.888267755508423, -1.7998695373535156, 0.8578910827636719, -0.16159531474113464, -0.6729629635810852, -0.1034746766090393, 0.0022529142443090677, 0.04806268960237503, 2.2190706729888916, 0.8099242448806763, 0.06930986046791077, 0.2926573157310486, 1.3261003494262695, 0.03116939589381218, 0.12500713765621185, 0.06467004120349884, -1.1309462785720825, 0.8298293352127075, -0.6252055764198303, 0.806793212890625, 1.472544550895691, 0.0502433180809021, -0.3498983681201935, 2.2633509635925293, 0.4811320900917053, -0.6843701601028442, -0.6266279220581055, 1.8197290897369385, -1.0680902004241943, 0.09397149085998535, -0.030417079105973244, -0.540728747844696, -0.5556330680847168, -0.4873202443122864, 0.8829494118690491, -1.0276970863342285, 0.8545035123825073, -0.10869846493005753, -0.5435486435890198, 0.5032230019569397, -1.868390679359436, 0.8948581218719482, 1.4818024635314941, 0.9981994032859802, -1.067254662513733, -0.755984902381897, 0.5085462331771851, -2.057403087615967, 1.2330803871154785, -0.9191604256629944, -0.4519657790660858, 2.1060609817504883, -1.7723859548568726, 0.4375612735748291, -0.8770002722740173, 0.88945072889328, 0.3296896517276764, -0.3655944764614105, -0.059072766453027725, -0.5204964280128479, 0.08959023654460907, 0.8745917677879333, 0.08612233400344849, 0.5175154209136963, 0.017246929928660393, -0.360196590423584, -0.9653112292289734, -0.9918712973594666, -1.1793856620788574, 0.5782245993614197, 0.18075302243232727, -0.025565603747963905, -1.3732751607894897, -1.2265124320983887, -0.9132123589515686, 0.9345365762710571, 0.6243192553520203, -0.7956190705299377, -1.0646655559539795, 1.1129963397979736, 0.8789023160934448, 0.958231508731842, -0.5720081329345703, 0.1250244528055191, 0.0483609139919281, 1.3833050727844238, -0.38342466950416565, 0.7355136275291443, 1.4936070442199707, 0.40884074568748474, 1.432356357574463, 1.4799479246139526, 3.1311562061309814, -1.226547122001648, -1.7298319339752197, -1.1346107721328735, -0.3958292305469513, -0.2588382959365845, -1.340206503868103, 0.29410406947135925, -0.9540548324584961, 1.7499538660049438, -0.7696079015731812, -1.8534711599349976, -1.013265609741211, 0.7861263155937195, -1.606928825378418, 0.08568228036165237, -2.4506609439849854, -0.6868169903755188, -0.4647725224494934, -0.7580298185348511, 0.7664128541946411, 0.2724153697490692, 1.7311065196990967, -1.0741941928863525, 0.20343580842018127, -1.3894257545471191, -0.05906866118311882, -0.6224141120910645, 1.691656231880188, -0.13771961629390717, -0.3214779198169708, 0.4248008131980896, -0.8544708490371704, 1.3209213018417358, 0.08109258860349655, 0.4711856544017792, -1.0047813653945923, 1.3558588027954102, 0.03399703651666641, -0.3595946729183197, -0.969673752784729, 0.002034955658018589, -1.0346392393112183, 0.2129386067390442, 1.365964651107788, -2.095715284347534, -0.5966755747795105, -0.5905015468597412, 1.3008989095687866, 1.9091075658798218, -0.9152674674987793, 0.0977560505270958, 0.4324735403060913, 0.9915789365768433, 0.40453165769577026, -0.04460187256336212, -0.6890958547592163, 0.3897654116153717, 0.7605865001678467, -0.5682758688926697, 0.1595890074968338, -0.48222219944000244, -0.32065340876579285, -0.30355918407440186, -0.8357695937156677, 1.0341976881027222, 1.2689827680587769, 1.920310378074646, 0.15763555467128754, -0.6274254322052002, -0.4458200931549072, -0.13289135694503784, 0.3141362965106964, 0.36500951647758484, 0.7314628958702087, 0.8061029314994812, 1.1893959045410156, 0.4538240432739258, 0.7912061810493469, -0.603374183177948, -1.3570464849472046, -0.4942598342895508, -0.40090087056159973, 0.8891482949256897, -1.018404245376587, 0.3825709819793701, 0.5910705924034119, -0.7740861177444458, -0.5412123203277588, -1.5383917093276978, -0.9748004078865051, -1.4246463775634766, 1.024785041809082, -0.9596375823020935, -1.381635308265686, 0.07046826928853989, 1.2985942363739014, -0.49460795521736145, -0.34340038895606995, 0.4751400351524353, -2.729581594467163, 0.47283434867858887, 0.151767760515213, -0.09766664355993271, 1.2000207901000977, -0.8946718573570251, -0.3625917434692383, -1.2930694818496704, 