#include "layer.h"

layer conv_l = {
	.CO = 16,
	.CI = 8,
	.IH = 8,
	.IW = 8,
	.OH = 8,
	.OW = 8,
	.FH = 3,
	.FW = 3
};


static float result[8][8][16] __attribute__((section(".data")));

static float checksum[8][8] = {-5.962952613830566, 45.255653381347656, 6.566640853881836, 28.556135177612305, -27.464679718017578, -1.6779508590698242, 17.243980407714844, 1.2983155250549316, -71.4727783203125, -51.22088623046875, -2.6076784133911133, -17.391952514648438, -12.990791320800781, 28.51393699645996, -44.20344161987305, 3.3657515048980713, -6.660243511199951, -48.10697937011719, -35.23741912841797, -9.361518859863281, 5.459427356719971, 50.506629943847656, 41.81904983520508, -6.5913591384887695, -33.930057525634766, 92.61592864990234, 1.489593505859375, -6.697804927825928, -31.398893356323242, -21.349300384521484, 13.679971694946289, 13.3064546585083, 22.61325454711914, 11.494067192077637, -27.207395553588867, 7.681612968444824, -10.031170845031738, -8.249715805053711, -16.386096954345703, -16.25225067138672, 17.493417739868164, 11.49276351928711, -43.14451599121094, -10.459882736206055, -5.338807582855225, -11.126152038574219, 56.456974029541016, -2.2843780517578125, 27.654510498046875, 31.278240203857422, 22.664356231689453, 9.442916870117188, -9.073465347290039, 23.40421485900879, 24.44951057434082, 11.777400016784668, 38.08089828491211, -8.93485164642334, 45.926300048828125, -17.970787048339844, 12.749852180480957, 11.567682266235352, 24.238330841064453, -12.585577011108398};


static float ifmap_dram[8][8][8] = {1.9269152879714966, 1.4451338052749634, 1.931160569190979, 1.7743884325027466, -0.685481607913971, 0.4334380030632019, 0.6663737893104553, -1.3838845491409302, 1.4872840642929077, 0.8564125299453735, 1.0118638277053833, -0.921550989151001, 0.5635589957237244, -0.7171905636787415, -0.07426456362009048, 0.4868715703487396, 0.9007171988487244, 2.218075752258301, -1.4364064931869507, 0.9624499082565308, -1.507175087928772, 1.055369257926941, -0.20960482954978943, -1.0020296573638916, -2.1055209636688232, 0.5231655240058899, -1.1298598051071167, -0.33701515197753906, -1.610666036605835, -1.4533969163894653, 0.16632132232189178, 0.0329488180577755, 0.6784184575080872, 0.34664666652679443, -0.1360345333814621, -1.1753336191177368, -1.4790465831756592, 0.46515071392059326, 1.4703037738800049, -0.42919591069221497, -1.2345448732376099, -0.19733144342899323, 1.6354095935821533, 0.35805708169937134, 0.4322742819786072, 0.37139150500297546, -0.9390866756439209, -0.9817978739738464, -0.04306747764348984, -1.0545889139175415, 0.6547407507896423, 0.47876790165901184, -0.1250254064798355, -0.004656785633414984, -0.6013189554214478, -0.6420586109161377, -1.6046669483184814, 1.2779955863952637, 0.5760045647621155, 1.353700041770935, 0.7821183800697327, 0.07954943925142288, -0.09964022785425186, 0.8265887498855591, -0.7521352767944336, -0.1721901297569275, 1.1415079832077026, 0.5260620713233948, -1.598767638206482, 0.3781784772872925, -0.9851518273353577, 1.591395616531372, 1.6487230062484741, 0.5237884521484375, 0.018564576283097267, 2.1120378971099854, -0.10912995040416718, 0.7051141262054443, -2.488459348678589, -0.1208132952451706, -0.3924786448478699, 0.056621819734573364, -1.8058050870895386, -0.5207571387290955, 0.7151994705200195, -1.7236974239349365, -0.33131900429725647, -0.48302069306373596, -1.4036071300506592, 0.4262961447238922, 0.9254348874092102, -0.9320061206817627, 0.03913922235369682, -0.8434810638427734, 0.8435799479484558, 0.11329790204763412, -0.7278813123703003, 0.575005054473877, -0.3753443658351898, 0.18516133725643158, 1.305860161781311, 0.4351435601711273, 0.9874473810195923, 0.0771508663892746, -0.5594301819801331, -0.6417241096496582, 1.0330873727798462, 1.0686918497085571, 0.24659274518489838, 0.26588720083236694, -0.33197471499443054, -0.9228128790855408, -0.7688388824462891, -2.2063984870910645, -0.6866509318351746, 1.3065344095230103, -1.9775909185409546, -0.5870985388755798, -0.8076189756393433, -1.2619991302490234, 0.7624453902244568, -0.7508030533790588, 0.6368136405944824, 0.4598345160484314, 0.01789604313671589, 0.0826888456940651, 0.824364185333252, 1.0860532522201538, 1.6423169374465942, 0.01086814422160387, -0.9726738929748535, -0.8146268725395203, -1.3793021440505981, 0.8853808045387268, 0.024699924513697624, 1.096641182899475, -0.1595974713563919, -0.33874234557151794, 0.9584577679634094, -1.0212392807006836, 0.625802755355835, 0.1824439913034439, -1.0641486644744873, -0.6836934685707092, -0.4973975419998169, -1.3406795263290405, 1.6192004680633545, -0.49492356181144714, -2.5849502086639404, 0.7863810062408447, -0.7601934671401978, 0.06604336202144623, 0.439589262008667, -0.5853705406188965, 1.450609803199768, -0.5922516584396362, -0.02399955503642559, -0.057920295745134354, -0.4075061082839966, -0.0007737990817986429, -0.7581311464309692, 0.5361881256103516, 0.2694815397262573, 0.15431594848632812, -0.1221928745508194, 0.5666652917861938, 0.9623646140098572, 0.1620604395866394, 1.078317642211914, 0.5246226191520691, -0.21037597954273224, 0.4407670795917511, -0.7469954490661621, -0.7097623348236084, -0.14264194667339325, 1.195958137512207, 0.8008005619049072, 1.1412016153335571, -0.7328027486801147, -0.14829230308532715, 1.7093087434768677, -0.4875054359436035, 0.15271379053592682, -1.3061535358428955, 1.680620551109314, 0.05164359509944916, 0.10429783165454865, -2.3184432983398438, 0.05792269483208656, 0.050095997750759125, -0.0388023778796196, -1.4039719104766846, 1.27912437915802, 0.7439519762992859, 0.3487516939640045, -0.39799532294273376, 1.1929805278778076, 0.6084084510803223, 0.9446058869361877, -1.0597201585769653, 1.2964228391647339, -0.4815843999385834, 0.9675941467285156, 1.0804862976074219, 1.9372931718826294, 1.6308681964874268, -1.5824053287506104, 0.3057299852371216, 0.610466480255127, -1.0494661331176758, -0.46568843722343445, -1.7808643579483032, 0.7287133932113647, -0.08472306281328201, 0.9871290922164917, 0.4150581359863281, 1.334737777709961, 0.603898823261261, 1.6047972440719604, 1.5080454349517822, 0.9808937907218933, 1.0844124555587769, 1.1456739902496338, -0.7174144983291626, -0.2316243201494217, -1.7222950458526611, -2.4801201820373535, 0.30942854285240173, 0.41459226608276367, 0.9477656483650208, -0.14181147515773773, 2.833967924118042, 0.041759490966796875, -0.827768862247467, -0.4175437390804291, -0.5003090500831604, 1.15656316280365, -0.676629364490509, -0.2763414680957794, 1.9534740447998047, -0.2515752911567688, 1.334702968597412, -1.1954537630081177, 1.0350031852722168, 0.2690545618534088, -0.5730168223381042, -0.19321373105049133, 2.0486814975738525, 0.859858512878418, 0.48353928327560425, 0.8123369216918945, 1.6896470785140991, -0.036629438400268555, -0.3303174376487732, 0.7767809629440308, -1.0880382061004639, -1.3846737146377563, -2.5095443725585938, -1.9005532264709473, -0.004505051765590906, 0.9732939004898071, -0.7939430475234985, 0.6838752627372742, 1.621694564819336, -0.8712361454963684, 0.4880010485649109, 0.22857652604579926, 1.666792392730713, -1.0150787830352783, 0.3752319812774658, -1.3245893716812134, 0.8512656688690186, -0.223365917801857, 0.7845868468284607, 0.02485940419137478, 0.15392017364501953, -0.5419175624847412, 0.08790969103574753, -0.5160817503929138, -0.40046969056129456, 1.7173614501953125, 0.02864718623459339, -0.34595024585723877, -1.0602530241012573, -0.44102486968040466, -1.241483449935913, 0.6001842617988586, -0.6088271737098694, 0.3188803195953369, 0.640755295753479, 0.2868328094482422, -0.572657585144043, -0.3136177957057953, -0.32025346159935, -0.4702208340167999, -0.508095383644104, -0.42451897263526917, 0.5832474231719971, -0.7308424115180969, 0.0835680365562439, -0.12925422191619873, -0.844377875328064, -0.6086435317993164, -0.6184902191162109, 0.3057209253311157, 1.0669267177581787, 0.17482025921344757, 0.39990535378456116, -0.7149624228477478, -0.5513465404510498, -0.046192023903131485, -1.647040605545044, -0.7745925188064575, -0.4501533806324005, -1.0939292907714844, 1.989207148551941, -0.047562163323163986, 1.9889612197875977, -1.6457397937774658, -1.0362098217010498, -1.5575724840164185, -0.18526747822761536, -1.6021603345870972, -0.07198750972747803, 2.0207436084747314, 1.900311827659607, -0.4833274185657501, -0.4503057301044464, 0.9956361055374146, 0.7527588605880737, 1.3528969287872314, -0.906094491481781, 0.25391900539398193, 1.6950805187225342, -0.740294337272644, -0.0729660615324974, -0.8797858357429504, 0.4047577977180481, 1.288827657699585, -2.0487122535705566, 0.9364385008811951, 0.028089528903365135, 0.31428107619285583, -0.5479549169540405, -0.6011420488357544, 0.17846599221229553, 0.05229547247290611, -1.0810555219650269, 0.7122363448143005, -0.17536965012550354, 0.1415553092956543, -1.1425532102584839, -1.2741512060165405, 0.2649095058441162, -1.5468504428863525, 0.01762307994067669, -0.031765542924404144, -1.7734959125518799, 1.0348176956176758, -0.44875210523605347, 2.1227850914001465, 1.2731683254241943, 0.7567060589790344, 0.0782259851694107, 0.10164086520671844, -0.7046414017677307, -0.626437783241272, -0.03045438416302204, -1.234653115272522, -0.0013108636485412717, 0.7755194902420044, 0.19315829873085022, 1.3433040380477905, -0.39465200901031494, -0.5150922536849976, 0.3830311596393585, -0.4879138767719269, -0.30360376834869385, 2.0265355110168457, 0.40967342257499695, 0.7132695913314819, 1.8868111371994019, 0.6902899742126465, -0.04476971551775932, -0.9138230085372925, -1.457029104232788, 0.03581761196255684, -0.9291303157806396, 0.4038029611110687, -0.21844321489334106, -0.4939993619918823, 1.179942011833191, -0.6581372618675232, -0.10233523696660995, 0.12058872729539871, 0.2761908769607544, -0.7139783501625061, 0.16629981994628906, 1.1366126537322998, -0.33142781257629395, 0.07802387326955795, -0.5991530418395996, -0.8056637048721313, -0.5388752818107605, 0.8337291479110718, 2.1441681385040283, -0.46184006333351135, 0.6495042443275452, 0.5258087515830994, 0.4770564138889313, -0.20757682621479034, 0.4625823199748993, -0.9585452079772949, 1.7045671939849854, 1.419979453086853, 0.09495851397514343, -0.48799172043800354, 0.7261772155761719, -0.9319478273391724, -0.8718891143798828, 0.45363426208496094, 0.3459012508392334, 0.848518967628479, -0.7525874376296997, 1.1913690567016602, 0.09115186333656311, -1.5909662246704102, -0.027118360623717308, 1.2460919618606567, 0.6424751281738281, -0.047891248017549515, -0.647229790687561, -0.8140076398849487, -0.3890652060508728, -1.13597571849823, -0.3532457649707794, -2.3065085411071777, -0.20395424962043762, 0.6685602068901062, -1.2822614908218384, -0.7359927892684937, 0.5279164910316467, -0.52259761095047, 1.4638569355010986, -1.2868918180465698, 0.6853673458099365, 1.0429801940917969, 1.96529221534729, -1.4032478332519531, -0.012685478664934635, -0.5187733173370361, 1.255434274673462, 0.17988650500774384, -0.13968797028064728, 0.6899017095565796, -0.9638485312461853, 0.03600366786122322, 0.24083632230758667, -1.5012763738632202, -0.7149558067321777, -2.126762628555298, -1.1807502508163452, -1.3129348754882812, -2.5667941570281982, -0.06347727030515671, 0.13253536820411682, -1.9266542196273804, 0.8539193272590637, -0.13408313691616058, -1.282929539680481, 0.03780364990234375, 0.7096128463745117, 0.6756148934364319, 0.7642406225204468, 0.1278512328863144, 0.512991189956665, -1.0407685041427612, 0.448485791683197, -1.1702114343643188, 0.8198426961898804, -0.0978068932890892, 1.095009684562683, 1.0229133367538452, 0.5397310256958008, -0.7647228837013245, -0.590737521648407, -0.10318559408187866, 0.6214459538459778, 1.8445940017700195, 0.3398909568786621, -0.5557951331138611, 0.5655050277709961, -0.05528254434466362, 0.8540631532669067, 1.1894739866256714, 0.42318588495254517, -1.184537410736084, 0.7199674844741821, 0.7042727470397949, 0.5057917237281799, 1.204850673675537, -0.4900680184364319, 0.7606944441795349, -0.33889833092689514, 1.3835493326187134, 0.41140761971473694, 0.7098760008811951, 0.22245365381240845, -0.982473611831665, -0.35945725440979004, -0.7463049292564392, 0.5179733633995056};


static float weights0_dram[16][3][3][8] = {-1.363769769668579, -0.46386733651161194, 0.766244113445282, -0.4292171895503998, -0.6227966547012329, -0.4125255346298218, 0.30340856313705444, 0.6092063784599304, 0.1929578185081482, 0.18237744271755219, 0.64540034532547, 1.010284185409546, -0.7891808748245239, -0.9769555926322937, -0.45007675886154175, -0.8032152652740479, -0.6103342771530151, -0.38666075468063354, 0.353316068649292, 0.6110401153564453, -0.167823925614357, -0.03363388776779175, 0.47390419244766235, -1.1209005117416382, 0.16323445737361908, -1.7906768321990967, -2.6474881172180176, 1.2208385467529297, 1.6433145999908447, 1.8594977855682373, 0.6503364443778992, 0.1956406533718109, 1.51017165184021, 0.09329313784837723, -1.4575366973876953, -0.6076440215110779, 2.0070879459381104, 2.6221468448638916, 1.1662380695343018, -0.7815181016921997, 0.21230429410934448, -1.9152568578720093, -0.9712379574775696, -1.7376028299331665, -1.2531019449234009, 0.36905255913734436, 0.01693599671125412, -1.7898789644241333, -0.7252011299133301, -0.6421752572059631, 0.25403109192848206, -0.12535162270069122, 1.118869423866272, 0.3802972435951233, 0.5325868129730225, -0.26157355308532715, -0.9527732729911804, 1.3438509702682495, -0.1790592074394226, -1.3658148050308228, 1.7732776403427124, 0.19898031651973724, -0.6035352349281311, -0.44025033712387085, 0.5216943025588989, -1.2922308444976807, 1.1992844343185425, 1.111746072769165, -2.071660280227661, -0.23609064519405365, -0.1742597371339798, 2.1848294734954834, -0.48009708523750305, 0.08526104688644409, 0.12711313366889954, 0.6661149263381958, 0.43104586005210876, 0.07110362499952316, 0.23202891647815704, 0.7756073474884033, -1.2871733903884888, 0.7481252551078796, 0.4403660297393799, -0.44026491045951843, 0.3683530390262604, 0.5633530616760254, 0.5064983367919922, 0.455719918012619, 0.7388824224472046, -0.16356196999549866, 0.6377718448638916, -2.3179564476013184, 0.7637977004051208, -0.5786357522010803, -1.2786966562271118, 0.2503303289413452, 0.03389474004507065, -0.9085567593574524, 0.15978877246379852, 1.294582724571228, 1.1792222261428833, -1.083811640739441, -0.03842746838927269, -1.3610970973968506, -0.31229403614997864, 0.3129958212375641, 1.7697970867156982, 0.22267311811447144, -0.4137862026691437, -0.3889259994029999, 1.9138009548187256, 1.8018341064453125, -0.2541753351688385, 0.8050477504730225, 0.6268176436424255, -0.8483412265777588, 0.5184088349342346, 0.8126105666160583, 0.3378446102142334, -0.07434194535017014, -1.205536127090454, -1.1133604049682617, -1.8736529350280762, 1.6489421129226685, -0.7015367746353149, 1.4981187582015991, 0.12505611777305603, -0.15664155781269073, -0.9542103409767151, 0.4981626570224762, 2.3259060382843018, 1.6005686521530151, -0.4323408901691437, 0.043896086513996124, -0.7621514797210693, -0.8708454966545105, 0.061276569962501526, -1.1999552249908447, -0.9203909635543823, -0.07858924567699432, 0.1414770483970642, 1.4443233013153076, -1.190559983253479, -0.6410972476005554, -0.414562851190567, -0.09247277677059174, 0.1387282907962799, -1.71055006980896, 0.43200522661209106, 3.0250484943389893, -0.4809381365776062, 1.2751853466033936, -0.6902380585670471, -1.01665461063385, -1.1797568798065186, 0.8384853601455688, -0.30918216705322266, 1.3462589979171753, -0.9903622269630432, 0.9594927430152893, -0.22995619475841522, -0.007675689645111561, -0.5297411680221558, -0.2698453664779663, -0.09658124297857285, 0.8556069731712341, -1.3641812801361084, 0.10350999981164932, -2.172283887863159, -0.518220841884613, 0.9625157713890076, 0.12306158244609833, 1.541925072669983, 0.3220294117927551, 0.008205652236938477, 0.8290349841117859, 0.08768323808908463, 0.83954256772995, 0.2794382870197296, 0.8757511377334595, -0.108744777739048, 0.44605663418769836, -0.40586018562316895, 2.0921294689178467, 1.0937845706939697, 0.05852266773581505, -0.5718191266059875, 0.15132997930049896, -0.4189043343067169, 1.5229592323303223, -0.7110859751701355, 0.7953095436096191, -0.1177205815911293, -1.6682480573654175, -2.7936289310455322, 0.739393413066864, 1.4384385347366333, 1.2804899215698242, -0.3495793640613556, 0.2792847752571106, -0.29864323139190674, 2.129624843597412, -0.7111545205116272, 0.27310314774513245, -0.7068426609039307, -0.11616043001413345, 0.3797488212585449, 0.1864478439092636, -0.9536206126213074, -1.5181471109390259, 0.5235219597816467, 2.7312309741973877, -1.2519514560699463, 1.3705363273620605, 0.9993040561676025, 0.3547132909297943, 0.09063850343227386, -0.07724537700414658, -1.3614802360534668, 0.3062905967235565, 0.0696544423699379, -0.25973787903785706, -0.7668924331665039, 1.9025356769561768, 1.7422553300857544, 0.9856945276260376, 1.9562491178512573, 1.182044506072998, -1.6034338474273682, -0.7190185785293579, -0.9494866728782654, -0.7346699833869934, -1.2660012245178223, 1.2783364057540894, 1.7684898376464844, 0.32602694630622864, -0.42982181906700134, -0.38583096861839294, 0.01691739819943905, 0.044657133519649506, 0.38916081190109253, 0.28815189003944397, -0.9857985377311707, -0.3894469738006592, 0.5761587619781494, 0.5233525037765503, 0.08027740567922592, -1.5211198329925537, 0.34287506341934204, 0.869049608707428, -1.2370758056640625, 2.8543806076049805, 0.34436315298080444, -0.8211768269538879, 0.7448412775993347, 0.3478375971317291, -1.4590637683868408, -0.8097057938575745, -2.301875114440918, 0.8243650794029236, -3.1016058921813965, -0.47086891531944275, 1.345484972000122, 0.7401772737503052, -1.4936561584472656, -1.4298604726791382, -0.0010087001137435436, 0.7983470559120178, -1.4587225914001465, 0.6016423106193542, 0.12682189047336578, 1.4161995649337769, -0.22138521075248718, 0.45901596546173096, -0.8494256734848022, 1.8890222311019897, -1.4318257570266724, -0.28251126408576965, -2.4520716667175293, 0.6833979487419128, 0.22523505985736847, 0.5309328436851501, -1.6593921184539795, 0.5934628248214722, -0.6071268916130066, 0.7692679762840271, 0.4159761369228363, -0.13825182616710663, 0.9212995171546936, 1.4558700323104858, 0.29731303453445435, 1.919209361076355, -0.3488781750202179, 1.0082393884658813, 0.7201864719390869, 1.6704555749893188, 0.5282443761825562, 0.3316534161567688, 0.4344584047794342, -1.6514869928359985, -0.45791950821876526, -0.595004141330719, -0.13413065671920776, -0.545271098613739, -0.008228386752307415, -1.00010085105896, 0.0033933203667402267, 2.1477253437042236, -1.2322070598602295, 0.3926331400871277, -1.4067999124526978, -2.15816330909729, -1.4493319988250732, -0.6919524669647217, -1.0240145921707153, -0.6604134440422058, -0.598077118396759, 0.8229668736457825, -2.3609628677368164, -1.6607975959777832, -0.605182409286499, -0.47199076414108276, 0.22404761612415314, 0.11352583765983582, -0.28154700994491577, -0.886031985282898, -0.2904934287071228, -0.6637441515922546, -0.17924511432647705, -1.2894343137741089, -0.7554785013198853, -0.22056575119495392, 0.05281926319003105, 1.4801039695739746, -0.13345853984355927, 0.3657907545566559, 0.19955870509147644, 1.0762810707092285, 1.3675810098648071, 0.7118127346038818, 0.42497751116752625, 0.8391514420509338, -0.15693345665931702, -0.39920157194137573, -1.2461947202682495, -1.0667427778244019, -0.3197358250617981, 0.3415871560573578, 0.4825834333896637, -0.20004984736442566, 1.138344645500183, 0.49674081802368164, -0.41459938883781433, -1.9893426895141602, -0.9130924344062805, 1.5885895490646362, 0.48813387751579285, 0.9949536919593811, -0.2505214214324951, -2.369169235229492, -0.5614708065986633, -1.3143675327301025, 0.03610055148601532, -0.8225308656692505, 0.5099347233772278, -0.8680985569953918, 0.8691263794898987, -0.40709349513053894, -0.5949130654335022, -1.31621515750885, 1.3406710624694824, -2.3908050060272217, 1.670624852180481, -0.5701602697372437, -0.9609367251396179, 0.8702965974807739, 1.2687278985977173, -1.2524477243423462, 0.9199973940849304, 0.322247713804245, 1.5921050310134888, 0.32332202792167664, 0.05182264745235443, -1.0552809238433838, 1.2904434204101562, -1.5844100713729858, -0.3787555396556854, 1.875388741493225, -0.41619211435317993, 1.1284750699996948, -0.3284812867641449, -1.3284013271331787, -1.1755682229995728, -2.5446670055389404, -1.5597758293151855, 1.1042989492416382, 1.861944556236267, -1.2123126983642578, -2.247206211090088, 0.7060741186141968, -0.0783226415514946, 1.3719074726104736, -0.8009540438652039, -0.5223758816719055, -1.077892780303955, 2.602391004562378, -0.4478967487812042, 0.35730111598968506, -0.9705761075019836, -0.5379461050033569, -0.7111086845397949, -0.7401803731918335, 0.8848565220832825, -0.09572362899780273, 0.4234687089920044, 0.5892837643623352, 1.4723693132400513, 0.7378400564193726, -0.3866667151451111, 0.16235657036304474, -0.8342104554176331, -0.08114803582429886, -0.3874586224555969, 0.9187757968902588, 1.4108561277389526, -0.8505349159240723, 0.9578314423561096, -0.2369976043701172, 1.0300744771957397, 1.2586976289749146, -0.22963792085647583, 0.6662830114364624, 0.24650610983371735, -1.3615714311599731, -0.16066236793994904, -0.9419456720352173, -0.3875778615474701, 0.540465772151947, -0.5522539615631104, 0.22690092027187347, 0.1328691989183426, -0.5193602442741394, -0.32063713669776917, -0.7089186310768127, -0.7124031782150269, 0.4350730776786804, -0.09342008084058762, 0.4927920699119568, 0.12191462516784668, 0.07648162543773651, -0.6307737827301025, 2.1860759258270264, -1.6171332597732544, -2.2717032432556152, -1.0284309387207031, -0.5128253102302551, 0.47808775305747986, 0.34005025029182434, -0.788766622543335, -0.6493158936500549, -0.35899198055267334, -0.13386189937591553, 0.40444278717041016, 0.3006223440170288, 0.2761341631412506, 1.4557304382324219, 1.3061575889587402, 0.45214036107063293, 0.051366694271564484, -0.058557309210300446, 2.1425962448120117, 0.07734657824039459, -0.5895728468894958, -0.3461014926433563, -0.9275763630867004, 0.8520749807357788, 0.6950237154960632, 0.12574470043182373, -0.5153723955154419, 0.6477669477462769, 0.569182813167572, -0.2633814215660095, -0.26273947954177856, -1.6946725845336914, 1.835181474685669, -0.5525766611099243, 1.0827196836471558, -0.4324244260787964, -0.7911050319671631, -0.447700172662735, 0.9314952492713928, 1.1805996894836426, -1.9180361032485962, 0.07448001205921173, 1.2498642206192017, 1.1740480661392212, -0.19896702468395233, -0.7288169264793396, -0.4593467116355896, -2.8929238319396973, -1.3923954963684082, -0.1492866724729538, 0.9821351766586304, 0.7011352777481079, 0.6674330234527588, 0.962885856628418, -0.016383398324251175, -1.2203160524368286, 0.7894347310066223, 1.3447729349136353, -1.7659958600997925, 0.2491273283958435, -0.8035953640937805, -1.5785412788391113, -0.10749480873346329, 0.2909986078739166, 0.7824702858924866, 1.4614392518997192, -2.5379507541656494, 1.1900452375411987, -1.3776048421859741, 0.6715953946113586, -1.3085604906082153, -0.07964225858449936, -0.06465863436460495, 1.0566132068634033, 0.09694309532642365, 1.410936951637268, -0.4410470724105835, -0.060151856392621994, 0.659813642501831, 1.3200364112854004, -0.0002302070497535169, 0.8155362606048584, -0.7912065982818604, 0.7980097532272339, 0.1417587399482727, 0.06978437304496765, -0.07032525539398193, -1.5196866989135742, 0.6830949187278748, -0.8240620493888855, 0.37119555473327637, 0.49413225054740906, 1.1084681749343872, -1.6634936332702637, 0.27448296546936035, -0.29335519671440125, 0.1063748151063919, 0.8932762742042542, 1.5117958784103394, -0.18495284020900726, 0.5544233322143555, -0.7650561332702637, -0.3450125455856323, 2.106604814529419, 0.3503226041793823, -0.386881560087204, -0.8914596438407898, -1.0380902290344238, 1.5817502737045288, 1.2306435108184814, -0.11961783468723297, -0.10875027626752853, 0.12109924107789993, -0.35717684030532837, 0.5247467160224915, -0.10130416601896286, -1.2247875928878784, 0.4252126216888428, 1.1861584186553955, 0.608341634273529, 0.2984321117401123, -1.1568186283111572, 0.3517809212207794, -0.9271824359893799, 0.23484112322330475, -0.05628490820527077, -0.9166569709777832, -1.1809622049331665, -1.8900177478790283, 0.04061844199895859, 1.2222594022750854, -0.24771355092525482, 0.08861476927995682, -1.4897207021713257, -0.7793720364570618, 0.9626035690307617, 0.19431965053081512, -0.06464217603206635, 0.32681646943092346, -1.407819390296936, -0.3476867079734802, -1.5194628238677979, -0.41753849387168884, -1.1049346923828125, 1.6020095348358154, 3.445625066757202, -0.10487240552902222, -0.0801108106970787, 0.8490674495697021, 0.32580918073654175, 1.1059718132019043, -0.7909473180770874, -1.0371782779693604, -1.1129159927368164, 2.476804733276367, 0.5194124579429626, 0.2014705091714859, -1.458429217338562, 0.2528532147407532, -0.21609316766262054, -0.7486876249313354, -0.4341987073421478, 0.5769069790840149, 1.170888900756836, 0.3839779198169708, 1.8989076614379883, -0.10754015296697617, 0.0019485306693241, -0.3844030499458313, -0.015211731195449829, 0.14730526506900787, 2.1779797077178955, 1.2309634685516357, -0.04056643322110176, 0.7705280780792236, -0.20979070663452148, 0.14350247383117676, 0.5427215099334717, -1.3136197328567505, 1.7791979312896729, 1.2286686897277832, -0.2933650016784668, -1.1304327249526978, 1.2010222673416138, -0.0812682956457138, 0.12508316338062286, -0.6061143279075623, 0.25832492113113403, 0.7042104005813599, 1.397810459136963, 0.996456503868103, 0.675596296787262, 1.1261653900146484, -0.8761705756187439, 0.6449755430221558, -2.4340736865997314, -0.3497500419616699, -0.3067088723182678, -0.7419731020927429, 0.8142848610877991, 1.2983627319335938, 0.48434850573539734, 1.5684525966644287, -0.5304896831512451, -1.338055968284607, 0.8642276525497437, 0.15562251210212708, 0.19737061858177185, 1.7561308145523071, -0.030398759990930557, -0.283514142036438, -2.0363707542419434, -0.4389103353023529, -1.0658658742904663, -0.25843867659568787, -0.6367602348327637, 0.21129246056079865, 1.0925219058990479, -0.09603477269411087, 0.5246880650520325, -0.5850174427032471, -1.0129939317703247, -0.7501540780067444, -0.8768263459205627, 1.4860185384750366, -0.5064011812210083, 1.0644340515136719, -0.6970252990722656, 1.8071491718292236, -0.9939178228378296, 1.2354754209518433, -1.5509816408157349, 0.5585124492645264, -0.8441710472106934, 1.4888246059417725, -0.08793152123689651, -0.7326241135597229, 2.9082677364349365, 1.0141247510910034, -0.7881835699081421, 0.3491472005844116, -0.22143854200839996, 0.8825610876083374, -0.27431318163871765, 0.4093967378139496, 1.4483332633972168, 1.01323664188385, 0.5684375166893005, 0.8483667373657227, 2.274590015411377, -0.23840203881263733, 1.2922906875610352, -0.5840954780578613, -0.5614521503448486, 0.6346396803855896, 0.7622402906417847, 2.0354838371276855, -0.783242404460907, 0.5468734502792358, -1.4458993673324585, 0.10613418370485306, -0.9464563131332397, 0.8768793344497681, 0.5568539500236511, 0.3772087097167969, -0.26778313517570496, -0.06058019772171974, -0.31466683745384216, 0.11260014772415161, 0.1686755269765854, -0.7691330313682556, 0.04228341206908226, 0.9574744701385498, -0.11727923899888992, 1.1258721351623535, -0.16959930956363678, -1.4679176807403564, -1.1421011686325073, 0.0793362557888031, -0.6900910139083862, 0.019129564985632896, -0.630508303642273, 0.25538599491119385, 0.02781728096306324, -1.716816782951355, 0.6069639921188354, -0.7584667801856995, -0.5621538162231445, -1.0700304508209229, -1.265464186668396, -0.4588965177536011, 0.0910743772983551, -0.5502451658248901, -0.8331825137138367, 0.941990315914154, 0.825295627117157, -0.7518913149833679, -0.294853538274765, -0.9283785820007324, 0.6718529462814331, 0.535078763961792, -0.47921040654182434, 0.43399056792259216, 2.268347978591919, 2.4400694370269775, -0.2798626720905304, -0.17175325751304626, 0.9851812124252319, -1.3392163515090942, 0.2998451292514801, 1.1234275102615356, -1.7732727527618408, -1.912861704826355, 1.0837124586105347, -0.6866653561592102, -0.7609738707542419, 1.2357676029205322, 0.721377432346344, 0.5057575702667236, -0.9907275438308716, 0.31076598167419434, 0.17298388481140137, -0.1326882690191269, -1.2726119756698608, -2.0370566844940186, -0.6184468865394592, -1.137097716331482, 0.634861409664154, -1.4762635231018066, 0.5123522281646729, 1.6295740604400635, -0.6267421841621399, 1.4171453714370728, 0.545662522315979, -0.758182168006897, 1.0238486528396606, -0.47829392552375793, -0.9818529486656189, -1.5456795692443848, 1.3712586164474487, 0.23598231375217438, -0.937210738658905, -0.7234253287315369, -0.39082857966423035, 1.730208158493042, 0.6328914165496826, -0.4921732246875763, -0.243259459733963, -0.446566104888916, -2.330476999282837, -0.3627345860004425, -1.9291036128997803, 2.056168794631958, -1.048923373222351, 0.658042311668396, -0.29366371035575867, -1.1778020858764648, -0.7808834314346313, 0.4424906373023987, 0.03497670218348503, -0.23472319543361664, -0.5224623084068298, 0.5361921191215515, -0.6286743879318237, 1.4125137329101562, 0.8250064849853516, 0.19418247044086456, -0.4833625555038452, -1.345624327659607, -1.1338030099868774, 1.2350000143051147, -0.04226749762892723, -0.02316661737859249, 1.2206652164459229, -0.4999869465827942, -1.2260730266571045, -0.5165784358978271, -0.14128278195858002, -0.21214154362678528, -0.27004849910736084, -0.011093219742178917, -0.06297583878040314, -0.5500510334968567, -0.33963847160339355, -0.6881742477416992, -0.6456266641616821, 1.387345790863037, 1.4387904405593872, -0.9952824711799622, 1.1463638544082642, 0.023851748555898666, 0.007326157763600349, 0.4755038022994995, 0.4101375937461853, -0.8248465657234192, 0.03258634731173515, -0.29935362935066223, 1.2215378284454346, -1.5203826427459717, -0.052180398255586624, -1.4316335916519165, 0.32671934366226196, 0.3544987440109253, -0.5479734539985657, 0.7670295834541321, -0.31372663378715515, 0.5293999314308167, 1.167490005493164, 0.1427735835313797, -0.8344282507896423, -0.28073710203170776, -0.49368005990982056, 2.8818862438201904, 0.15282166004180908, -0.18842656910419464, -0.18522614240646362, -0.8951197266578674, -0.539470374584198, 2.0288591384887695, -1.5796416997909546, -1.1672022342681885, 0.7250988483428955, -1.2726235389709473, 1.0595130920410156, 0.5340191125869751, 0.09215065091848373, -0.7683921456336975, 0.6386357545852661, 1.9413354396820068, -1.3895257711410522, 0.5764585137367249, 1.2978315353393555, -0.88661128282547, 0.8539144992828369, -1.2262547016143799, -0.4361383616924286, -1.163609266281128, 1.1874427795410156, -0.35594069957733154, 0.3285580277442932, 0.7963698506355286, -1.0331605672836304, -0.11334973573684692, -1.0022987127304077, -1.5966553688049316, 0.027558235451579094, -0.5188538432121277, 0.14869070053100586, 0.6588250994682312, 0.5837976336479187, 0.30849045515060425, 0.3780289888381958, 0.08320564776659012, 2.0010547637939453, -0.3927396237850189, 0.2704370319843292, -0.2966694235801697, 1.0166347026824951, -0.4410642385482788, 0.04276036471128464, -0.9222075343132019, -0.12460697442293167, 1.7511601448059082, -1.1818499565124512, 0.23320063948631287, -0.794191300868988, -0.77969890832901, 0.5858650803565979, -0.3711417317390442, -1.156516194343567, 0.19589348137378693, -1.0340323448181152, -1.3473118543624878, 0.36742645502090454, -0.756567120552063, -1.3687634468078613, -0.9714295268058777, 0.9009959697723389, 1.7757917642593384, -0.4947497546672821, -0.8231000304222107, 0.42930465936660767, 1.514818549156189, 1.1168509721755981, 0.27692535519599915, 0.07418181002140045, -1.198473572731018, 0.6246524453163147, 0.6738032102584839, -0.5719326138496399, -0.325872004032135, -1.9369032382965088, 1.0580254793167114, 1.757521390914917, 0.37665531039237976, -0.7939775586128235, 1.4665507078170776, -0.46663370728492737, 0.3189202845096588, -1.5334482192993164, -0.05147926136851311, -0.6254484057426453, -0.251127690076828, -0.674835205078125, -1.1077474355697632, 0.1017654687166214, -0.10977188497781754, -0.17965702712535858, 0.17128385603427887, 0.20935998857021332, -0.527733564376831, -0.3876877427101135, -0.7443782091140747, 0.38033702969551086, 0.0964970588684082, -0.6577823162078857, -0.21165163815021515, 1.505028486251831, -0.47698524594306946, 0.44965043663978577, 1.0188977718353271, -1.962886095046997, -1.4932167530059814, -1.2317392826080322, -0.1787608563899994, -1.1346086263656616, -0.5625298023223877, 0.3726101517677307, -1.8317182064056396, -0.7805798053741455, 0.5237964987754822, -1.2463988065719604, -0.8498311638832092, -0.7111839056015015, -1.0562596321105957, -1.9104946851730347, 0.2806217670440674, -0.1343953162431717, 0.7530690431594849, -1.4996418952941895, 1.166976809501648, 1.3401062488555908, 0.24130821228027344, 0.26085028052330017, 0.6909231543540955, -0.3609391152858734, -0.2219216674566269, -0.5403968691825867, -0.34847185015678406, 1.5108956098556519, 0.18275369703769684, 1.4177610874176025, 0.7183824777603149, 0.104627326130867, 0.5819101333618164, 1.2409895658493042, -1.6212294101715088, 1.0457415580749512, -0.20516234636306763, -0.467404842376709, -0.8665743470191956, 0.4133651852607727, 1.2366944551467896, -0.7066188454627991, -0.9035959839820862, -1.1297553777694702, -0.7811664342880249, 0.551419734954834, -0.30639445781707764, 0.0061524491757154465, -0.8143561482429504, -0.8558416366577148, 1.3967915773391724, -2.800556182861328, 0.6872723698616028, 2.654942035675049, -0.5359372496604919, -0.5672794580459595, 1.146209955215454, 0.9040606021881104, 0.9178156852722168, 1.2796905040740967, 0.7835897207260132, 1.0582451820373535, -0.35750812292099, -0.17038141191005707, -1.178733229637146, -0.5659265518188477, 0.5120382905006409, 0.2199985533952713, -1.1108732223510742, -0.1468161642551422, -1.2398927211761475, -0.3027929663658142, -0.036672789603471756, 0.3840969204902649, -0.8405776023864746, 0.3249095380306244, -3.106328010559082, -0.8913255929946899, -1.523536205291748, -1.2868070602416992, 0.6718097925186157, -0.7815778851509094, -1.0445209741592407, 1.319007396697998, -0.9897713661193848, 0.1937909871339798, -0.8158796429634094, -1.3662828207015991, 0.9242297410964966, -0.15094131231307983, 0.5547724366188049, -0.8496796488761902, -0.6022037863731384, 1.9681813716888428, 1.1372771263122559, -0.04625223949551582, 0.26971569657325745, 0.4199317395687103, -0.9492565989494324, -0.6987038254737854, -0.7153372168540955, -0.7403607368469238, 0.21925963461399078, -0.6149584650993347, 0.628537118434906, 1.4059346914291382, -0.8270853161811829, 0.45643651485443115, -0.059470854699611664, 0.9804211258888245, -0.4726978540420532, -0.018692156299948692, -0.7642602920532227, -0.22924941778182983, 1.560778021812439, -0.3147018849849701, -0.9928666353225708, -0.17533333599567413, -0.958824634552002, 1.6560721397399902, 0.9183834791183472, -1.2403943538665771, -1.0952261686325073, -0.41328999400138855, 1.1634254455566406, -0.12276917695999146, -1.5123530626296997, 1.0661178827285767, 0.40576910972595215, 0.24919238686561584, 1.1855055093765259, 0.3946205973625183, 1.609459400177002, 0.7414069175720215, 1.5067633390426636, -0.18189188838005066, 0.25104597210884094, -1.1415528059005737, 1.1880545616149902, 1.1304746866226196, -0.29416555166244507, 0.35395190119743347, -0.938051164150238, -1.2379671335220337, 0.1281542032957077, 0.7821402549743652, 2.055619716644287, 0.8258382678031921, 1.0819309949874878, -0.5345798134803772, -0.638506293296814, 0.514220118522644, -0.19802889227867126, 0.010817415080964565, 0.6602651476860046, 0.9458276629447937, 0.8866236805915833, 0.645367443561554, 0.21946865320205688, -0.15104348957538605, -1.478035569190979, 0.3816293179988861, -1.1078379154205322, -0.15447334945201874, -0.8611426949501038, -2.9890658855438232, -0.439242959022522, 0.13773603737354279, -0.5910253524780273, -1.652677059173584, -0.2919580638408661, -1.6013476848602295, -0.27264782786369324, 0.18370741605758667, -0.1391070932149887, 1.2250828742980957, 0.8357481956481934, -0.38139888644218445};


static float ofmap_dram[8][8][16] = {-2.298935890197754, 11.470074653625488, 2.831167459487915, 4.172638893127441, -0.5278293490409851, -8.58867073059082, 1.756615400314331, -8.434776306152344, 1.345197081565857, 1.4564436674118042, 9.227972984313965, 2.635359525680542, -8.578571319580078, -3.4304442405700684, -11.653970718383789, 2.6547744274139404, -14.502983093261719, 9.288494110107422, -9.327325820922852, 20.075265884399414, -10.955878257751465, 7.661066055297852, -6.831470489501953, 2.4691238403320312, 17.828767776489258, 3.0607211589813232, -5.900076866149902, 5.419261932373047, 0.9843781590461731, 0.7977771759033203, 17.239337921142578, 7.949195861816406, -1.546676754951477, -12.604255676269531, -2.884187936782837, 11.823301315307617, -7.526158809661865, -18.89992332458496, -4.651690483093262, 1.312987208366394, 7.138312339782715, 1.846650242805481, -3.9654431343078613, 11.00143814086914, -0.1460854411125183, -0.7302442193031311, 14.62756061553955, 11.7710542678833, -5.2450032234191895, -0.5166909694671631, -3.0651695728302, 2.519465684890747, 2.945535659790039, 7.042820453643799, 0.6872506737709045, 4.544739246368408, -6.217375755310059, -12.493499755859375, -6.1429972648620605, 6.790265083312988, 4.444762706756592, 14.55383586883545, 13.210916519165039, 5.497278690338135, 2.3012897968292236, -1.6260452270507812, -3.1319072246551514, -13.086477279663086, 9.024812698364258, -15.27078628540039, 0.4313347041606903, -3.3138082027435303, -1.95835280418396, 8.744731903076172, -3.1525771617889404, 2.463444709777832, 2.106518030166626, -1.3062446117401123, -2.9899871349334717, -6.700626850128174, 2.5815136432647705, 4.949514389038086, 2.0768566131591797, -1.8770407438278198, 11.047187805175781, -5.056541919708252, 4.700012683868408, -5.938364028930664, -4.405134201049805, 2.5304605960845947, 0.27437683939933777, 3.241591453552246, -7.150142669677734, 1.8120481967926025, -5.2182159423828125, -5.246071815490723, -13.417112350463867, 5.046690464019775, 1.9049931764602661, 4.213963031768799, 6.007295608520508, 4.26182222366333, -0.43885356187820435, -5.427159309387207, -0.01060527190566063, 5.463537693023682, 9.354337692260742, -3.3560993671417236, 12.352350234985352, -8.33322811126709, -1.9820057153701782, 1.6040576696395874, -7.253017425537109, 12.568085670471191, 5.925014495849609, 8.305490493774414, 0.2371934950351715, 4.48940372467041, -1.306997299194336, 5.9766459465026855, -6.434205055236816, -13.934678077697754, 2.6749651432037354, -7.311127185821533, -1.0542930364608765, 2.6945745944976807, 1.6592060327529907, -5.937945365905762, -14.31757926940918, 1.078812837600708, 1.2701224088668823, 5.004670143127441, -6.247405052185059, 2.8105149269104004, -2.0480945110321045, -11.325007438659668, 4.8660888671875, -14.243402481079102, -14.382974624633789, -14.534322738647461, 0.02687186561524868, -3.995690107345581, -11.793898582458496, 6.358517646789551, 2.8983819484710693, -11.623702049255371, -0.588392436504364, -2.994266986846924, 9.821784973144531, -7.109562397003174, -2.3579111099243164, -9.078392028808594, -14.848336219787598, -10.635986328125, 1.0810586214065552, -13.203479766845703, 5.339264869689941, 5.242247104644775, -3.3205976486206055, 0.15700212121009827, -0.493512898683548, -3.570958137512207, -14.844240188598633, 6.630392074584961, 1.3592857122421265, -5.449010372161865, 7.33119010925293, 4.038906574249268, -15.773447036743164, -8.574017524719238, 12.395703315734863, -5.71293306350708, 9.791032791137695, 4.0762128829956055, -5.505903244018555, 11.693622589111328, -9.979567527770996, 9.814984321594238, -9.949953079223633, 0.8917443752288818, 5.83344841003418, -17.57976531982422, -3.8949782848358154, -2.843684196472168, 2.334132671356201, 6.905129432678223, -9.832015991210938, -7.877237319946289, 22.139680862426758, 1.3782329559326172, -2.7447898387908936, -1.9873123168945312, 8.643285751342773, -4.240512847900391, -5.414347171783447, 3.291027545928955, -0.6107662320137024, -9.317517280578613, 5.832376003265381, -14.791601181030273, 2.598587989807129, -4.854942321777344, 11.857842445373535, -3.962800979614258, 0.24230045080184937, 1.5597885847091675, -9.096110343933105, 5.272598743438721, 2.01159405708313, -5.522857666015625, -3.2423489093780518, 16.61347007751465, 6.471399784088135, 7.6222076416015625, 0.1333780288696289, -0.9152648448944092, 7.7010931968688965, -4.308382034301758, -0.1476062685251236, -4.1511616706848145, 3.0513148307800293, 10.129353523254395, 9.710444450378418, -16.642698287963867, -7.696276664733887, -7.8344221115112305, -7.61632776260376, 1.0312144756317139, -0.7851778864860535, 8.035154342651367, -11.348304748535156, 9.37399959564209, 4.832956314086914, -2.939210891723633, -8.595088958740234, -2.5090057849884033, -16.398277282714844, -10.671645164489746, 0.7563992738723755, 8.16057300567627, 6.102202892303467, 4.214101791381836, -0.24438312649726868, -14.703740119934082, -1.5506951808929443, 7.158749103546143, -1.4256103038787842, 6.3136444091796875, -7.1331658363342285, 4.649148941040039, 5.2961931228637695, -5.760913848876953, 4.041447162628174, 1.8695950508117676, -5.857605457305908, 0.39678171277046204, 7.855091094970703, 4.143645763397217, 9.038727760314941, -12.854104042053223, 6.698368072509766, 5.03411865234375, -6.220593452453613, 4.280807971954346, -4.247203826904297, 0.5174093246459961, -4.165446758270264, -9.229570388793945, 1.7651395797729492, -8.99399471282959, 0.5456111431121826, -0.8282511830329895, 13.09823989868164, -8.972844123840332, -8.895217895507812, 1.2188411951065063, 0.04849044233560562, -1.9170594215393066, 8.589160919189453, 4.772477149963379, -3.8432657718658447, -5.96381139755249, -3.7739298343658447, -15.868042945861816, -18.322423934936523, 2.60212779045105, -1.1620503664016724, -9.717672348022461, -10.788651466369629, -4.940947532653809, 3.219540596008301, -17.454578399658203, 14.367755889892578, -10.409619331359863, -17.20755958557129, 8.49145221710205, 6.2992048263549805, 9.47171401977539, -2.8399646282196045, 6.483102321624756, -5.040943145751953, -5.5148091316223145, -24.269176483154297, 14.896058082580566, -5.015881061553955, 6.538990497589111, -3.924644947052002, -6.262882232666016, -5.104485034942627, 14.10367488861084, 3.550103187561035, -6.005727767944336, -6.403115749359131, 5.727649688720703, 12.870156288146973, -2.031137228012085, -16.118621826171875, 11.949610710144043, 3.3265721797943115, -16.56178092956543, -1.1773382425308228, -7.920029640197754, -4.115126609802246, -4.79562520980835, 5.295481204986572, 2.092686414718628, 4.8259453773498535, -8.588164329528809, 6.9669084548950195, 2.847553014755249, 5.269345760345459, 2.8532793521881104, -2.306131362915039, -11.258219718933105, 12.831255912780762, 2.6376070976257324, 4.450774192810059, 0.16628767549991608, 16.83352279663086, 5.357503414154053, -1.9774751663208008, -1.01945161819458, 2.3590502738952637, -2.8271162509918213, 1.8699032068252563, 9.773918151855469, -1.427852749824524, -2.0103201866149902, -1.7620680332183838, 5.028213024139404, 17.138906478881836, -1.447165608406067, 15.763187408447266, -13.064456939697266, 7.0692572593688965, 0.14228153228759766, -7.871366024017334, 3.6854777336120605, -3.754559278488159, 7.812695503234863, 11.878480911254883, -1.2888048887252808, 2.2276971340179443, 7.629723072052002, -5.586630821228027, 1.8460121154785156, 12.670833587646484, 2.65922212600708, 3.277277946472168, 3.6561319828033447, -8.815342903137207, -0.6716489195823669, -7.957296848297119, -2.700552463531494, 2.121635913848877, -3.001699447631836, 3.1874728202819824, 10.893046379089355, -16.33238410949707, 4.616673946380615, -4.686842918395996, -0.18315322697162628, 6.221305847167969, 3.7840168476104736, 5.809987545013428, -3.2160515785217285, 7.228424549102783, -10.32685661315918, 9.684494972229004, -8.826363563537598, 2.634063243865967, -3.640711784362793, -3.9954190254211426, -3.8506722450256348, 2.9539718627929688, -8.217286109924316, -1.7786730527877808, -9.744239807128906, -14.994061470031738, 6.349334716796875, 10.467901229858398, 10.048870086669922, 16.909868240356445, 23.520523071289062, -1.0618363618850708, 12.041434288024902, 6.610386848449707, 3.0792882442474365, 5.406891345977783, -6.455268383026123, 0.6891822814941406, 4.196010112762451, 3.4601950645446777, 5.845761775970459, 1.5036569833755493, -3.6469292640686035, 5.064114570617676, 10.465885162353516, 0.9871393442153931, -0.33141130208969116, -7.072494983673096, 8.347241401672363, -5.428732395172119, 16.849651336669922, -1.7313318252563477, 2.2458865642547607, -6.350673675537109, -2.7988975048065186, -5.57494592666626, -21.420421600341797, -4.831448554992676, 13.07003116607666, 9.781142234802246, -8.829237937927246, 1.105451226234436, 10.964348793029785, -1.2479395866394043, -3.053286075592041, 12.302254676818848, 3.1253678798675537, 9.02947998046875, -7.900852203369141, -7.703360557556152, 3.9219419956207275, -11.508299827575684, -7.285157203674316, -7.493519306182861, -1.90613853931427, -2.2937934398651123, -1.0878751277923584, 0.8427584171295166, -4.288426876068115, -14.596442222595215, 6.031970500946045, 0.832700788974762, 3.508126974105835, 1.904221534729004, -16.15914535522461, 0.3861497938632965, -4.411860466003418, 0.6017499566078186, -8.697515487670898, 3.1441397666931152, 2.8843517303466797, 4.986461162567139, -5.370872974395752, 4.312552452087402, 3.568497896194458, 0.2958204448223114, 5.7100749015808105, -2.913618803024292, -1.627778172492981, 10.360136985778809, -0.6502052545547485, -0.17534463107585907, -4.669370174407959, -2.194849967956543, -8.847061157226562, -11.047760009765625, -13.085983276367188, -5.562582969665527, 17.03034782409668, 11.493670463562012, 5.709023952484131, 2.9062387943267822, -2.2735581398010254, -15.821608543395996, -4.8248291015625, -0.8035774230957031, 0.41932618618011475, -1.6199244260787964, 0.40037980675697327, 0.05526537075638771, 13.016729354858398, -14.232075691223145, 7.787147045135498, -5.167259216308594, -0.8488256931304932, -11.696255683898926, 6.934326171875, 2.355238676071167, -7.706151962280273, 2.113318920135498, -3.6798434257507324, -3.4598612785339355, 0.4083526134490967, 11.462499618530273, 7.167057991027832, -1.335216999053955, 10.608232498168945, 3.6598689556121826, 2.490976572036743, -1.226989984512329, -0.24885539710521698, -3.2271182537078857, 1.9482498168945312, 4.646718502044678, 23.099609375, -12.701144218444824, -12.828202247619629, 16.421388626098633, 5.997674465179443, -3.2124836444854736, -6.3325886726379395, 12.18493366241455, -1.0595847368240356, -2.1493401527404785, 1.300989031791687, -0.133920818567276, 11.072524070739746, 16.40480613708496, -8.615862846374512, -15.572781562805176, 13.952423095703125, -5.766803741455078, 7.884598255157471, 2.3846561908721924, 8.10520076751709, -10.059342384338379, -5.377481460571289, 9.186490058898926, 7.669577121734619, -10.417729377746582, -9.22228717803955, -4.572059154510498, -8.021419525146484, -6.075234889984131, -17.064651489257812, 12.481139183044434, -1.1412639617919922, -5.1084675788879395, 5.961733341217041, -9.842206001281738, -2.0897045135498047, -6.57509183883667, 10.449264526367188, -0.933723509311676, -1.7621593475341797, -5.175931453704834, 12.262380599975586, -0.084961898624897, -11.616568565368652, -7.970283508300781, -9.258865356445312, -6.561371803283691, -13.137506484985352, 0.5150752067565918, 3.565657138824463, 8.341181755065918, 16.54019546508789, -1.0138859748840332, -0.5202329158782959, 4.856831073760986, 11.00475025177002, 6.357501983642578, 6.664091110229492, -11.168681144714355, -4.9583964347839355, -2.529019594192505, -19.353498458862305, -9.620741844177246, -2.678351640701294, 2.0972065925598145, 1.0804165601730347, 3.2904505729675293, 1.776300072669983, 9.948719024658203, 15.685833930969238, 6.516843795776367, 0.2506391704082489, 4.715658664703369, -5.084544658660889, -11.676161766052246, -1.5999454259872437, 5.9347357749938965, 4.915394306182861, -11.565201759338379, 8.777749061584473, 0.8010981678962708, 14.112279891967773, -11.39194393157959, -8.869613647460938, -5.669421195983887, 7.286121368408203, -7.719961166381836, 11.852535247802734, 8.156037330627441, -11.593419075012207, 1.7670294046401978, -7.072506904602051, 1.2410950660705566, 1.2071808576583862, 14.980996131896973, -0.9615258574485779, 7.790182113647461, -5.650231838226318, -14.582764625549316, -3.4650275707244873, -9.188342094421387, -8.644316673278809, 11.24718189239502, -2.5818417072296143, -0.9127755761146545, -1.560428261756897, 4.205217361450195, -0.9515605568885803, -9.464842796325684, 13.012486457824707, 8.378180503845215, -1.8249435424804688, -6.819510459899902, -13.337544441223145, -3.9014828205108643, -5.402866840362549, -1.3103313446044922, -5.713329315185547, 2.9671730995178223, 2.1989850997924805, 1.7106024026870728, 0.0015178309986367822, 6.135974884033203, -9.105696678161621, 9.84296703338623, -17.226789474487305, 4.414514064788818, 9.299747467041016, 2.0135273933410645, 6.010125160217285, -2.6861703395843506, -6.201238632202148, 10.886649131774902, 2.823054075241089, 17.535730361938477, -14.354036331176758, -4.2704176902771, 2.375478506088257, 19.349491119384766, 12.291897773742676, 12.717643737792969, 6.071468830108643, -0.2597537338733673, -0.10133520513772964, 7.492857933044434, -5.795594692230225, -18.838233947753906, 10.860067367553711, 5.0731916427612305, -13.413766860961914, 1.0995442867279053, -10.103320121765137, -10.990094184875488, -3.9613029956817627, 5.768830299377441, 3.4395813941955566, -5.520346164703369, -2.311785936355591, 3.8229894638061523, -8.582868576049805, -1.9898232221603394, -4.458592891693115, -14.3616361618042, -3.6750993728637695, -8.901979446411133, -9.26994800567627, -4.277993202209473, 1.960084319114685, 3.3260080814361572, 1.8880616426467896, -9.424888610839844, -2.4634311199188232, -2.348205089569092, 9.48572063446045, 4.086793899536133, -10.53217601776123, 7.542690753936768, -9.043539047241211, 3.1328022480010986, 1.0113807916641235, -7.165410041809082, 5.949142932891846, -5.288261890411377, 10.159995079040527, -1.277764916419983, -4.284732818603516, -10.071882247924805, 1.7081798315048218, -6.239625453948975, 2.0081710815429688, 7.777911186218262, -1.016216516494751, -3.833911895751953, -7.87654447555542, 1.0971901416778564, 6.041190147399902, 0.6899749636650085, -0.25033512711524963, 2.6626555919647217, 5.069965839385986, -10.723345756530762, 7.617813587188721, 2.474973678588867, -3.450110912322998, 1.2506606578826904, -1.600394368171692, 3.4411885738372803, -15.57950210571289, 10.695531845092773, -6.906026840209961, -5.916281223297119, 4.739358425140381, -3.2547686100006104, 0.7998549938201904, 0.3215014338493347, 5.341058731079102, -1.1129364967346191, -2.3702621459960938, -1.4826089143753052, -4.034724712371826, 10.641647338867188, -1.655962347984314, 5.6177978515625, 0.6958767175674438, 6.030595779418945, 0.20127619802951813, 0.8458638787269592, -2.694755792617798, 15.297652244567871, 0.1356971263885498, 11.185314178466797, 9.770902633666992, -7.4355950355529785, 13.337998390197754, -3.61276912689209, 8.217594146728516, 12.26129150390625, -0.686934769153595, -6.619268894195557, -11.88663387298584, 4.681416034698486, 5.7985076904296875, -1.4347928762435913, -5.8464508056640625, 7.042099952697754, -12.222683906555176, 7.274820804595947, -5.205010414123535, 9.15310001373291, -9.198662757873535, -10.477571487426758, 11.877278327941895, 2.7012710571289062, -5.470942974090576, 2.9753310680389404, 1.2578552961349487, -6.748928070068359, 7.772522926330566, 11.736268997192383, 11.045062065124512, 6.116583347320557, 3.8806705474853516, 2.861816167831421, -7.4732513427734375, -0.8301345109939575, -3.5693254470825195, 1.1728981733322144, 13.229389190673828, 16.978788375854492, 12.876361846923828, -2.037539482116699, 1.2489371299743652, -6.906299114227295, 8.869906425476074, -9.754986763000488, -0.6125290989875793, 6.008950710296631, 8.152182579040527, -12.679582595825195, 2.3143420219421387, -13.628754615783691, 6.046173095703125, 5.071528911590576, 0.8316516876220703, 8.316793441772461, -0.18081364035606384, -2.074117660522461, 13.913311004638672, -9.332772254943848, 7.635857105255127, -1.9640750885009766, -9.217154502868652, 13.19498062133789, 11.953727722167969, -4.96735954284668, 5.334169387817383, -4.654589653015137, -11.196776390075684, 17.413543701171875, 0.5382235050201416, 8.213056564331055, 3.318542957305908, -14.471585273742676, 1.3360569477081299, 6.602967739105225, 6.667139530181885, -8.480709075927734, -2.2565090656280518, 1.7300502061843872, 4.924854278564453, -9.84603214263916, -0.4274633824825287, 7.069665431976318, -12.888883590698242, 5.1934733390808105, 1.3994684219360352, -1.768547534942627, -2.561901092529297, -7.336990833282471, 4.7725019454956055, 2.6274383068084717, -6.56484317779541, -0.1461910903453827, -2.8043596744537354, -7.0537333488464355, 5.720057010650635, 3.705326557159424, -0.013094590045511723, 1.8134675025939941, -6.055536270141602, 13.665482521057129, -17.00504493713379, -17.304359436035156, 24.468994140625, -1.367969036102295, 4.177035331726074, -11.668021202087402, -2.051375389099121, 4.76457405090332, 4.164040565490723, -1.8660591840744019, 1.0097267627716064, -1.3147393465042114, 17.50450325012207, 11.570682525634766, -5.343255519866943, 4.738148212432861, 0.8938971757888794, -5.46874475479126, 8.688425064086914, 4.892709255218506, 6.10166072845459, -7.431025505065918, 0.998746931552887, 6.718817234039307, 11.332470893859863, -10.054003715515137, 6.1358489990234375, 3.827343702316284, -1.9554082155227661, 1.0236114263534546, -5.992986679077148, -3.270569086074829, 8.95165729522705, 1.0629611015319824, 9.369722366333008, -1.1366599798202515, 6.9853596687316895, 5.300551891326904, -0.09694383293390274, -2.043795585632324, -4.388698101043701, -3.987884521484375, 3.7975270748138428, -4.043726444244385, -0.4640062153339386, 0.08205069601535797, -4.340146064758301, 7.962351322174072, -5.491829872131348, -1.6356525421142578, 6.501220226287842, 0.45988723635673523, 8.795286178588867, 0.7161476612091064, 0.5297603011131287, -6.98574161529541, -6.824284076690674, 11.060930252075195, 4.329741477966309, 2.4895503520965576, 5.906257629394531, 13.000625610351562, -2.7333481311798096, -1.115533709526062, -5.699623107910156, 2.0076377391815186, 4.429279804229736, -1.3822277784347534, 0.6990715861320496, -7.267883777618408, -1.6749354600906372, 8.999373435974121, -0.07305257022380829, -17.450519561767578, 4.213508605957031, -4.680418014526367, 3.874645948410034, 6.899837970733643, -0.7140130400657654, -11.074689865112305, -4.139400005340576, 0.38340604305267334, 2.7664120197296143, 8.620010375976562, 13.47628402709961, -1.824771523475647, -0.834226131439209, 7.343487739562988, -2.4439799785614014, -0.42831480503082275, 1.5732271671295166, 10.55084228515625, 4.084807395935059, 9.009140014648438, 8.864068031311035, -5.44704532623291, 1.868308663368225, 11.062867164611816, 2.72413969039917, -8.062442779541016, -10.107722282409668, -0.07611293345689774, -1.3686132431030273, 4.096977233886719, 0.1531514674425125, -0.4993191063404083, 1.8867301940917969, -7.0204267501831055, -2.883457899093628, -9.265763282775879, 4.967942237854004, -12.756657600402832, 3.1810123920440674, 6.450028419494629, -9.759480476379395, 7.5444207191467285, -0.5528919696807861, 0.19043678045272827, 1.793947696685791, 9.114859580993652, -1.4895739555358887, -4.026386260986328, 0.9029412269592285, 4.665940761566162, 1.4202195405960083, 3.9849984645843506, 2.0860378742218018, -4.459010601043701, -3.9206268787384033, -0.11571420729160309, -6.6185173988342285, -5.945321083068848, -14.990009307861328, 6.050374984741211, 0.7531470060348511, 4.4793009757995605, 7.303096294403076, 6.489978313446045, 6.690033435821533, 0.876157820224762, 2.8112640380859375, 5.409406661987305, 6.754119873046875, -1.4285590648651123, -7.67113733291626, -1.2645485401153564, 4.110180854797363, -6.568723201751709, -7.682804584503174, 7.398647785186768, 3.6662514209747314, 3.9252874851226807, 0.26168912649154663, 6.908633232116699, 4.778327465057373, 1.7856699228286743, 4.419926643371582, 0.8425197601318359, 10.756970405578613, -3.5562567710876465, 3.444392681121826, 7.796994209289551, -2.5432827472686768, -9.854513168334961, -10.695358276367188, 0.865527331829071, -4.356690406799316, 6.5087456703186035, -2.037479877471924, -2.087693214416504, -10.675874710083008, 7.161743640899658, -5.521520614624023, 5.509737014770508, 7.45595121383667};


