#include "layer.h"

layer batchnorm_l = {
	.CO = 8,
	.CI = 8,
	.IH = 8,
	.IW = 8,
	.OH = 8,
	.OW = 8,
	.FH = 0,
	.FW = 0
};


static double result[8][8][8] __attribute__((section(".data")));

static double checksum[8][8] = {12.213095664978027, 2.0706748962402344, 12.278728485107422, 12.076580047607422, 15.763036727905273, -0.752649188041687, 1.6402019262313843, 0.7214202880859375, 2.460890293121338, -5.101483345031738, 2.5000481605529785, 7.683223724365234, 3.501351833343506, 2.027345657348633, 7.86152982711792, 4.4181294441223145, 6.869993209838867, -2.3088903427124023, 7.457590103149414, 1.3637282848358154, 8.053293228149414, 5.366489410400391, 2.3296937942504883, 5.663974761962891, 5.434743881225586, -11.581876754760742, 3.4894986152648926, 5.7645263671875, -4.533069133758545, -4.748224258422852, 1.2782325744628906, 9.559268951416016, -1.2316598892211914, 1.2473134994506836, 5.252179145812988, 9.822516441345215, 4.818055152893066, 4.362349033355713, 10.456547737121582, -2.3655951023101807, -5.701593399047852, -0.5194132328033447, 2.6295344829559326, 3.9494709968566895, 10.74962043762207, 2.9519846439361572, -3.4753365516662598, 2.005847692489624, -2.9421162605285645, 11.231656074523926, -3.920327663421631, 12.284826278686523, 7.602507591247559, 0.405498743057251, 16.74363899230957, 9.903633117675781, 7.7749857902526855, 11.738415718078613, 5.041117191314697, 2.275442600250244, 6.694659233093262, 8.224172592163086, 4.151237487792969, 4.250237941741943};


static double ifmap_dram[8][8][8] = {1.9269152879714966, 1.4451338052749634, 1.931160569190979, 1.7743884325027466, -0.685481607913971, 0.4334380030632019, 0.6663737893104553, -1.3838845491409302, 1.4872840642929077, 0.8564125299453735, 1.0118638277053833, -0.921550989151001, 0.5635589957237244, -0.7171905636787415, -0.07426456362009048, 0.4868715703487396, 0.9007171988487244, 2.218075752258301, -1.4364064931869507, 0.9624499082565308, -1.507175087928772, 1.055369257926941, -0.20960482954978943, -1.0020296573638916, -2.1055209636688232, 0.5231655240058899, -1.1298598051071167, -0.33701515197753906, -1.610666036605835, -1.4533969163894653, 0.16632132232189178, 0.0329488180577755, 0.6784184575080872, 0.34664666652679443, -0.1360345333814621, -1.1753336191177368, -1.4790465831756592, 0.46515071392059326, 1.4703037738800049, -0.42919591069221497, -1.2345448732376099, -0.19733144342899323, 1.6354095935821533, 0.35805708169937134, 0.4322742819786072, 0.37139150500297546, -0.9390866756439209, -0.9817978739738464, -0.04306747764348984, -1.0545889139175415, 0.6547407507896423, 0.47876790165901184, -0.1250254064798355, -0.004656785633414984, -0.6013189554214478, -0.6420586109161377, -1.6046669483184814, 1.2779955863952637, 0.5760045647621155, 1.353700041770935, 0.7821183800697327, 0.07954943925142288, -0.09964022785425186, 0.8265887498855591, -0.7521352767944336, -0.1721901297569275, 1.1415079832077026, 0.5260620713233948, -1.598767638206482, 0.3781784772872925, -0.9851518273353577, 1.591395616531372, 1.6487230062484741, 0.5237884521484375, 0.018564576283097267, 2.1120378971099854, -0.10912995040416718, 0.7051141262054443, -2.488459348678589, -0.1208132952451706, -0.3924786448478699, 0.056621819734573364, -1.8058050870895386, -0.5207571387290955, 0.7151994705200195, -1.7236974239349365, -0.33131900429725647, -0.48302069306373596, -1.4036071300506592, 0.4262961447238922, 0.9254348874092102, -0.9320061206817627, 0.03913922235369682, -0.8434810638427734, 0.8435799479484558, 0.11329790204763412, -0.7278813123703003, 0.575005054473877, -0.3753443658351898, 0.18516133725643158, 1.305860161781311, 0.4351435601711273, 0.9874473810195923, 0.0771508663892746, -0.5594301819801331, -0.6417241096496582, 1.0330873727798462, 1.0686918497085571, 0.24659274518489838, 0.26588720083236694, -0.33197471499443054, -0.9228128790855408, -0.7688388824462891, -2.2063984870910645, -0.6866509318351746, 1.3065344095230103, -1.9775909185409546, -0.5870985388755798, -0.8076189756393433, -1.2619991302490234, 0.7624453902244568, -0.7508030533790588, 0.6368136405944824, 0.4598345160484314, 0.01789604313671589, 0.0826888456940651, 0.824364185333252, 1.0860532522201538, 1.6423169374465942, 0.01086814422160387, -0.9726738929748535, -0.8146268725395203, -1.3793021440505981, 0.8853808045387268, 0.024699924513697624, 1.096641182899475, -0.1595974713563919, -0.33874234557151794, 0.9584577679634094, -1.0212392807006836, 0.625802755355835, 0.1824439913034439, -1.0641486644744873, -0.6836934685707092, -0.4973975419998169, -1.3406795263290405, 1.6192004680633545, -0.49492356181144714, -2.5849502086639404, 0.7863810062408447, -0.7601934671401978, 0.06604336202144623, 0.439589262008667, -0.5853705406188965, 1.450609803199768, -0.5922516584396362, -0.02399955503642559, -0.057920295745134354, -0.4075061082839966, -0.0007737990817986429, -0.7581311464309692, 0.5361881256103516, 0.2694815397262573, 0.15431594848632812, -0.1221928745508194, 0.5666652917861938, 0.9623646140098572, 0.1620604395866394, 1.078317642211914, 0.5246226191520691, -0.21037597954273224, 0.4407670795917511, -0.7469954490661621, -0.7097623348236084, -0.14264194667339325, 1.195958137512207, 0.8008005619049072, 1.1412016153335571, -0.7328027486801147, -0.14829230308532715, 1.7093087434768677, -0.4875054359436035, 0.15271379053592682, -1.3061535358428955, 1.680620551109314, 0.05164359509944916, 0.10429783165454865, -2.3184432983398438, 0.05792269483208656, 0.050095997750759125, -0.0388023778796196, -1.4039719104766846, 1.27912437915802, 0.7439519762992859, 0.3487516939640045, -0.39799532294273376, 1.1929805278778076, 0.6084084510803223, 0.9446058869361877, -1.0597201585769653, 1.2964228391647339, -0.4815843999385834, 0.9675941467285156, 1.0804862976074219, 1.9372931718826294, 1.6308681964874268, -1.5824053287506104, 0.3057299852371216, 0.610466480255127, -1.0494661331176758, -0.46568843722343445, -1.7808643579483032, 0.7287133932113647, -0.08472306281328201, 0.9871290922164917, 0.4150581359863281, 1.334737777709961, 0.603898823261261, 1.6047972440719604, 1.5080454349517822, 0.9808937907218933, 1.0844124555587769, 1.1456739902496338, -0.7174144983291626, -0.2316243201494217, -1.7222950458526611, -2.4801201820373535, 0.30942854285240173, 0.41459226608276367, 0.9477656483650208, -0.14181147515773773, 2.833967924118042, 0.041759490966796875, -0.827768862247467, -0.4175437390804291, -0.5003090500831604, 1.15656316280365, -0.676629364490509, -0.2763414680957794, 1.9534740447998047, -0.2515752911567688, 1.334702968597412, -1.1954537630081177, 1.0350031852722168, 0.2690545618534088, -0.5730168223381042, -0.19321373105049133, 2.0486814975738525, 0.859858512878418, 0.48353928327560425, 0.8123369216918945, 1.6896470785140991, -0.036629438400268555, -0.3303174376487732, 0.7767809629440308, -1.0880382061004639, -1.3846737146377563, -2.5095443725585938, -1.9005532264709473, -0.004505051765590906, 0.9732939004898071, -0.7939430475234985, 0.6838752627372742, 1.621694564819336, -0.8712361454963684, 0.4880010485649109, 0.22857652604579926, 1.666792392730713, -1.0150787830352783, 0.3752319812774658, -1.3245893716812134, 0.8512656688690186, -0.223365917801857, 0.7845868468284607, 0.02485940419137478, 0.15392017364501953, -0.5419175624847412, 0.08790969103574753, -0.5160817503929138, -0.40046969056129456, 1.7173614501953125, 0.02864718623459339, -0.34595024585723877, -1.0602530241012573, -0.44102486968040466, -1.241483449935913, 0.6001842617988586, -0.6088271737098694, 0.3188803195953369, 0.640755295753479, 0.2868328094482422, -0.572657585144043, -0.3136177957057953, -0.32025346159935, -0.4702208340167999, -0.508095383644104, -0.42451897263526917, 0.5832474231719971, -0.7308424115180969, 0.0835680365562439, -0.12925422191619873, -0.844377875328064, -0.6086435317993164, -0.6184902191162109, 0.3057209253311157, 1.0669267177581787, 0.17482025921344757, 0.39990535378456116, -0.7149624228477478, -0.5513465404510498, -0.046192023903131485, -1.647040605545044, -0.7745925188064575, -0.4501533806324005, -1.0939292907714844, 1.989207148551941, -0.047562163323163986, 1.9889612197875977, -1.6457397937774658, -1.0362098217010498, -1.5575724840164185, -0.18526747822761536, -1.6021603345870972, -0.07198750972747803, 2.0207436084747314, 1.900311827659607, -0.4833274185657501, -0.4503057301044464, 0.9956361055374146, 0.7527588605880737, 1.3528969287872314, -0.906094491481781, 0.25391900539398193, 1.6950805187225342, -0.740294337272644, -0.0729660615324974, -0.8797858357429504, 0.4047577977180481, 1.288827657699585, -2.0487122535705566, 0.9364385008811951, 0.028089528903365135, 0.31428107619285583, -0.5479549169540405, -0.6011420488357544, 0.17846599221229553, 0.05229547247290611, -1.0810555219650269, 0.7122363448143005, -0.17536965012550354, 0.1415553092956543, -1.1425532102584839, -1.2741512060165405, 0.2649095058441162, -1.5468504428863525, 0.01762307994067669, -0.031765542924404144, -1.7734959125518799, 1.0348176956176758, -0.44875210523605347, 2.1227850914001465, 1.2731683254241943, 0.7567060589790344, 0.0782259851694107, 0.10164086520671844, -0.7046414017677307, -0.626437783241272, -0.03045438416302204, -1.234653115272522, -0.0013108636485412717, 0.7755194902420044, 0.19315829873085022, 1.3433040380477905, -0.39465200901031494, -0.5150922536849976, 0.3830311596393585, -0.4879138767719269, -0.30360376834869385, 2.0265355110168457, 0.40967342257499695, 0.7132695913314819, 1.8868111371994019, 0.6902899742126465, -0.04476971551775932, -0.9138230085372925, -1.457029104232788, 0.03581761196255684, -0.9291303157806396, 0.4038029611110687, -0.21844321489334106, -0.4939993619918823, 1.179942011833191, -0.6581372618675232, -0.10233523696660995, 0.12058872729539871, 0.2761908769607544, -0.7139783501625061, 0.16629981994628906, 1.1366126537322998, -0.33142781257629395, 0.07802387326955795, -0.5991530418395996, -0.8056637048721313, -0.5388752818107605, 0.8337291479110718, 2.1441681385040283, -0.46184006333351135, 0.6495042443275452, 0.5258087515830994, 0.4770564138889313, -0.20757682621479034, 0.4625823199748993, -0.9585452079772949, 1.7045671939849854, 1.419979453086853, 0.09495851397514343, -0.48799172043800354, 0.7261772155761719, -0.9319478273391724, -0.8718891143798828, 0.45363426208496094, 0.3459012508392334, 0.848518967628479, -0.7525874376296997, 1.1913690567016602, 0.09115186333656311, -1.5909662246704102, -0.027118360623717308, 1.2460919618606567, 0.6424751281738281, -0.047891248017549515, -0.647229790687561, -0.8140076398849487, -0.3890652060508728, -1.13597571849823, -0.3532457649707794, -2.3065085411071777, -0.20395424962043762, 0.6685602068901062, -1.2822614908218384, -0.7359927892684937, 0.5279164910316467, -0.52259761095047, 1.4638569355010986, -1.2868918180465698, 0.6853673458099365, 1.0429801940917969, 1.96529221534729, -1.4032478332519531, -0.012685478664934635, -0.5187733173370361, 1.255434274673462, 0.17988650500774384, -0.13968797028064728, 0.6899017095565796, -0.9638485312461853, 0.03600366786122322, 0.24083632230758667, -1.5012763738632202, -0.7149558067321777, -2.126762628555298, -1.1807502508163452, -1.3129348754882812, -2.5667941570281982, -0.06347727030515671, 0.13253536820411682, -1.9266542196273804, 0.8539193272590637, -0.13408313691616058, -1.282929539680481, 0.03780364990234375, 0.7096128463745117, 0.6756148934364319, 0.7642406225204468, 0.1278512328863144, 0.512991189956665, -1.0407685041427612, 0.448485791683197, -1.1702114343643188, 0.8198426961898804, -0.0978068932890892, 1.095009684562683, 1.0229133367538452, 0.5397310256958008, -0.7647228837013245, -0.590737521648407, -0.10318559408187866, 0.6214459538459778, 1.8445940017700195, 0.3398909568786621, -0.5557951331138611, 0.5655050277709961, -0.05528254434466362, 0.8540631532669067, 1.1894739866256714, 0.42318588495254517, -1.184537410736084, 0.7199674844741821, 0.7042727470397949, 0.5057917237281799, 1.204850673675537, -0.4900680184364319, 0.7606944441795349, -0.33889833092689514, 1.3835493326187134, 0.41140761971473694, 0.7098760008811951, 0.22245365381240845, -0.982473611831665, -0.35945725440979004, -0.7463049292564392, 0.5179733633995056};


static double weights0_dram[8] = {0.03869054839015007, 1.1395485401153564, -0.25755172967910767, 0.06558345258235931, -3.5646235942840576, -0.7031920552253723, 3.977374315261841, -1.563779354095459};


static double weights1_dram[8] = {0.2805369198322296, 0.6480001211166382, -1.505038857460022, 0.08193675428628922, 1.614808201789856, 0.6030502319335938, 4.380831718444824, -2.184581756591797};


static double ofmap_dram[8][8][8] = {0.35509032011032104, 2.294800281524658, -2.0024125576019287, 0.19830727577209473, 4.058291912078857, 0.29826006293296814, 7.03125, -0.020491600036621094, 0.3380807638168335, 1.6239237785339355, -1.7656461000442505, 0.021498259156942368, -0.3940674066543579, 1.1073729991912842, 4.085453987121582, -2.94594144821167, 0.31538617610931396, 3.175605297088623, -1.1350898742675781, 0.1450575441122055, 6.9873199462890625, -0.1390770673751831, 3.5471549034118652, -0.6176284551620483, 0.1990731656551361, 1.2441725730895996, -1.2140414714813232, 0.05983413755893707, 7.356226444244385, 1.6250673532485962, 5.042353630065918, -2.2361063957214355, 0.30678531527519226, 1.0430208444595337, -1.4700028896331787, 0.004854314029216766, 6.887052536010742, 0.27595993876457214, 10.228780746459961, -1.5134140253067017, 0.23277169466018677, 0.4231313467025757, -1.926241397857666, 0.10541937500238419, 0.0739130973815918, 0.3418906629085541, 0.6457324028015137, -0.6492664813995361, 0.2788706123828888, -0.5537551641464233, -1.6736685037612915, 0.11333601176738739, 2.060476779937744, 0.6063248515129089, 1.9891612529754639, -1.1805437803268433, 0.21845147013664246, 2.1043381690979004, -1.653389811515808, 0.17071707546710968, -1.1731494665145874, 0.5471116900444031, 3.984525203704834, -3.477184295654297, 0.25143638253211975, 0.45178109407424927, -1.7990362644195557, 0.11643771827220917, 7.313812732696533, 0.33711811900138855, 0.46251416206359863, -4.673173427581787, 0.344326913356781, 1.2448824644088745, -1.5098202228546143, 0.2204515039920807, 2.0038154125213623, 0.10721957683563232, -5.516702651977539, -1.9956563711166382, 0.26535171270370483, 0.7125234603881836, -1.0399506092071533, 0.04778370261192322, -0.9346088171005249, 1.8151406049728394, 3.063052177429199, -1.429244041442871, 0.22623059153556824, 1.1337852478027344, -1.7433862686157227, 0.02081257477402687, 1.4752916097640991, 1.1961793899536133, 7.736064910888672, -2.3617546558380127, 0.2523747980594635, 1.303246259689331, -1.4083682298660278, 0.09408027678728104, -3.0400919914245605, 0.2970607280731201, 8.308279037475586, -2.3052287101745605, 0.2588922679424286, -0.0832756757736206, -1.771112322807312, 0.1520252525806427, 0.7357978820800781, 0.4160804748535156, 3.060443878173828, -0.7415059804916382, 0.2507901191711426, -1.8662980794906616, -1.3281906843185425, 0.16762378811836243, 8.664175987243652, 1.0158932209014893, 1.1686286926269531, -0.21109354496002197, 0.3100363612174988, -0.20757639408111572, -1.6690512895584106, 0.11209429055452347, 1.5510154962539673, 0.5449041128158569, 7.659636497497559, -3.8829293251037598, 0.34407907724380493, 0.6603848934173584, -1.2545249462127686, 0.02851071208715439, 6.531500816345215, -0.01954251527786255, 4.479072570800781, -3.899486541748047, 0.2743619978427887, 0.26198676228523254, -1.7518913745880127, 0.014960356056690216, -0.6159430742263794, 0.4747570753097534, 0.1483139991760254, -1.11543607711792, 0.26129233837127686, -0.8797693252563477, -1.9220666885375977, 0.0494779571890831, 10.829182624816895, 0.05007338523864746, 1.3572578430175781, -2.2878589630126953, 0.2975448668003082, -0.019058048725128174, -1.878645896911621, 0.04309484735131264, 1.7003575563430786, 0.6437793374061584, 2.7600274085998535, -2.1833717823028564, 0.25120440125465393, 1.2590124607086182, -1.57444429397583, 0.09205732494592667, 2.050379753112793, 0.20457568764686584, 8.208516120910645, -2.4380085468292236, 0.3222576081752777, 1.2458330392837524, -1.4508562088012695, 0.11084377765655518, 4.277565956115723, 1.102149486541748, 3.8134913444519043, -4.05479621887207, 0.3115203380584717, 1.948454737663269, -1.3163042068481445, 0.07221123576164246, -4.47823429107666, 0.9458601474761963, 4.988231658935547, -0.1420457363128662, 0.34556105732917786, 0.706850528717041, -1.5319010019302368, -0.07011476904153824, 1.408335566520691, 0.5678231120109558, 4.226500034332275, 0.010920524597167969, 0.3300269544124603, 1.4957695007324219, -1.5948604345321655, 0.05583484470844269, -2.637718677520752, 0.175222247838974, 8.137883186340332, -0.5274132490158081, 0.3306962251663208, 0.09921133518218994, -1.7542444467544556, 0.15279877185821533, -5.290913105010986, -0.543763279914856, -1.9129867553710938, -2.6626760959625244, 0.30415621399879456, -0.5479174852371216, -1.38510000705719, -0.03485848009586334, -0.9827808141708374, 0.6626268029212952, 8.307013511657715, -2.8336410522460938, 0.33217865228652954, 1.336172103881836, -1.9183571338653564, 0.18083958327770233, -1.8817089796066284, -0.15950000286102295, 8.937605857849121, -1.0627037286758423, 0.2715752422809601, -1.3146387338638306, -0.8662796020507812, 0.10223014652729034, 0.13694286346435547, -0.06341105699539185, 3.8167943954467773, -6.6162824630737305, 0.28215262293815613, -0.29528266191482544, -1.3974997997283936, 0.04912475869059563, -2.507904052734375, 1.0788506269454956, 3.2817182540893555, -5.239384174346924, 0.2708033323287964, 2.168958902359009, -1.1971476078033447, 0.14981582760810852, 0.6557299494743347, 1.0059911012649536, 3.6123483180999756, -5.388267517089844, 0.31380531191825867, 1.1990165710449219, -1.7142575979232788, 0.19274964928627014, 1.7453783750534058, 0.8353268504142761, 7.4703803062438965, -0.4831300973892212, 0.2269631326198578, -2.211747646331787, -1.0155481100082397, 0.0816412940621376, -1.8546181917190552, 1.1613446474075317, 7.100859642028809, -4.720554351806641, 0.24682831764221191, 1.2041010856628418, -1.5639091730117798, 0.1912507563829422, 5.233181953430176, 0.3391900956630707, -0.8875560760498047, -3.515773296356201, 0.27189478278160095, 1.5420749187469482, -1.5114414691925049, 0.09203137457370758, 3.5465402603149414, 0.5412328243255615, 2.328181505203247, -1.558335542678833, 0.34698256850242615, 0.6806449890136719, -1.4159387350082397, 0.012401700019836426, 3.1868958473205566, 1.4760515689849854, 6.767989158630371, -1.2325103282928467, 0.2928745746612549, 1.3781719207763672, -1.5789130926132202, 0.04437989369034767, 2.7327375411987305, 0.8282499313354492, 2.510587453842163, -1.3900327682495117, 0.26411205530166626, 1.3126388788223267, -1.3168091773986816, 0.08741743117570877, 2.0755507946014404, 1.196810007095337, 1.9600286483764648, -1.2173995971679688, 0.2923654317855835, 1.8638149499893188, -1.5500640869140625, 0.10816393047571182, 4.163380146026611, 0.9907526969909668, 4.197108745574951, 0.39102625846862793, 0.2505674958229065, 0.13502848148345947, -1.2232954502105713, 0.2123958170413971, 1.7843494415283203, -0.7955714464187622, -2.164891242980957, -0.5641782283782959, 0.22027358412742615, 0.43687883019447327, -1.0923997163772583, 0.07721556723117828, -5.588382244110107, -0.7332339286804199, 2.4584577083587646, -1.480402946472168, 0.3190586268901825, 1.5058053731918335, -1.8534798622131348, 0.02251194790005684, 0.7096825242042542, -0.5889168977737427, 1.4364039897918701, -2.070478916168213, 0.2464975267648697, 1.109241247177124, -1.8369786739349365, -0.05242487043142319, -1.7232426404953003, 0.5832979083061218, 5.630845069885254, -1.3277010917663574, 0.2572784125804901, 0.8513708114624023, -1.5185075998306274, 0.011037401854991913, -0.9240461587905884, 0.72636878490448, 4.943850040435791, -0.3978806734085083, 0.23123931884765625, 0.9498773813247681, -1.106644868850708, 0.08309253305196762, 1.7280404567718506, 1.850158452987671, 8.496688842773438, -1.482832431793213, 0.36266863346099854, 2.098837375640869, -1.6999298334121704, 0.08706708252429962, 1.2524967193603516, 1.098548412322998, 1.889254093170166, -2.136957883834839, 0.2327675223350525, 0.6465063095092773, -1.7047752141952515, 0.0946047455072403, -3.17356538772583, 0.8805663585662842, 2.3321170806884766, -2.783557891845703, 0.26165926456451416, 0.3020288944244385, -2.0269765853881836, 0.10880455374717712, -0.9277294874191284, -0.7237403392791748, 7.126373291015625, -2.1145718097686768, 0.24518060684204102, -1.0123552083969116, -1.5142637491226196, 0.0210011787712574, 0.17540264129638672, 0.7566577792167664, 2.416011333465576, -4.029750823974609, 0.255073219537735, 0.5313841700553894, -1.5360966920852661, 0.10005030781030655, 4.159872055053711, 0.48610952496528625, 8.901565551757812, -1.6663017272949219, 0.2835557162761688, -0.034763872623443604, -1.2975387573242188, 0.04659545421600342, -1.3571223020553589, -0.9047117233276367, 2.5439209938049316, -3.200263023376465, 0.3008807599544525, 1.1916290521621704, -1.451577067375183, 0.11227449774742126, 5.031661033630371, -0.5955878496170044, 10.028621673583984, -2.333076000213623, 0.261656254529953, 1.47551429271698, -1.2650140523910522, 0.02475525438785553, -0.002227187156677246, 0.35981523990631104, 7.755709171295166, -1.00770103931427, 0.326631635427475, 0.7518720626831055, -1.095282793045044, 0.08015824109315872, -2.827040672302246, 0.15126681327819824, 4.190350532531738, -1.172457218170166, 0.24904251098632812, 0.2046414315700531, -1.2124663591384888, 0.058769676834344864, 9.83664321899414, 0.746469259262085, 7.039945602416992, -0.17940759658813477, 0.2520609498023987, 1.249586582183838, -1.3704429864883423, 0.17794154584407806, 6.202093124389648, 0.1211053729057312, 8.529153823852539, -5.257864952087402, 0.2262444943189621, 0.633544385433197, -1.3714278936386108, 0.1642724573612213, 0.973580539226532, 0.7012777328491211, 7.124829292297363, -0.6773353815078735, 0.2819299101829529, 0.9224448204040527, -1.1183825731277466, 0.03504748269915581, 9.195916175842285, 1.4333443641662598, -0.8412017822265625, 1.8293180465698242, 0.27808094024658203, 0.799030601978302, -1.0088257789611816, 0.13793973624706268, 2.092764139175415, 1.5051960945129395, 4.531190872192383, -3.294259548187256, 0.30667683482170105, 1.5188894271850586, -1.5379672050476074, 0.1155804842710495, 5.324756145477295, 0.287678599357605, -0.27353715896606445, -3.466634750366211, 0.2767527103424072, 1.8958168029785156, -1.7684919834136963, 0.11733417958021164, 4.340757369995117, 1.0184521675109863, 3.970423936843872, -3.156386137008667, 0.35190528631210327, 1.0353224277496338, -1.361892819404602, 0.11902453005313873, 1.8118696212768555, 0.0024797916412353516, 9.111814498901367, -2.846351146697998, 0.23470652103424072, 1.4684380292892456, -1.6864255666732788, 0.11510832607746124, -2.6800308227539062, 0.9476621747016907, 7.406398296356201, -1.6546194553375244, 0.3340671956539154, 1.116819143295288, -1.687868595123291, 0.09652603417634964, 5.11695671081543, 0.8558176755905151, 1.4124977588653564, -2.9945778846740723};


